## LambdaMART
## No. of trees = 1000
## No. of leaves = 10
## No. of threshold candidates = 256
## Learning rate = 0.11
## Stop early = 100

<ensemble>
	<tree id="1" weight="0.11">
		<split>
			<feature> 130 </feature>
			<threshold> 355.60156 </threshold>
			<split pos="left">
				<feature> 64 </feature>
				<threshold> 0.07968753 </threshold>
				<split pos="left">
					<feature> 53 </feature>
					<threshold> 0.05078125 </threshold>
					<split pos="left">
						<feature> 128 </feature>
						<threshold> 6.1222736E7 </threshold>
						<split pos="left">
							<feature> 131 </feature>
							<threshold> 57855.234 </threshold>
							<split pos="left">
								<output> 0.8768048286437988 </output>
							</split>
							<split pos="right">
								<output> 1.1474950313568115 </output>
							</split>
						</split>
						<split pos="right">
							<output> 1.793289065361023 </output>
						</split>
					</split>
					<split pos="right">
						<feature> 16 </feature>
						<threshold> 4.9237227 </threshold>
						<split pos="left">
							<output> 1.2639193534851074 </output>
						</split>
						<split pos="right">
							<output> 1.078344702720642 </output>
						</split>
					</split>
				</split>
				<split pos="right">
					<feature> 131 </feature>
					<threshold> 48127.53 </threshold>
					<split pos="left">
						<output> 1.117767333984375 </output>
					</split>
					<split pos="right">
						<feature> 127 </feature>
						<threshold> 34.17578 </threshold>
						<split pos="left">
							<feature> 133 </feature>
							<threshold> 3.0 </threshold>
							<split pos="left">
								<output> 1.8702086210250854 </output>
							</split>
							<split pos="right">
								<output> 1.413313388824463 </output>
							</split>
						</split>
						<split pos="right">
							<output> 1.2696608304977417 </output>
						</split>
					</split>
				</split>
			</split>
			<split pos="right">
				<output> -0.9378566145896912 </output>
			</split>
		</split>
	</tree>
	<tree id="2" weight="0.11">
		<split>
			<feature> 130 </feature>
			<threshold> 355.60156 </threshold>
			<split pos="left">
				<feature> 64 </feature>
				<threshold> 0.07734378 </threshold>
				<split pos="left">
					<feature> 131 </feature>
					<threshold> 57855.234 </threshold>
					<split pos="left">
						<output> 0.5655430555343628 </output>
					</split>
					<split pos="right">
						<output> 1.1088802814483643 </output>
					</split>
				</split>
				<split pos="right">
					<feature> 131 </feature>
					<threshold> 48127.53 </threshold>
					<split pos="left">
						<output> 1.0814509391784668 </output>
					</split>
					<split pos="right">
						<feature> 22 </feature>
						<threshold> 10.0 </threshold>
						<split pos="left">
							<feature> 127 </feature>
							<threshold> 34.17578 </threshold>
							<split pos="left">
								<feature> 133 </feature>
								<threshold> 3.0 </threshold>
								<split pos="left">
									<output> 1.509893774986267 </output>
								</split>
								<split pos="right">
									<output> 1.2636858224868774 </output>
								</split>
							</split>
							<split pos="right">
								<feature> 109 </feature>
								<threshold> 3.9483516 </threshold>
								<split pos="left">
									<output> 1.6604657173156738 </output>
								</split>
								<split pos="right">
									<feature> 121 </feature>
									<threshold> -10.83866 </threshold>
									<split pos="left">
										<output> 1.4251601696014404 </output>
									</split>
									<split pos="right">
										<output> 1.1781409978866577 </output>
									</split>
								</split>
							</split>
						</split>
						<split pos="right">
							<output> 1.783848762512207 </output>
						</split>
					</split>
				</split>
			</split>
			<split pos="right">
				<output> -1.2610890865325928 </output>
			</split>
		</split>
	</tree>
	<tree id="3" weight="0.11">
		<split>
			<feature> 130 </feature>
			<threshold> 355.60156 </threshold>
			<split pos="left">
				<feature> 27 </feature>
				<threshold> 9.0 </threshold>
				<split pos="left">
					<feature> 64 </feature>
					<threshold> 0.07734378 </threshold>
					<split pos="left">
						<feature> 131 </feature>
						<threshold> 57855.234 </threshold>
						<split pos="left">
							<output> 0.38715872168540955 </output>
						</split>
						<split pos="right">
							<output> 0.9432195425033569 </output>
						</split>
					</split>
					<split pos="right">
						<feature> 131 </feature>
						<threshold> 48127.53 </threshold>
						<split pos="left">
							<output> 0.9338464736938477 </output>
						</split>
						<split pos="right">
							<feature> 127 </feature>
							<threshold> 34.17578 </threshold>
							<split pos="left">
								<feature> 133 </feature>
								<threshold> 3.0 </threshold>
								<split pos="left">
									<feature> 64 </feature>
									<threshold> 0.20156236 </threshold>
									<split pos="left">
										<output> 1.2756232023239136 </output>
									</split>
									<split pos="right">
										<output> 1.483213186264038 </output>
									</split>
								</split>
								<split pos="right">
									<output> 1.0559855699539185 </output>
								</split>
							</split>
							<split pos="right">
								<feature> 121 </feature>
								<threshold> -10.83866 </threshold>
								<split pos="left">
									<output> 1.2176358699798584 </output>
								</split>
								<split pos="right">
									<output> 0.9921842217445374 </output>
								</split>
							</split>
						</split>
					</split>
				</split>
				<split pos="right">
					<output> 1.5734918117523193 </output>
				</split>
			</split>
			<split pos="right">
				<output> -1.073219895362854 </output>
			</split>
		</split>
	</tree>
	<tree id="4" weight="0.11">
		<split>
			<feature> 130 </feature>
			<threshold> 355.60156 </threshold>
			<split pos="left">
				<feature> 27 </feature>
				<threshold> 9.0 </threshold>
				<split pos="left">
					<feature> 64 </feature>
					<threshold> 0.07734378 </threshold>
					<split pos="left">
						<feature> 131 </feature>
						<threshold> 57855.234 </threshold>
						<split pos="left">
							<output> 0.32379186153411865 </output>
						</split>
						<split pos="right">
							<output> 0.8031443357467651 </output>
						</split>
					</split>
					<split pos="right">
						<feature> 131 </feature>
						<threshold> 48127.53 </threshold>
						<split pos="left">
							<output> 0.7988110780715942 </output>
						</split>
						<split pos="right">
							<feature> 127 </feature>
							<threshold> 34.17578 </threshold>
							<split pos="left">
								<feature> 133 </feature>
								<threshold> 3.0 </threshold>
								<split pos="left">
									<feature> 14 </feature>
									<threshold> 4.0 </threshold>
									<split pos="left">
										<output> 1.347165584564209 </output>
									</split>
									<split pos="right">
										<output> 1.132462978363037 </output>
									</split>
								</split>
								<split pos="right">
									<output> 0.9106148481369019 </output>
								</split>
							</split>
							<split pos="right">
								<feature> 121 </feature>
								<threshold> -10.83866 </threshold>
								<split pos="left">
									<output> 1.079075813293457 </output>
								</split>
								<split pos="right">
									<output> 0.849756121635437 </output>
								</split>
							</split>
						</split>
					</split>
				</split>
				<split pos="right">
					<output> 1.4406309127807617 </output>
				</split>
			</split>
			<split pos="right">
				<output> -0.9287424087524414 </output>
			</split>
		</split>
	</tree>
	<tree id="5" weight="0.11">
		<split>
			<feature> 130 </feature>
			<threshold> 355.60156 </threshold>
			<split pos="left">
				<feature> 27 </feature>
				<threshold> 9.0 </threshold>
				<split pos="left">
					<feature> 64 </feature>
					<threshold> 0.07734378 </threshold>
					<split pos="left">
						<feature> 131 </feature>
						<threshold> 57855.234 </threshold>
						<split pos="left">
							<output> 0.2760593295097351 </output>
						</split>
						<split pos="right">
							<output> 0.6927438974380493 </output>
						</split>
					</split>
					<split pos="right">
						<feature> 131 </feature>
						<threshold> 48127.53 </threshold>
						<split pos="left">
							<output> 0.6741928458213806 </output>
						</split>
						<split pos="right">
							<feature> 127 </feature>
							<threshold> 34.17578 </threshold>
							<split pos="left">
								<feature> 133 </feature>
								<threshold> 3.0 </threshold>
								<split pos="left">
									<feature> 14 </feature>
									<threshold> 4.0 </threshold>
									<split pos="left">
										<output> 1.2520020008087158 </output>
									</split>
									<split pos="right">
										<output> 1.026224970817566 </output>
									</split>
								</split>
								<split pos="right">
									<output> 0.7944669127464294 </output>
								</split>
							</split>
							<split pos="right">
								<feature> 121 </feature>
								<threshold> -10.83866 </threshold>
								<split pos="left">
									<output> 0.9672218561172485 </output>
								</split>
								<split pos="right">
									<output> 0.7329441905021667 </output>
								</split>
							</split>
						</split>
					</split>
				</split>
				<split pos="right">
					<output> 1.3512886762619019 </output>
				</split>
			</split>
			<split pos="right">
				<output> -0.8092359900474548 </output>
			</split>
		</split>
	</tree>
	<tree id="6" weight="0.11">
		<split>
			<feature> 130 </feature>
			<threshold> 355.60156 </threshold>
			<split pos="left">
				<feature> 27 </feature>
				<threshold> 9.0 </threshold>
				<split pos="left">
					<feature> 64 </feature>
					<threshold> 0.07734378 </threshold>
					<split pos="left">
						<feature> 131 </feature>
						<threshold> 57855.234 </threshold>
						<split pos="left">
							<output> 0.23254404962062836 </output>
						</split>
						<split pos="right">
							<output> 0.5989144444465637 </output>
						</split>
					</split>
					<split pos="right">
						<feature> 131 </feature>
						<threshold> 48127.53 </threshold>
						<split pos="left">
							<output> 0.582486629486084 </output>
						</split>
						<split pos="right">
							<feature> 127 </feature>
							<threshold> 34.17578 </threshold>
							<split pos="left">
								<feature> 133 </feature>
								<threshold> 3.0 </threshold>
								<split pos="left">
									<feature> 14 </feature>
									<threshold> 4.0 </threshold>
									<split pos="left">
										<output> 1.179715633392334 </output>
									</split>
									<split pos="right">
										<output> 0.9372262358665466 </output>
									</split>
								</split>
								<split pos="right">
									<output> 0.6947373151779175 </output>
								</split>
							</split>
							<split pos="right">
								<feature> 121 </feature>
								<threshold> -10.83866 </threshold>
								<split pos="left">
									<output> 0.8739488124847412 </output>
								</split>
								<split pos="right">
									<output> 0.6344224214553833 </output>
								</split>
							</split>
						</split>
					</split>
				</split>
				<split pos="right">
					<output> 1.2885147333145142 </output>
				</split>
			</split>
			<split pos="right">
				<output> -0.7108711004257202 </output>
			</split>
		</split>
	</tree>
	<tree id="7" weight="0.11">
		<split>
			<feature> 130 </feature>
			<threshold> 355.60156 </threshold>
			<split pos="left">
				<feature> 27 </feature>
				<threshold> 9.0 </threshold>
				<split pos="left">
					<feature> 64 </feature>
					<threshold> 0.07734378 </threshold>
					<split pos="left">
						<feature> 131 </feature>
						<threshold> 57855.234 </threshold>
						<split pos="left">
							<output> 0.19606028497219086 </output>
						</split>
						<split pos="right">
							<output> 0.5174610018730164 </output>
						</split>
					</split>
					<split pos="right">
						<feature> 131 </feature>
						<threshold> 48127.53 </threshold>
						<split pos="left">
							<output> 0.5031141638755798 </output>
						</split>
						<split pos="right">
							<feature> 127 </feature>
							<threshold> 34.17578 </threshold>
							<split pos="left">
								<feature> 133 </feature>
								<threshold> 3.0 </threshold>
								<split pos="left">
									<output> 0.9127485156059265 </output>
								</split>
								<split pos="right">
									<output> 0.6079688668251038 </output>
								</split>
							</split>
							<split pos="right">
								<feature> 121 </feature>
								<threshold> -12.751406 </threshold>
								<split pos="left">
									<output> 0.8499549031257629 </output>
								</split>
								<split pos="right">
									<feature> 109 </feature>
									<threshold> 3.9483516 </threshold>
									<split pos="left">
										<output> 1.1018487215042114 </output>
									</split>
									<split pos="right">
										<output> 0.5572856068611145 </output>
									</split>
								</split>
							</split>
						</split>
					</split>
				</split>
				<split pos="right">
					<output> 1.2428303956985474 </output>
				</split>
			</split>
			<split pos="right">
				<output> -0.6244010925292969 </output>
			</split>
		</split>
	</tree>
	<tree id="8" weight="0.11">
		<split>
			<feature> 130 </feature>
			<threshold> 355.60156 </threshold>
			<split pos="left">
				<feature> 27 </feature>
				<threshold> 9.0 </threshold>
				<split pos="left">
					<feature> 64 </feature>
					<threshold> 0.07734378 </threshold>
					<split pos="left">
						<feature> 131 </feature>
						<threshold> 57855.234 </threshold>
						<split pos="left">
							<output> 0.1649046242237091 </output>
						</split>
						<split pos="right">
							<output> 0.4458085298538208 </output>
						</split>
					</split>
					<split pos="right">
						<feature> 131 </feature>
						<threshold> 48127.53 </threshold>
						<split pos="left">
							<output> 0.433372437953949 </output>
						</split>
						<split pos="right">
							<feature> 121 </feature>
							<threshold> -7.650751 </threshold>
							<split pos="left">
								<feature> 113 </feature>
								<threshold> -5.1572847 </threshold>
								<split pos="left">
									<output> 0.7035306692123413 </output>
								</split>
								<split pos="right">
									<output> 0.8780794739723206 </output>
								</split>
							</split>
							<split pos="right">
								<feature> 16 </feature>
								<threshold> 1.3285565 </threshold>
								<split pos="left">
									<output> 1.1550923585891724 </output>
								</split>
								<split pos="right">
									<feature> 127 </feature>
									<threshold> 34.17578 </threshold>
									<split pos="left">
										<output> 0.5557160973548889 </output>
									</split>
									<split pos="right">
										<output> 0.3510318398475647 </output>
									</split>
								</split>
							</split>
						</split>
					</split>
				</split>
				<split pos="right">
					<output> 1.2086420059204102 </output>
				</split>
			</split>
			<split pos="right">
				<output> -0.5480207800865173 </output>
			</split>
		</split>
	</tree>
	<tree id="9" weight="0.11">
		<split>
			<feature> 130 </feature>
			<threshold> 355.60156 </threshold>
			<split pos="left">
				<feature> 27 </feature>
				<threshold> 9.0 </threshold>
				<split pos="left">
					<feature> 64 </feature>
					<threshold> 0.07734378 </threshold>
					<split pos="left">
						<feature> 131 </feature>
						<threshold> 57855.234 </threshold>
						<split pos="left">
							<output> 0.13920125365257263 </output>
						</split>
						<split pos="right">
							<output> 0.3808412551879883 </output>
						</split>
					</split>
					<split pos="right">
						<feature> 131 </feature>
						<threshold> 48127.53 </threshold>
						<split pos="left">
							<output> 0.3713075518608093 </output>
						</split>
						<split pos="right">
							<feature> 121 </feature>
							<threshold> -7.650751 </threshold>
							<split pos="left">
								<feature> 113 </feature>
								<threshold> -5.1572847 </threshold>
								<split pos="left">
									<output> 0.634272575378418 </output>
								</split>
								<split pos="right">
									<output> 0.8160005807876587 </output>
								</split>
							</split>
							<split pos="right">
								<feature> 16 </feature>
								<threshold> 1.3285565 </threshold>
								<split pos="left">
									<output> 1.10929274559021 </output>
								</split>
								<split pos="right">
									<feature> 59 </feature>
									<threshold> 0.142857 </threshold>
									<split pos="left">
										<output> 0.23165324330329895 </output>
									</split>
									<split pos="right">
										<output> 0.5124991536140442 </output>
									</split>
								</split>
							</split>
						</split>
					</split>
				</split>
				<split pos="right">
					<output> 1.1819781064987183 </output>
				</split>
			</split>
			<split pos="right">
				<output> -0.4791093170642853 </output>
			</split>
		</split>
	</tree>
	<tree id="10" weight="0.11">
		<split>
			<feature> 130 </feature>
			<threshold> 355.60156 </threshold>
			<split pos="left">
				<feature> 27 </feature>
				<threshold> 9.0 </threshold>
				<split pos="left">
					<feature> 64 </feature>
					<threshold> 0.07734378 </threshold>
					<split pos="left">
						<feature> 131 </feature>
						<threshold> 57855.234 </threshold>
						<split pos="left">
							<output> 0.11687566339969635 </output>
						</split>
						<split pos="right">
							<output> 0.32551929354667664 </output>
						</split>
					</split>
					<split pos="right">
						<feature> 131 </feature>
						<threshold> 48127.53 </threshold>
						<split pos="left">
							<output> 0.3164023160934448 </output>
						</split>
						<split pos="right">
							<feature> 111 </feature>
							<threshold> -7.5074477 </threshold>
							<split pos="left">
								<feature> 127 </feature>
								<threshold> 28.140625 </threshold>
								<split pos="left">
									<output> 0.7109101414680481 </output>
								</split>
								<split pos="right">
									<feature> 89 </feature>
									<threshold> 2.3569036 </threshold>
									<split pos="left">
										<output> 1.1288233995437622 </output>
									</split>
									<split pos="right">
										<feature> 120 </feature>
										<threshold> -6.757618 </threshold>
										<split pos="left">
											<output> 0.5598179697990417 </output>
										</split>
										<split pos="right">
											<output> 1.1079233884811401 </output>
										</split>
									</split>
								</split>
							</split>
							<split pos="right">
								<output> 0.2881320118904114 </output>
							</split>
						</split>
					</split>
				</split>
				<split pos="right">
					<output> 1.160664677619934 </output>
				</split>
			</split>
			<split pos="right">
				<output> -0.42102113366127014 </output>
			</split>
		</split>
	</tree>
	<tree id="11" weight="0.11">
		<split>
			<feature> 130 </feature>
			<threshold> 355.60156 </threshold>
			<split pos="left">
				<feature> 27 </feature>
				<threshold> 9.0 </threshold>
				<split pos="left">
					<feature> 64 </feature>
					<threshold> 0.07734378 </threshold>
					<split pos="left">
						<feature> 128 </feature>
						<threshold> 6.1222736E7 </threshold>
						<split pos="left">
							<feature> 3 </feature>
							<threshold> 2.0 </threshold>
							<split pos="left">
								<output> 0.051032647490501404 </output>
							</split>
							<split pos="right">
								<output> 0.47791701555252075 </output>
							</split>
						</split>
						<split pos="right">
							<output> 0.9189276099205017 </output>
						</split>
					</split>
					<split pos="right">
						<feature> 131 </feature>
						<threshold> 48383.523 </threshold>
						<split pos="left">
							<output> 0.26650017499923706 </output>
						</split>
						<split pos="right">
							<feature> 111 </feature>
							<threshold> -7.5074477 </threshold>
							<split pos="left">
								<feature> 127 </feature>
								<threshold> 28.140625 </threshold>
								<split pos="left">
									<output> 0.7012728452682495 </output>
								</split>
								<split pos="right">
									<feature> 89 </feature>
									<threshold> 2.3569036 </threshold>
									<split pos="left">
										<output> 1.1038355827331543 </output>
									</split>
									<split pos="right">
										<output> 0.5102832317352295 </output>
									</split>
								</split>
							</split>
							<split pos="right">
								<output> 0.2418394535779953 </output>
							</split>
						</split>
					</split>
				</split>
				<split pos="right">
					<output> 1.1439807415008545 </output>
				</split>
			</split>
			<split pos="right">
				<output> -0.3682744801044464 </output>
			</split>
		</split>
	</tree>
	<tree id="12" weight="0.11">
		<split>
			<feature> 130 </feature>
			<threshold> 355.60156 </threshold>
			<split pos="left">
				<feature> 27 </feature>
				<threshold> 9.0 </threshold>
				<split pos="left">
					<feature> 64 </feature>
					<threshold> 0.07734378 </threshold>
					<split pos="left">
						<feature> 3 </feature>
						<threshold> 2.0 </threshold>
						<split pos="left">
							<output> -0.04136863350868225 </output>
						</split>
						<split pos="right">
							<output> 0.5084192752838135 </output>
						</split>
					</split>
					<split pos="right">
						<feature> 131 </feature>
						<threshold> 48639.516 </threshold>
						<split pos="left">
							<feature> 112 </feature>
							<threshold> -17.713871 </threshold>
							<split pos="left">
								<output> 0.5843272805213928 </output>
							</split>
							<split pos="right">
								<output> 0.17565183341503143 </output>
							</split>
						</split>
						<split pos="right">
							<feature> 111 </feature>
							<threshold> -7.5074477 </threshold>
							<split pos="left">
								<feature> 127 </feature>
								<threshold> 28.140625 </threshold>
								<split pos="left">
									<output> 0.6408250331878662 </output>
								</split>
								<split pos="right">
									<feature> 89 </feature>
									<threshold> 2.3569036 </threshold>
									<split pos="left">
										<output> 1.0827105045318604 </output>
									</split>
									<split pos="right">
										<output> 0.45194903016090393 </output>
									</split>
								</split>
							</split>
							<split pos="right">
								<output> 0.19327758252620697 </output>
							</split>
						</split>
					</split>
				</split>
				<split pos="right">
					<output> 1.1300479173660278 </output>
				</split>
			</split>
			<split pos="right">
				<output> -0.3383966088294983 </output>
			</split>
		</split>
	</tree>
	<tree id="13" weight="0.11">
		<split>
			<feature> 130 </feature>
			<threshold> 355.60156 </threshold>
			<split pos="left">
				<feature> 27 </feature>
				<threshold> 9.0 </threshold>
				<split pos="left">
					<feature> 49 </feature>
					<threshold> 0.16619322 </threshold>
					<split pos="left">
						<feature> 3 </feature>
						<threshold> 2.0 </threshold>
						<split pos="left">
							<feature> 79 </feature>
							<threshold> 19.932241 </threshold>
							<split pos="left">
								<feature> 113 </feature>
								<threshold> -8.022356 </threshold>
								<split pos="left">
									<output> -0.2915295362472534 </output>
								</split>
								<split pos="right">
									<output> 0.0889444574713707 </output>
								</split>
							</split>
							<split pos="right">
								<output> 0.9199177026748657 </output>
							</split>
						</split>
						<split pos="right">
							<output> 0.4439483880996704 </output>
						</split>
					</split>
					<split pos="right">
						<feature> 131 </feature>
						<threshold> 48383.523 </threshold>
						<split pos="left">
							<output> 0.2777685523033142 </output>
						</split>
						<split pos="right">
							<feature> 19 </feature>
							<threshold> 10.449417 </threshold>
							<split pos="left">
								<output> 0.49719542264938354 </output>
							</split>
							<split pos="right">
								<feature> 109 </feature>
								<threshold> 21.715927 </threshold>
								<split pos="left">
									<output> 0.29797613620758057 </output>
								</split>
								<split pos="right">
									<output> 0.6451672911643982 </output>
								</split>
							</split>
						</split>
					</split>
				</split>
				<split pos="right">
					<output> 1.1178257465362549 </output>
				</split>
			</split>
			<split pos="right">
				<output> -0.29519036412239075 </output>
			</split>
		</split>
	</tree>
	<tree id="14" weight="0.11">
		<split>
			<feature> 130 </feature>
			<threshold> 355.60156 </threshold>
			<split pos="left">
				<feature> 27 </feature>
				<threshold> 9.0 </threshold>
				<split pos="left">
					<feature> 49 </feature>
					<threshold> 0.16619322 </threshold>
					<split pos="left">
						<feature> 79 </feature>
						<threshold> 19.932241 </threshold>
						<split pos="left">
							<feature> 3 </feature>
							<threshold> 2.0 </threshold>
							<split pos="left">
								<output> -0.07891199737787247 </output>
							</split>
							<split pos="right">
								<output> 0.42247939109802246 </output>
							</split>
						</split>
						<split pos="right">
							<output> 0.7834699749946594 </output>
						</split>
					</split>
					<split pos="right">
						<feature> 131 </feature>
						<threshold> 48895.508 </threshold>
						<split pos="left">
							<output> 0.26504942774772644 </output>
						</split>
						<split pos="right">
							<feature> 5 </feature>
							<threshold> 13.0 </threshold>
							<split pos="left">
								<feature> 106 </feature>
								<threshold> 7.4874954 </threshold>
								<split pos="left">
									<output> 0.4681517779827118 </output>
								</split>
								<split pos="right">
									<feature> 129 </feature>
									<threshold> 2.0 </threshold>
									<split pos="left">
										<output> 0.1689889281988144 </output>
									</split>
									<split pos="right">
										<output> 0.5226050019264221 </output>
									</split>
								</split>
							</split>
							<split pos="right">
								<output> 1.064353585243225 </output>
							</split>
						</split>
					</split>
				</split>
				<split pos="right">
					<output> 1.1067395210266113 </output>
				</split>
			</split>
			<split pos="right">
				<output> -0.26685085892677307 </output>
			</split>
		</split>
	</tree>
	<tree id="15" weight="0.11">
		<split>
			<feature> 130 </feature>
			<threshold> 355.60156 </threshold>
			<split pos="left">
				<feature> 27 </feature>
				<threshold> 9.0 </threshold>
				<split pos="left">
					<feature> 49 </feature>
					<threshold> 0.16619322 </threshold>
					<split pos="left">
						<feature> 79 </feature>
						<threshold> 19.932241 </threshold>
						<split pos="left">
							<output> 0.019643248990178108 </output>
						</split>
						<split pos="right">
							<output> 0.7462849617004395 </output>
						</split>
					</split>
					<split pos="right">
						<feature> 3 </feature>
						<threshold> 12.0 </threshold>
						<split pos="left">
							<feature> 19 </feature>
							<threshold> 10.449417 </threshold>
							<split pos="left">
								<output> 0.3725605905056 </output>
							</split>
							<split pos="right">
								<feature> 134 </feature>
								<threshold> 0.0 </threshold>
								<split pos="left">
									<feature> 133 </feature>
									<threshold> 42.0 </threshold>
									<split pos="left">
										<feature> 127 </feature>
										<threshold> 22.105469 </threshold>
										<split pos="left">
											<output> 0.6288398504257202 </output>
										</split>
										<split pos="right">
											<output> 0.29649117588996887 </output>
										</split>
									</split>
									<split pos="right">
										<output> 0.031660668551921844 </output>
									</split>
								</split>
								<split pos="right">
									<output> 0.6946386098861694 </output>
								</split>
							</split>
						</split>
						<split pos="right">
							<output> 1.0226058959960938 </output>
						</split>
					</split>
				</split>
				<split pos="right">
					<output> 1.0959199666976929 </output>
				</split>
			</split>
			<split pos="right">
				<output> -0.2419947385787964 </output>
			</split>
		</split>
	</tree>
	<tree id="16" weight="0.11">
		<split>
			<feature> 109 </feature>
			<threshold> 17.203537 </threshold>
			<split pos="left">
				<feature> 134 </feature>
				<threshold> 0.0 </threshold>
				<split pos="left">
					<feature> 8 </feature>
					<threshold> 0.714286 </threshold>
					<split pos="left">
						<feature> 65 </feature>
						<threshold> 0.4036137 </threshold>
						<split pos="left">
							<feature> 55 </feature>
							<threshold> 0.109507434 </threshold>
							<split pos="left">
								<output> -0.34436339139938354 </output>
							</split>
							<split pos="right">
								<output> 0.30575764179229736 </output>
							</split>
						</split>
						<split pos="right">
							<output> 1.0803288221359253 </output>
						</split>
					</split>
					<split pos="right">
						<feature> 130 </feature>
						<threshold> 355.60156 </threshold>
						<split pos="left">
							<feature> 54 </feature>
							<threshold> 0.222222 </threshold>
							<split pos="left">
								<feature> 65 </feature>
								<threshold> 0.3910985 </threshold>
								<split pos="left">
									<feature> 106 </feature>
									<threshold> 5.155224 </threshold>
									<split pos="left">
										<output> 0.7150031328201294 </output>
									</split>
									<split pos="right">
										<output> 0.12025686353445053 </output>
									</split>
								</split>
								<split pos="right">
									<output> 1.177851915359497 </output>
								</split>
							</split>
							<split pos="right">
								<output> 0.6550610661506653 </output>
							</split>
						</split>
						<split pos="right">
							<output> -0.02087068185210228 </output>
						</split>
					</split>
				</split>
				<split pos="right">
					<output> 1.085724115371704 </output>
				</split>
			</split>
			<split pos="right">
				<output> 0.3770328164100647 </output>
			</split>
		</split>
	</tree>
	<tree id="17" weight="0.11">
		<split>
			<feature> 134 </feature>
			<threshold> 0.0 </threshold>
			<split pos="left">
				<feature> 109 </feature>
				<threshold> 17.203537 </threshold>
				<split pos="left">
					<feature> 49 </feature>
					<threshold> 0.57528496 </threshold>
					<split pos="left">
						<feature> 55 </feature>
						<threshold> 0.4036137 </threshold>
						<split pos="left">
							<feature> 108 </feature>
							<threshold> 12.886099 </threshold>
							<split pos="left">
								<feature> 54 </feature>
								<threshold> 0.157895 </threshold>
								<split pos="left">
									<output> -0.42205527424812317 </output>
								</split>
								<split pos="right">
									<output> 0.14231248199939728 </output>
								</split>
							</split>
							<split pos="right">
								<feature> 16 </feature>
								<threshold> 1.0017232 </threshold>
								<split pos="left">
									<output> 0.8346716165542603 </output>
								</split>
								<split pos="right">
									<feature> 3 </feature>
									<threshold> 2.0 </threshold>
									<split pos="left">
										<output> -0.08334968239068985 </output>
									</split>
									<split pos="right">
										<output> 0.22184422612190247 </output>
									</split>
								</split>
							</split>
						</split>
						<split pos="right">
							<output> 1.071895718574524 </output>
						</split>
					</split>
					<split pos="right">
						<output> 0.9552885890007019 </output>
					</split>
				</split>
				<split pos="right">
					<output> 0.27687495946884155 </output>
				</split>
			</split>
			<split pos="right">
				<feature> 130 </feature>
				<threshold> 355.60156 </threshold>
				<split pos="left">
					<output> 0.6838958263397217 </output>
				</split>
				<split pos="right">
					<output> 1.8844679594039917 </output>
				</split>
			</split>
		</split>
	</tree>
	<tree id="18" weight="0.11">
		<split>
			<feature> 134 </feature>
			<threshold> 0.0 </threshold>
			<split pos="left">
				<feature> 109 </feature>
				<threshold> 21.715927 </threshold>
				<split pos="left">
					<feature> 64 </feature>
					<threshold> 0.57187486 </threshold>
					<split pos="left">
						<feature> 108 </feature>
						<threshold> 12.886099 </threshold>
						<split pos="left">
							<feature> 125 </feature>
							<threshold> -4.4688644 </threshold>
							<split pos="left">
								<output> -0.48625606298446655 </output>
							</split>
							<split pos="right">
								<output> -0.016759797930717468 </output>
							</split>
						</split>
						<split pos="right">
							<feature> 130 </feature>
							<threshold> 355.60156 </threshold>
							<split pos="left">
								<feature> 65 </feature>
								<threshold> 0.41925767 </threshold>
								<split pos="left">
									<feature> 16 </feature>
									<threshold> 1.0017232 </threshold>
									<split pos="left">
										<output> 1.0258586406707764 </output>
									</split>
									<split pos="right">
										<feature> 20 </feature>
										<threshold> 3.2825208 </threshold>
										<split pos="left">
											<output> 0.7145060300827026 </output>
										</split>
										<split pos="right">
											<output> 0.10077959299087524 </output>
										</split>
									</split>
								</split>
								<split pos="right">
									<output> 1.0840853452682495 </output>
								</split>
							</split>
							<split pos="right">
								<output> -0.07639329880475998 </output>
							</split>
						</split>
					</split>
					<split pos="right">
						<output> 0.9732180237770081 </output>
					</split>
				</split>
				<split pos="right">
					<output> 0.3967025578022003 </output>
				</split>
			</split>
			<split pos="right">
				<output> 1.1918798685073853 </output>
			</split>
		</split>
	</tree>
	<tree id="19" weight="0.11">
		<split>
			<feature> 134 </feature>
			<threshold> 0.0 </threshold>
			<split pos="left">
				<feature> 109 </feature>
				<threshold> 21.715927 </threshold>
				<split pos="left">
					<feature> 54 </feature>
					<threshold> 0.571429 </threshold>
					<split pos="left">
						<feature> 108 </feature>
						<threshold> 12.886099 </threshold>
						<split pos="left">
							<output> -0.31945493817329407 </output>
						</split>
						<split pos="right">
							<feature> 130 </feature>
							<threshold> 355.60156 </threshold>
							<split pos="left">
								<feature> 19 </feature>
								<threshold> 6.2253284 </threshold>
								<split pos="left">
									<output> 1.1006717681884766 </output>
								</split>
								<split pos="right">
									<feature> 55 </feature>
									<threshold> 0.41925767 </threshold>
									<split pos="left">
										<feature> 89 </feature>
										<threshold> 35.942776 </threshold>
										<split pos="left">
											<feature> 16 </feature>
											<threshold> 1.0017232 </threshold>
											<split pos="left">
												<output> 0.9861738681793213 </output>
											</split>
											<split pos="right">
												<output> 0.10305172204971313 </output>
											</split>
										</split>
										<split pos="right">
											<output> 1.1196285486221313 </output>
										</split>
									</split>
									<split pos="right">
										<output> 1.027574896812439 </output>
									</split>
								</split>
							</split>
							<split pos="right">
								<output> -0.06039005517959595 </output>
							</split>
						</split>
					</split>
					<split pos="right">
						<output> 0.9433294534683228 </output>
					</split>
				</split>
				<split pos="right">
					<output> 0.3562150001525879 </output>
				</split>
			</split>
			<split pos="right">
				<output> 1.0641112327575684 </output>
			</split>
		</split>
	</tree>
	<tree id="20" weight="0.11">
		<split>
			<feature> 134 </feature>
			<threshold> 0.0 </threshold>
			<split pos="left">
				<feature> 109 </feature>
				<threshold> 21.715927 </threshold>
				<split pos="left">
					<feature> 54 </feature>
					<threshold> 0.571429 </threshold>
					<split pos="left">
						<feature> 108 </feature>
						<threshold> 12.886099 </threshold>
						<split pos="left">
							<output> -0.30848002433776855 </output>
						</split>
						<split pos="right">
							<feature> 1 </feature>
							<threshold> 15.0 </threshold>
							<split pos="left">
								<feature> 130 </feature>
								<threshold> 355.60156 </threshold>
								<split pos="left">
									<feature> 19 </feature>
									<threshold> 6.2253284 </threshold>
									<split pos="left">
										<output> 1.0697171688079834 </output>
									</split>
									<split pos="right">
										<feature> 55 </feature>
										<threshold> 0.41925767 </threshold>
										<split pos="left">
											<feature> 20 </feature>
											<threshold> 3.2825208 </threshold>
											<split pos="left">
												<output> 0.650279700756073 </output>
											</split>
											<split pos="right">
												<output> 0.08021841198205948 </output>
											</split>
										</split>
										<split pos="right">
											<output> 1.001747727394104 </output>
										</split>
									</split>
								</split>
								<split pos="right">
									<output> -0.035456642508506775 </output>
								</split>
							</split>
							<split pos="right">
								<output> 1.2898352146148682 </output>
							</split>
						</split>
					</split>
					<split pos="right">
						<output> 0.9060704708099365 </output>
					</split>
				</split>
				<split pos="right">
					<output> 0.32191652059555054 </output>
				</split>
			</split>
			<split pos="right">
				<output> 0.9557048082351685 </output>
			</split>
		</split>
	</tree>
	<tree id="21" weight="0.11">
		<split>
			<feature> 134 </feature>
			<threshold> 0.0 </threshold>
			<split pos="left">
				<feature> 109 </feature>
				<threshold> 21.715927 </threshold>
				<split pos="left">
					<feature> 108 </feature>
					<threshold> 16.851051 </threshold>
					<split pos="left">
						<feature> 54 </feature>
						<threshold> 0.5 </threshold>
						<split pos="left">
							<feature> 79 </feature>
							<threshold> 35.28986 </threshold>
							<split pos="left">
								<feature> 125 </feature>
								<threshold> -4.4688644 </threshold>
								<split pos="left">
									<output> -0.35066109895706177 </output>
								</split>
								<split pos="right">
									<feature> 69 </feature>
									<threshold> 0.028125016 </threshold>
									<split pos="left">
										<feature> 130 </feature>
										<threshold> 355.60156 </threshold>
										<split pos="left">
											<feature> 22 </feature>
											<threshold> 9.0 </threshold>
											<split pos="left">
												<output> 0.1584504097700119 </output>
											</split>
											<split pos="right">
												<output> 1.0727366209030151 </output>
											</split>
										</split>
										<split pos="right">
											<output> -0.186224102973938 </output>
										</split>
									</split>
									<split pos="right">
										<output> 1.948007583618164 </output>
									</split>
								</split>
							</split>
							<split pos="right">
								<output> 1.122904896736145 </output>
							</split>
						</split>
						<split pos="right">
							<output> 0.8656206130981445 </output>
						</split>
					</split>
					<split pos="right">
						<output> 0.11496935784816742 </output>
					</split>
				</split>
				<split pos="right">
					<output> 0.29372915625572205 </output>
				</split>
			</split>
			<split pos="right">
				<output> 0.8497934937477112 </output>
			</split>
		</split>
	</tree>
	<tree id="22" weight="0.11">
		<split>
			<feature> 134 </feature>
			<threshold> 0.0 </threshold>
			<split pos="left">
				<feature> 3 </feature>
				<threshold> 2.0 </threshold>
				<split pos="left">
					<feature> 54 </feature>
					<threshold> 0.571429 </threshold>
					<split pos="left">
						<feature> 49 </feature>
						<threshold> 0.16619322 </threshold>
						<split pos="left">
							<feature> 79 </feature>
							<threshold> 19.932241 </threshold>
							<split pos="left">
								<feature> 108 </feature>
								<threshold> 17.181463 </threshold>
								<split pos="left">
									<feature> 111 </feature>
									<threshold> -5.005115 </threshold>
									<split pos="left">
										<output> -0.46675553917884827 </output>
									</split>
									<split pos="right">
										<output> -0.07892549782991409 </output>
									</split>
								</split>
								<split pos="right">
									<output> 0.07991074025630951 </output>
								</split>
							</split>
							<split pos="right">
								<output> 0.7421467900276184 </output>
							</split>
						</split>
						<split pos="right">
							<feature> 11 </feature>
							<threshold> 0.0 </threshold>
							<split pos="left">
								<output> 0.3468412458896637 </output>
							</split>
							<split pos="right">
								<feature> 129 </feature>
								<threshold> 0.0 </threshold>
								<split pos="left">
									<output> -0.11070562154054642 </output>
								</split>
								<split pos="right">
									<output> 0.1580076962709427 </output>
								</split>
							</split>
						</split>
					</split>
					<split pos="right">
						<output> 0.8326625227928162 </output>
					</split>
				</split>
				<split pos="right">
					<output> 0.25822657346725464 </output>
				</split>
			</split>
			<split pos="right">
				<output> 0.7652065753936768 </output>
			</split>
		</split>
	</tree>
	<tree id="23" weight="0.11">
		<split>
			<feature> 134 </feature>
			<threshold> 0.0 </threshold>
			<split pos="left">
				<feature> 108 </feature>
				<threshold> 16.851051 </threshold>
				<split pos="left">
					<feature> 59 </feature>
					<threshold> 0.165919 </threshold>
					<split pos="left">
						<feature> 79 </feature>
						<threshold> 19.932241 </threshold>
						<split pos="left">
							<feature> 49 </feature>
							<threshold> 0.44105166 </threshold>
							<split pos="left">
								<feature> 128 </feature>
								<threshold> 6.1222736E7 </threshold>
								<split pos="left">
									<feature> 8 </feature>
									<threshold> 0.428571 </threshold>
									<split pos="left">
										<output> -0.45469745993614197 </output>
									</split>
									<split pos="right">
										<output> -0.15997330844402313 </output>
									</split>
								</split>
								<split pos="right">
									<output> 0.7233291268348694 </output>
								</split>
							</split>
							<split pos="right">
								<output> 0.7572451829910278 </output>
							</split>
						</split>
						<split pos="right">
							<output> 0.6858013868331909 </output>
						</split>
					</split>
					<split pos="right">
						<output> 0.10676086694002151 </output>
					</split>
				</split>
				<split pos="right">
					<feature> 63 </feature>
					<threshold> 0.01953125 </threshold>
					<split pos="left">
						<output> 1.2179973125457764 </output>
					</split>
					<split pos="right">
						<feature> 130 </feature>
						<threshold> 355.60156 </threshold>
						<split pos="left">
							<output> 0.13318586349487305 </output>
						</split>
						<split pos="right">
							<output> 0.18751123547554016 </output>
						</split>
					</split>
				</split>
			</split>
			<split pos="right">
				<output> 0.682136058807373 </output>
			</split>
		</split>
	</tree>
	<tree id="24" weight="0.11">
		<split>
			<feature> 134 </feature>
			<threshold> 0.0 </threshold>
			<split pos="left">
				<feature> 3 </feature>
				<threshold> 2.0 </threshold>
				<split pos="left">
					<feature> 54 </feature>
					<threshold> 0.142857 </threshold>
					<split pos="left">
						<feature> 8 </feature>
						<threshold> 0.4 </threshold>
						<split pos="left">
							<output> -0.4074735641479492 </output>
						</split>
						<split pos="right">
							<feature> 114 </feature>
							<threshold> -2.5457497 </threshold>
							<split pos="left">
								<feature> 74 </feature>
								<threshold> 69.52865 </threshold>
								<split pos="left">
									<feature> 20 </feature>
									<threshold> 14.063943 </threshold>
									<split pos="left">
										<feature> 127 </feature>
										<threshold> 34.17578 </threshold>
										<split pos="left">
											<output> 0.031194021925330162 </output>
										</split>
										<split pos="right">
											<output> -0.1760004758834839 </output>
										</split>
									</split>
									<split pos="right">
										<output> 0.1861448884010315 </output>
									</split>
								</split>
								<split pos="right">
									<output> -6.035414695739746 </output>
								</split>
							</split>
							<split pos="right">
								<output> 0.5703363418579102 </output>
							</split>
						</split>
					</split>
					<split pos="right">
						<feature> 130 </feature>
						<threshold> 355.60156 </threshold>
						<split pos="left">
							<output> 0.12996312975883484 </output>
						</split>
						<split pos="right">
							<output> 0.1609298437833786 </output>
						</split>
					</split>
				</split>
				<split pos="right">
					<output> 0.23166003823280334 </output>
				</split>
			</split>
			<split pos="right">
				<output> 0.6215139031410217 </output>
			</split>
		</split>
	</tree>
	<tree id="25" weight="0.11">
		<split>
			<feature> 134 </feature>
			<threshold> 0.0 </threshold>
			<split pos="left">
				<feature> 108 </feature>
				<threshold> 18.172699 </threshold>
				<split pos="left">
					<feature> 54 </feature>
					<threshold> 0.5 </threshold>
					<split pos="left">
						<feature> 49 </feature>
						<threshold> 0.14701708 </threshold>
						<split pos="left">
							<feature> 79 </feature>
							<threshold> 19.932241 </threshold>
							<split pos="left">
								<output> -0.32519856095314026 </output>
							</split>
							<split pos="right">
								<output> 0.5799405574798584 </output>
							</split>
						</split>
						<split pos="right">
							<feature> 115 </feature>
							<threshold> -1.2530859 </threshold>
							<split pos="left">
								<feature> 133 </feature>
								<threshold> 249.0 </threshold>
								<split pos="left">
									<feature> 11 </feature>
									<threshold> 0.0 </threshold>
									<split pos="left">
										<output> 0.2576940655708313 </output>
									</split>
									<split pos="right">
										<feature> 79 </feature>
										<threshold> 34.9631 </threshold>
										<split pos="left">
											<output> -0.004763856530189514 </output>
										</split>
										<split pos="right">
											<output> 1.0004342794418335 </output>
										</split>
									</split>
								</split>
								<split pos="right">
									<output> -3.4391591548919678 </output>
								</split>
							</split>
							<split pos="right">
								<output> 0.7669856548309326 </output>
							</split>
						</split>
					</split>
					<split pos="right">
						<output> 0.7872163653373718 </output>
					</split>
				</split>
				<split pos="right">
					<output> 0.13183721899986267 </output>
				</split>
			</split>
			<split pos="right">
				<output> 0.6979480981826782 </output>
			</split>
		</split>
	</tree>
	<tree id="26" weight="0.11">
		<split>
			<feature> 134 </feature>
			<threshold> 0.0 </threshold>
			<split pos="left">
				<feature> 3 </feature>
				<threshold> 2.0 </threshold>
				<split pos="left">
					<feature> 60 </feature>
					<threshold> 0.012515141 </threshold>
					<split pos="left">
						<output> -0.4620460271835327 </output>
					</split>
					<split pos="right">
						<feature> 127 </feature>
						<threshold> 28.140625 </threshold>
						<split pos="left">
							<feature> 130 </feature>
							<threshold> 355.60156 </threshold>
							<split pos="left">
								<output> 0.2334212064743042 </output>
							</split>
							<split pos="right">
								<output> 0.04247620701789856 </output>
							</split>
						</split>
						<split pos="right">
							<feature> 69 </feature>
							<threshold> 0.037265655 </threshold>
							<split pos="left">
								<feature> 129 </feature>
								<threshold> 8.0 </threshold>
								<split pos="left">
									<feature> 128 </feature>
									<threshold> 6.1222736E7 </threshold>
									<split pos="left">
										<feature> 130 </feature>
										<threshold> 355.60156 </threshold>
										<split pos="left">
											<output> -0.10727096349000931 </output>
										</split>
										<split pos="right">
											<output> -0.3303849399089813 </output>
										</split>
									</split>
									<split pos="right">
										<output> 0.7157972455024719 </output>
									</split>
								</split>
								<split pos="right">
									<output> 0.06641029566526413 </output>
								</split>
							</split>
							<split pos="right">
								<output> 1.3845598697662354 </output>
							</split>
						</split>
					</split>
				</split>
				<split pos="right">
					<output> 0.19289246201515198 </output>
				</split>
			</split>
			<split pos="right">
				<output> 0.6901257634162903 </output>
			</split>
		</split>
	</tree>
	<tree id="27" weight="0.11">
		<split>
			<feature> 134 </feature>
			<threshold> 0.0 </threshold>
			<split pos="left">
				<feature> 108 </feature>
				<threshold> 18.172699 </threshold>
				<split pos="left">
					<feature> 60 </feature>
					<threshold> 0.018772712 </threshold>
					<split pos="left">
						<output> -0.43011540174484253 </output>
					</split>
					<split pos="right">
						<feature> 14 </feature>
						<threshold> 2.0 </threshold>
						<split pos="left">
							<output> 1.3835116624832153 </output>
						</split>
						<split pos="right">
							<feature> 89 </feature>
							<threshold> 31.818193 </threshold>
							<split pos="left">
								<feature> 124 </feature>
								<threshold> -1.4924941 </threshold>
								<split pos="left">
									<feature> 65 </feature>
									<threshold> 0.4036137 </threshold>
									<split pos="left">
										<feature> 101 </feature>
										<threshold> 0.19921875 </threshold>
										<split pos="left">
											<output> 0.1533539891242981 </output>
										</split>
										<split pos="right">
											<feature> 129 </feature>
											<threshold> 11.0 </threshold>
											<split pos="left">
												<output> -0.20000985264778137 </output>
											</split>
											<split pos="right">
												<output> 0.17496973276138306 </output>
											</split>
										</split>
									</split>
									<split pos="right">
										<output> 1.0169477462768555 </output>
									</split>
								</split>
								<split pos="right">
									<output> 0.3409622013568878 </output>
								</split>
							</split>
							<split pos="right">
								<output> 0.970341682434082 </output>
							</split>
						</split>
					</split>
				</split>
				<split pos="right">
					<output> 0.11372242867946625 </output>
				</split>
			</split>
			<split pos="right">
				<output> 0.6663295030593872 </output>
			</split>
		</split>
	</tree>
	<tree id="28" weight="0.11">
		<split>
			<feature> 134 </feature>
			<threshold> 0.0 </threshold>
			<split pos="left">
				<feature> 108 </feature>
				<threshold> 20.485582 </threshold>
				<split pos="left">
					<feature> 60 </feature>
					<threshold> 0.018772712 </threshold>
					<split pos="left">
						<output> -0.41282567381858826 </output>
					</split>
					<split pos="right">
						<feature> 14 </feature>
						<threshold> 2.0 </threshold>
						<split pos="left">
							<output> 1.2985092401504517 </output>
						</split>
						<split pos="right">
							<feature> 124 </feature>
							<threshold> -1.4924941 </threshold>
							<split pos="left">
								<feature> 89 </feature>
								<threshold> 31.818193 </threshold>
								<split pos="left">
									<feature> 101 </feature>
									<threshold> 0.3359375 </threshold>
									<split pos="left">
										<output> 0.11935674399137497 </output>
									</split>
									<split pos="right">
										<feature> 109 </feature>
										<threshold> 21.433903 </threshold>
										<split pos="left">
											<feature> 130 </feature>
											<threshold> 355.60156 </threshold>
											<split pos="left">
												<output> -0.10402370244264603 </output>
											</split>
											<split pos="right">
												<output> -0.20451779663562775 </output>
											</split>
										</split>
										<split pos="right">
											<output> 0.25376611948013306 </output>
										</split>
									</split>
								</split>
								<split pos="right">
									<output> 1.0019837617874146 </output>
								</split>
							</split>
							<split pos="right">
								<output> 0.3018585741519928 </output>
							</split>
						</split>
					</split>
				</split>
				<split pos="right">
					<output> 0.13662582635879517 </output>
				</split>
			</split>
			<split pos="right">
				<output> 0.6528217196464539 </output>
			</split>
		</split>
	</tree>
	<tree id="29" weight="0.11">
		<split>
			<feature> 134 </feature>
			<threshold> 0.0 </threshold>
			<split pos="left">
				<feature> 3 </feature>
				<threshold> 2.0 </threshold>
				<split pos="left">
					<feature> 129 </feature>
					<threshold> 2.0 </threshold>
					<split pos="left">
						<feature> 130 </feature>
						<threshold> 355.60156 </threshold>
						<split pos="left">
							<feature> 27 </feature>
							<threshold> 9.0 </threshold>
							<split pos="left">
								<feature> 65 </feature>
								<threshold> 0.41925767 </threshold>
								<split pos="left">
									<feature> 14 </feature>
									<threshold> 2.0 </threshold>
									<split pos="left">
										<output> 1.2625097036361694 </output>
									</split>
									<split pos="right">
										<feature> 101 </feature>
										<threshold> 0.98828125 </threshold>
										<split pos="left">
											<feature> 54 </feature>
											<threshold> 0.333333 </threshold>
											<split pos="left">
												<output> -0.07899342477321625 </output>
											</split>
											<split pos="right">
												<output> -3.0941126346588135 </output>
											</split>
										</split>
										<split pos="right">
											<output> -0.3255413770675659 </output>
										</split>
									</split>
								</split>
								<split pos="right">
									<output> 0.9185365438461304 </output>
								</split>
							</split>
							<split pos="right">
								<output> 1.0520172119140625 </output>
							</split>
						</split>
						<split pos="right">
							<output> -0.36208340525627136 </output>
						</split>
					</split>
					<split pos="right">
						<output> -0.0282049048691988 </output>
					</split>
				</split>
				<split pos="right">
					<output> 0.16830827295780182 </output>
				</split>
			</split>
			<split pos="right">
				<output> 0.6588729023933411 </output>
			</split>
		</split>
	</tree>
	<tree id="30" weight="0.11">
		<split>
			<feature> 134 </feature>
			<threshold> 0.0 </threshold>
			<split pos="left">
				<feature> 3 </feature>
				<threshold> 2.0 </threshold>
				<split pos="left">
					<feature> 129 </feature>
					<threshold> 2.0 </threshold>
					<split pos="left">
						<feature> 130 </feature>
						<threshold> 355.60156 </threshold>
						<split pos="left">
							<feature> 27 </feature>
							<threshold> 9.0 </threshold>
							<split pos="left">
								<feature> 65 </feature>
								<threshold> 0.41925767 </threshold>
								<split pos="left">
									<feature> 14 </feature>
									<threshold> 2.0 </threshold>
									<split pos="left">
										<output> 1.2272069454193115 </output>
									</split>
									<split pos="right">
										<feature> 101 </feature>
										<threshold> 0.98828125 </threshold>
										<split pos="left">
											<output> -0.12290436774492264 </output>
										</split>
										<split pos="right">
											<output> -0.3303881883621216 </output>
										</split>
									</split>
								</split>
								<split pos="right">
									<output> 0.8541386723518372 </output>
								</split>
							</split>
							<split pos="right">
								<output> 1.0466415882110596 </output>
							</split>
						</split>
						<split pos="right">
							<output> -0.35149726271629333 </output>
						</split>
					</split>
					<split pos="right">
						<feature> 54 </feature>
						<threshold> 0.235294 </threshold>
						<split pos="left">
							<output> -0.03914625942707062 </output>
						</split>
						<split pos="right">
							<output> 0.8253536820411682 </output>
						</split>
					</split>
				</split>
				<split pos="right">
					<output> 0.15738904476165771 </output>
				</split>
			</split>
			<split pos="right">
				<output> 0.6324654221534729 </output>
			</split>
		</split>
	</tree>
	<tree id="31" weight="0.11">
		<split>
			<feature> 134 </feature>
			<threshold> 0.0 </threshold>
			<split pos="left">
				<feature> 14 </feature>
				<threshold> 2.0 </threshold>
				<split pos="left">
					<output> 1.164475440979004 </output>
				</split>
				<split pos="right">
					<feature> 3 </feature>
					<threshold> 2.0 </threshold>
					<split pos="left">
						<feature> 130 </feature>
						<threshold> 355.60156 </threshold>
						<split pos="left">
							<feature> 27 </feature>
							<threshold> 9.0 </threshold>
							<split pos="left">
								<feature> 129 </feature>
								<threshold> 2.0 </threshold>
								<split pos="left">
									<feature> 55 </feature>
									<threshold> 0.41925767 </threshold>
									<split pos="left">
										<feature> 101 </feature>
										<threshold> 0.98828125 </threshold>
										<split pos="left">
											<feature> 55 </feature>
											<threshold> 0.17208308 </threshold>
											<split pos="left">
												<output> -0.1279645413160324 </output>
											</split>
											<split pos="right">
												<output> -0.35573244094848633 </output>
											</split>
										</split>
										<split pos="right">
											<output> -0.3605060875415802 </output>
										</split>
									</split>
									<split pos="right">
										<output> 0.8048543334007263 </output>
									</split>
								</split>
								<split pos="right">
									<output> 0.0907554030418396 </output>
								</split>
							</split>
							<split pos="right">
								<output> 1.0418527126312256 </output>
							</split>
						</split>
						<split pos="right">
							<output> -0.2768305838108063 </output>
						</split>
					</split>
					<split pos="right">
						<output> 0.14899078011512756 </output>
					</split>
				</split>
			</split>
			<split pos="right">
				<output> 0.617901623249054 </output>
			</split>
		</split>
	</tree>
	<tree id="32" weight="0.11">
		<split>
			<feature> 134 </feature>
			<threshold> 0.0 </threshold>
			<split pos="left">
				<feature> 14 </feature>
				<threshold> 2.0 </threshold>
				<split pos="left">
					<output> 1.1183485984802246 </output>
				</split>
				<split pos="right">
					<feature> 3 </feature>
					<threshold> 2.0 </threshold>
					<split pos="left">
						<feature> 130 </feature>
						<threshold> 355.60156 </threshold>
						<split pos="left">
							<feature> 27 </feature>
							<threshold> 9.0 </threshold>
							<split pos="left">
								<feature> 114 </feature>
								<threshold> -3.1820898 </threshold>
								<split pos="left">
									<feature> 64 </feature>
									<threshold> 0.21562482 </threshold>
									<split pos="left">
										<feature> 17 </feature>
										<threshold> 21.648607 </threshold>
										<split pos="left">
											<output> -0.34242892265319824 </output>
										</split>
										<split pos="right">
											<output> -0.06330150365829468 </output>
										</split>
									</split>
									<split pos="right">
										<output> -1.3927788734436035 </output>
									</split>
								</split>
								<split pos="right">
									<output> 0.08425614982843399 </output>
								</split>
							</split>
							<split pos="right">
								<output> 1.0376373529434204 </output>
							</split>
						</split>
						<split pos="right">
							<output> -0.2835400104522705 </output>
						</split>
					</split>
					<split pos="right">
						<output> 0.13759081065654755 </output>
					</split>
				</split>
			</split>
			<split pos="right">
				<feature> 130 </feature>
				<threshold> 355.60156 </threshold>
				<split pos="left">
					<output> -0.5576032996177673 </output>
				</split>
				<split pos="right">
					<output> 0.8669737577438354 </output>
				</split>
			</split>
		</split>
	</tree>
	<tree id="33" weight="0.11">
		<split>
			<feature> 134 </feature>
			<threshold> 0.0 </threshold>
			<split pos="left">
				<feature> 3 </feature>
				<threshold> 2.0 </threshold>
				<split pos="left">
					<feature> 130 </feature>
					<threshold> 355.60156 </threshold>
					<split pos="left">
						<feature> 14 </feature>
						<threshold> 2.0 </threshold>
						<split pos="left">
							<output> 1.0951659679412842 </output>
						</split>
						<split pos="right">
							<feature> 27 </feature>
							<threshold> 9.0 </threshold>
							<split pos="left">
								<feature> 18 </feature>
								<threshold> 17.472729 </threshold>
								<split pos="left">
									<feature> 54 </feature>
									<threshold> 0.4 </threshold>
									<split pos="left">
										<feature> 49 </feature>
										<threshold> 0.36434692 </threshold>
										<split pos="left">
											<feature> 55 </feature>
											<threshold> 0.41925767 </threshold>
											<split pos="left">
												<output> -0.24836978316307068 </output>
											</split>
											<split pos="right">
												<output> 0.7326610684394836 </output>
											</split>
										</split>
										<split pos="right">
											<output> -0.4492698013782501 </output>
										</split>
									</split>
									<split pos="right">
										<output> 0.8106898069381714 </output>
									</split>
								</split>
								<split pos="right">
									<output> -0.08901602774858475 </output>
								</split>
							</split>
							<split pos="right">
								<output> 1.0348209142684937 </output>
							</split>
						</split>
					</split>
					<split pos="right">
						<output> -0.28616365790367126 </output>
					</split>
				</split>
				<split pos="right">
					<output> 0.12333416193723679 </output>
				</split>
			</split>
			<split pos="right">
				<output> 0.6097540259361267 </output>
			</split>
		</split>
	</tree>
	<tree id="34" weight="0.11">
		<split>
			<feature> 134 </feature>
			<threshold> 0.0 </threshold>
			<split pos="left">
				<feature> 130 </feature>
				<threshold> 355.60156 </threshold>
				<split pos="left">
					<feature> 14 </feature>
					<threshold> 2.0 </threshold>
					<split pos="left">
						<output> 1.0160138607025146 </output>
					</split>
					<split pos="right">
						<feature> 17 </feature>
						<threshold> 23.64001 </threshold>
						<split pos="left">
							<feature> 27 </feature>
							<threshold> 9.0 </threshold>
							<split pos="left">
								<feature> 119 </feature>
								<threshold> -7.5627465 </threshold>
								<split pos="left">
									<feature> 115 </feature>
									<threshold> -1.2530859 </threshold>
									<split pos="left">
										<output> -0.28474757075309753 </output>
									</split>
									<split pos="right">
										<output> 0.695734977722168 </output>
									</split>
								</split>
								<split pos="right">
									<output> 0.06808812916278839 </output>
								</split>
							</split>
							<split pos="right">
								<output> 1.0314124822616577 </output>
							</split>
						</split>
						<split pos="right">
							<output> 0.04444415494799614 </output>
						</split>
					</split>
				</split>
				<split pos="right">
					<output> -0.2378726601600647 </output>
				</split>
			</split>
			<split pos="right">
				<feature> 130 </feature>
				<threshold> 355.60156 </threshold>
				<split pos="left">
					<output> -0.6118271350860596 </output>
				</split>
				<split pos="right">
					<feature> 130 </feature>
					<threshold> 64767.195 </threshold>
					<split pos="left">
						<output> 0.6845544576644897 </output>
					</split>
					<split pos="right">
						<output> 1.0449199676513672 </output>
					</split>
				</split>
			</split>
		</split>
	</tree>
	<tree id="35" weight="0.11">
		<split>
			<feature> 134 </feature>
			<threshold> 0.0 </threshold>
			<split pos="left">
				<feature> 18 </feature>
				<threshold> 17.472729 </threshold>
				<split pos="left">
					<feature> 130 </feature>
					<threshold> 355.60156 </threshold>
					<split pos="left">
						<feature> 27 </feature>
						<threshold> 9.0 </threshold>
						<split pos="left">
							<feature> 24 </feature>
							<threshold> 5.0 </threshold>
							<split pos="left">
								<output> -0.31572243571281433 </output>
							</split>
							<split pos="right">
								<output> -2.0995235443115234 </output>
							</split>
						</split>
						<split pos="right">
							<output> 1.0287851095199585 </output>
						</split>
					</split>
					<split pos="right">
						<output> -0.43327662348747253 </output>
					</split>
				</split>
				<split pos="right">
					<output> -0.09638258069753647 </output>
				</split>
			</split>
			<split pos="right">
				<feature> 130 </feature>
				<threshold> 64767.195 </threshold>
				<split pos="left">
					<output> 0.3890349566936493 </output>
				</split>
				<split pos="right">
					<feature> 134 </feature>
					<threshold> 51367.92 </threshold>
					<split pos="left">
						<feature> 126 </feature>
						<threshold> 1.0 </threshold>
						<split pos="left">
							<feature> 110 </feature>
							<threshold> 19.445766 </threshold>
							<split pos="left">
								<output> 0.96525639295578 </output>
							</split>
							<split pos="right">
								<output> 1.2064194679260254 </output>
							</split>
						</split>
						<split pos="right">
							<output> 0.7319802641868591 </output>
						</split>
					</split>
					<split pos="right">
						<output> 1.1865144968032837 </output>
					</split>
				</split>
			</split>
		</split>
	</tree>
	<tree id="36" weight="0.11">
		<split>
			<feature> 134 </feature>
			<threshold> 51367.92 </threshold>
			<split pos="left">
				<feature> 134 </feature>
				<threshold> 0.0 </threshold>
				<split pos="left">
					<feature> 18 </feature>
					<threshold> 17.472729 </threshold>
					<split pos="left">
						<output> -0.47053149342536926 </output>
					</split>
					<split pos="right">
						<output> -0.11379573494195938 </output>
					</split>
				</split>
				<split pos="right">
					<feature> 130 </feature>
					<threshold> 64767.195 </threshold>
					<split pos="left">
						<output> 0.3411751687526703 </output>
					</split>
					<split pos="right">
						<feature> 126 </feature>
						<threshold> 1.0 </threshold>
						<split pos="left">
							<feature> 110 </feature>
							<threshold> 19.445766 </threshold>
							<split pos="left">
								<feature> 108 </feature>
								<threshold> 23.128878 </threshold>
								<split pos="left">
									<feature> 132 </feature>
									<threshold> 125.0 </threshold>
									<split pos="left">
										<feature> 26 </feature>
										<threshold> 52.86328 </threshold>
										<split pos="left">
											<output> 0.8908263444900513 </output>
										</split>
										<split pos="right">
											<output> 1.1422137022018433 </output>
										</split>
									</split>
									<split pos="right">
										<output> 1.1701416969299316 </output>
									</split>
								</split>
								<split pos="right">
									<output> 1.260826587677002 </output>
								</split>
							</split>
							<split pos="right">
								<output> 1.1286656856536865 </output>
							</split>
						</split>
						<split pos="right">
							<output> 0.6884718537330627 </output>
						</split>
					</split>
				</split>
			</split>
			<split pos="right">
				<output> 1.1260631084442139 </output>
			</split>
		</split>
	</tree>
	<tree id="37" weight="0.11">
		<split>
			<feature> 134 </feature>
			<threshold> 51367.92 </threshold>
			<split pos="left">
				<feature> 134 </feature>
				<threshold> 0.0 </threshold>
				<split pos="left">
					<feature> 18 </feature>
					<threshold> 17.472729 </threshold>
					<split pos="left">
						<output> -0.5381434559822083 </output>
					</split>
					<split pos="right">
						<output> -0.12379281967878342 </output>
					</split>
				</split>
				<split pos="right">
					<feature> 130 </feature>
					<threshold> 64767.195 </threshold>
					<split pos="left">
						<output> 0.32040998339653015 </output>
					</split>
					<split pos="right">
						<feature> 14 </feature>
						<threshold> 4.0 </threshold>
						<split pos="left">
							<feature> 109 </feature>
							<threshold> 12.973162 </threshold>
							<split pos="left">
								<feature> 132 </feature>
								<threshold> 125.0 </threshold>
								<split pos="left">
									<feature> 110 </feature>
									<threshold> 21.72062 </threshold>
									<split pos="left">
										<feature> 26 </feature>
										<threshold> 52.86328 </threshold>
										<split pos="left">
											<output> 0.8624800443649292 </output>
										</split>
										<split pos="right">
											<output> 1.0547317266464233 </output>
										</split>
									</split>
									<split pos="right">
										<output> 1.077630877494812 </output>
									</split>
								</split>
								<split pos="right">
									<output> 1.1523709297180176 </output>
								</split>
							</split>
							<split pos="right">
								<output> 1.1326193809509277 </output>
							</split>
						</split>
						<split pos="right">
							<output> 0.7151906490325928 </output>
						</split>
					</split>
				</split>
			</split>
			<split pos="right">
				<output> 1.0937265157699585 </output>
			</split>
		</split>
	</tree>
	<tree id="38" weight="0.11">
		<split>
			<feature> 134 </feature>
			<threshold> 51367.92 </threshold>
			<split pos="left">
				<feature> 134 </feature>
				<threshold> 0.0 </threshold>
				<split pos="left">
					<feature> 18 </feature>
					<threshold> 17.472729 </threshold>
					<split pos="left">
						<output> -0.5687911510467529 </output>
					</split>
					<split pos="right">
						<output> -0.1471773236989975 </output>
					</split>
				</split>
				<split pos="right">
					<feature> 130 </feature>
					<threshold> 64767.195 </threshold>
					<split pos="left">
						<feature> 130 </feature>
						<threshold> 355.60156 </threshold>
						<split pos="left">
							<output> -0.8166424632072449 </output>
						</split>
						<split pos="right">
							<output> 0.4655918776988983 </output>
						</split>
					</split>
					<split pos="right">
						<feature> 54 </feature>
						<threshold> 0.222222 </threshold>
						<split pos="left">
							<feature> 14 </feature>
							<threshold> 4.0 </threshold>
							<split pos="left">
								<feature> 89 </feature>
								<threshold> 4.7138066 </threshold>
								<split pos="left">
									<feature> 108 </feature>
									<threshold> 23.128878 </threshold>
									<split pos="left">
										<output> 0.8377873301506042 </output>
									</split>
									<split pos="right">
										<output> 1.2025216817855835 </output>
									</split>
								</split>
								<split pos="right">
									<output> 1.1777931451797485 </output>
								</split>
							</split>
							<split pos="right">
								<output> 0.6601758599281311 </output>
							</split>
						</split>
						<split pos="right">
							<output> 1.0288516283035278 </output>
						</split>
					</split>
				</split>
			</split>
			<split pos="right">
				<output> 1.0411937236785889 </output>
			</split>
		</split>
	</tree>
	<tree id="39" weight="0.11">
		<split>
			<feature> 134 </feature>
			<threshold> 51367.92 </threshold>
			<split pos="left">
				<feature> 134 </feature>
				<threshold> 0.0 </threshold>
				<split pos="left">
					<output> -0.3678826093673706 </output>
				</split>
				<split pos="right">
					<feature> 130 </feature>
					<threshold> 64767.195 </threshold>
					<split pos="left">
						<feature> 130 </feature>
						<threshold> 355.60156 </threshold>
						<split pos="left">
							<output> -0.7284178733825684 </output>
						</split>
						<split pos="right">
							<feature> 127 </feature>
							<threshold> 22.105469 </threshold>
							<split pos="left">
								<output> 0.6668669581413269 </output>
							</split>
							<split pos="right">
								<output> 0.32179874181747437 </output>
							</split>
						</split>
					</split>
					<split pos="right">
						<feature> 54 </feature>
						<threshold> 0.222222 </threshold>
						<split pos="left">
							<feature> 108 </feature>
							<threshold> 35.68455 </threshold>
							<split pos="left">
								<feature> 14 </feature>
								<threshold> 4.0 </threshold>
								<split pos="left">
									<feature> 108 </feature>
									<threshold> 23.128878 </threshold>
									<split pos="left">
										<output> 0.8091568350791931 </output>
									</split>
									<split pos="right">
										<output> 1.1694570779800415 </output>
									</split>
								</split>
								<split pos="right">
									<output> 0.5745528936386108 </output>
								</split>
							</split>
							<split pos="right">
								<output> 1.2608842849731445 </output>
							</split>
						</split>
						<split pos="right">
							<output> 0.981999397277832 </output>
						</split>
					</split>
				</split>
			</split>
			<split pos="right">
				<output> 1.0114185810089111 </output>
			</split>
		</split>
	</tree>
	<tree id="40" weight="0.11">
		<split>
			<feature> 134 </feature>
			<threshold> 51367.92 </threshold>
			<split pos="left">
				<feature> 134 </feature>
				<threshold> 0.0 </threshold>
				<split pos="left">
					<feature> 130 </feature>
					<threshold> 355.60156 </threshold>
					<split pos="left">
						<output> -0.3122537434101105 </output>
					</split>
					<split pos="right">
						<output> -0.4334595799446106 </output>
					</split>
				</split>
				<split pos="right">
					<feature> 130 </feature>
					<threshold> 64767.195 </threshold>
					<split pos="left">
						<feature> 127 </feature>
						<threshold> 22.105469 </threshold>
						<split pos="left">
							<feature> 19 </feature>
							<threshold> 16.081535 </threshold>
							<split pos="left">
								<output> 0.38824453949928284 </output>
							</split>
							<split pos="right">
								<output> 0.9386263489723206 </output>
							</split>
						</split>
						<split pos="right">
							<output> 0.06910201162099838 </output>
						</split>
					</split>
					<split pos="right">
						<feature> 54 </feature>
						<threshold> 0.230769 </threshold>
						<split pos="left">
							<feature> 108 </feature>
							<threshold> 34.362896 </threshold>
							<split pos="left">
								<feature> 14 </feature>
								<threshold> 4.0 </threshold>
								<split pos="left">
									<output> 0.800777792930603 </output>
								</split>
								<split pos="right">
									<output> 0.5398485660552979 </output>
								</split>
							</split>
							<split pos="right">
								<output> 1.247483730316162 </output>
							</split>
						</split>
						<split pos="right">
							<output> 0.9472845792770386 </output>
						</split>
					</split>
				</split>
			</split>
			<split pos="right">
				<output> 0.9737883806228638 </output>
			</split>
		</split>
	</tree>
	<tree id="41" weight="0.11">
		<split>
			<feature> 134 </feature>
			<threshold> 0.0 </threshold>
			<split pos="left">
				<output> -0.35962924361228943 </output>
			</split>
			<split pos="right">
				<feature> 130 </feature>
				<threshold> 64767.195 </threshold>
				<split pos="left">
					<feature> 127 </feature>
					<threshold> 22.105469 </threshold>
					<split pos="left">
						<feature> 19 </feature>
						<threshold> 16.081535 </threshold>
						<split pos="left">
							<output> 0.3472127318382263 </output>
						</split>
						<split pos="right">
							<output> 0.9105192422866821 </output>
						</split>
					</split>
					<split pos="right">
						<output> 0.05098789930343628 </output>
					</split>
				</split>
				<split pos="right">
					<feature> 54 </feature>
					<threshold> 0.235294 </threshold>
					<split pos="left">
						<feature> 108 </feature>
						<threshold> 34.362896 </threshold>
						<split pos="left">
							<feature> 134 </feature>
							<threshold> 154103.77 </threshold>
							<split pos="left">
								<feature> 110 </feature>
								<threshold> 25.132898 </threshold>
								<split pos="left">
									<feature> 14 </feature>
									<threshold> 4.0 </threshold>
									<split pos="left">
										<output> 0.7053838968276978 </output>
									</split>
									<split pos="right">
										<output> 0.34729352593421936 </output>
									</split>
								</split>
								<split pos="right">
									<output> 1.0119415521621704 </output>
								</split>
							</split>
							<split pos="right">
								<output> 1.1342551708221436 </output>
							</split>
						</split>
						<split pos="right">
							<output> 1.2212239503860474 </output>
						</split>
					</split>
					<split pos="right">
						<output> 0.9452136754989624 </output>
					</split>
				</split>
			</split>
		</split>
	</tree>
	<tree id="42" weight="0.11">
		<split>
			<feature> 134 </feature>
			<threshold> 0.0 </threshold>
			<split pos="left">
				<feature> 130 </feature>
				<threshold> 355.60156 </threshold>
				<split pos="left">
					<output> -0.3213914930820465 </output>
				</split>
				<split pos="right">
					<output> -0.3644026815891266 </output>
				</split>
			</split>
			<split pos="right">
				<feature> 130 </feature>
				<threshold> 64767.195 </threshold>
				<split pos="left">
					<feature> 127 </feature>
					<threshold> 22.105469 </threshold>
					<split pos="left">
						<feature> 18 </feature>
						<threshold> 15.537808 </threshold>
						<split pos="left">
							<output> 0.37826696038246155 </output>
						</split>
						<split pos="right">
							<output> 0.8929348587989807 </output>
						</split>
					</split>
					<split pos="right">
						<output> 0.02616874687373638 </output>
					</split>
				</split>
				<split pos="right">
					<feature> 54 </feature>
					<threshold> 0.222222 </threshold>
					<split pos="left">
						<feature> 108 </feature>
						<threshold> 26.432997 </threshold>
						<split pos="left">
							<feature> 134 </feature>
							<threshold> 102735.84 </threshold>
							<split pos="left">
								<feature> 110 </feature>
								<threshold> 29.682604 </threshold>
								<split pos="left">
									<output> 0.5619949698448181 </output>
								</split>
								<split pos="right">
									<output> 1.0291719436645508 </output>
								</split>
							</split>
							<split pos="right">
								<output> 1.0193064212799072 </output>
							</split>
						</split>
						<split pos="right">
							<output> 1.1359457969665527 </output>
						</split>
					</split>
					<split pos="right">
						<output> 0.9078691601753235 </output>
					</split>
				</split>
			</split>
		</split>
	</tree>
	<tree id="43" weight="0.11">
		<split>
			<feature> 134 </feature>
			<threshold> 0.0 </threshold>
			<split pos="left">
				<feature> 130 </feature>
				<threshold> 355.60156 </threshold>
				<split pos="left">
					<output> -0.3103233277797699 </output>
				</split>
				<split pos="right">
					<output> -0.32338181138038635 </output>
				</split>
			</split>
			<split pos="right">
				<feature> 130 </feature>
				<threshold> 64767.195 </threshold>
				<split pos="left">
					<feature> 127 </feature>
					<threshold> 22.105469 </threshold>
					<split pos="left">
						<feature> 19 </feature>
						<threshold> 17.489565 </threshold>
						<split pos="left">
							<output> 0.3861254155635834 </output>
						</split>
						<split pos="right">
							<output> 0.8717049360275269 </output>
						</split>
					</split>
					<split pos="right">
						<output> 0.019425859674811363 </output>
					</split>
				</split>
				<split pos="right">
					<feature> 54 </feature>
					<threshold> 0.222222 </threshold>
					<split pos="left">
						<feature> 108 </feature>
						<threshold> 26.432997 </threshold>
						<split pos="left">
							<feature> 134 </feature>
							<threshold> 102735.84 </threshold>
							<split pos="left">
								<feature> 110 </feature>
								<threshold> 29.682604 </threshold>
								<split pos="left">
									<output> 0.5093393325805664 </output>
								</split>
								<split pos="right">
									<output> 0.9900577068328857 </output>
								</split>
							</split>
							<split pos="right">
								<output> 0.9942509531974792 </output>
							</split>
						</split>
						<split pos="right">
							<output> 1.1134141683578491 </output>
						</split>
					</split>
					<split pos="right">
						<output> 0.8709449768066406 </output>
					</split>
				</split>
			</split>
		</split>
	</tree>
	<tree id="44" weight="0.11">
		<split>
			<feature> 134 </feature>
			<threshold> 0.0 </threshold>
			<split pos="left">
				<feature> 130 </feature>
				<threshold> 355.60156 </threshold>
				<split pos="left">
					<output> -0.2916281819343567 </output>
				</split>
				<split pos="right">
					<output> -0.28554004430770874 </output>
				</split>
			</split>
			<split pos="right">
				<feature> 130 </feature>
				<threshold> 64000.39 </threshold>
				<split pos="left">
					<feature> 130 </feature>
					<threshold> 355.60156 </threshold>
					<split pos="left">
						<output> -0.8627680540084839 </output>
					</split>
					<split pos="right">
						<feature> 127 </feature>
						<threshold> 22.105469 </threshold>
						<split pos="left">
							<feature> 19 </feature>
							<threshold> 17.489565 </threshold>
							<split pos="left">
								<output> 0.3010551929473877 </output>
							</split>
							<split pos="right">
								<output> 0.7980732917785645 </output>
							</split>
						</split>
						<split pos="right">
							<output> 0.18323945999145508 </output>
						</split>
					</split>
				</split>
				<split pos="right">
					<feature> 54 </feature>
					<threshold> 0.230769 </threshold>
					<split pos="left">
						<feature> 108 </feature>
						<threshold> 34.362896 </threshold>
						<split pos="left">
							<feature> 19 </feature>
							<threshold> 13.265476 </threshold>
							<split pos="left">
								<output> 0.2541899085044861 </output>
							</split>
							<split pos="right">
								<output> 0.7541412115097046 </output>
							</split>
						</split>
						<split pos="right">
							<output> 1.2000888586044312 </output>
						</split>
					</split>
					<split pos="right">
						<output> 0.860201358795166 </output>
					</split>
				</split>
			</split>
		</split>
	</tree>
	<tree id="45" weight="0.11">
		<split>
			<feature> 134 </feature>
			<threshold> 0.0 </threshold>
			<split pos="left">
				<feature> 130 </feature>
				<threshold> 355.60156 </threshold>
				<split pos="left">
					<output> -0.2778817415237427 </output>
				</split>
				<split pos="right">
					<output> -0.2535668909549713 </output>
				</split>
			</split>
			<split pos="right">
				<feature> 130 </feature>
				<threshold> 64000.39 </threshold>
				<split pos="left">
					<feature> 130 </feature>
					<threshold> 355.60156 </threshold>
					<split pos="left">
						<output> -0.7692259550094604 </output>
					</split>
					<split pos="right">
						<feature> 127 </feature>
						<threshold> 22.105469 </threshold>
						<split pos="left">
							<feature> 19 </feature>
							<threshold> 17.489565 </threshold>
							<split pos="left">
								<output> 0.26836922764778137 </output>
							</split>
							<split pos="right">
								<output> 0.737898588180542 </output>
							</split>
						</split>
						<split pos="right">
							<output> 0.16936630010604858 </output>
						</split>
					</split>
				</split>
				<split pos="right">
					<feature> 54 </feature>
					<threshold> 0.222222 </threshold>
					<split pos="left">
						<feature> 108 </feature>
						<threshold> 23.128878 </threshold>
						<split pos="left">
							<feature> 134 </feature>
							<threshold> 154103.77 </threshold>
							<split pos="left">
								<output> 0.47524818778038025 </output>
							</split>
							<split pos="right">
								<output> 1.0636777877807617 </output>
							</split>
						</split>
						<split pos="right">
							<output> 1.0670826435089111 </output>
						</split>
					</split>
					<split pos="right">
						<output> 0.8066278696060181 </output>
					</split>
				</split>
			</split>
		</split>
	</tree>
	<tree id="46" weight="0.11">
		<split>
			<feature> 134 </feature>
			<threshold> 0.0 </threshold>
			<split pos="left">
				<feature> 130 </feature>
				<threshold> 355.60156 </threshold>
				<split pos="left">
					<output> -0.26710042357444763 </output>
				</split>
				<split pos="right">
					<output> -0.23035867512226105 </output>
				</split>
			</split>
			<split pos="right">
				<feature> 130 </feature>
				<threshold> 64000.39 </threshold>
				<split pos="left">
					<feature> 130 </feature>
					<threshold> 355.60156 </threshold>
					<split pos="left">
						<output> -0.667255699634552 </output>
					</split>
					<split pos="right">
						<feature> 127 </feature>
						<threshold> 22.105469 </threshold>
						<split pos="left">
							<feature> 16 </feature>
							<threshold> 9.826224 </threshold>
							<split pos="left">
								<output> 0.22068873047828674 </output>
							</split>
							<split pos="right">
								<output> 0.7333972454071045 </output>
							</split>
						</split>
						<split pos="right">
							<output> 0.15089769661426544 </output>
						</split>
					</split>
				</split>
				<split pos="right">
					<feature> 14 </feature>
					<threshold> 4.0 </threshold>
					<split pos="left">
						<feature> 109 </feature>
						<threshold> 12.691136 </threshold>
						<split pos="left">
							<feature> 108 </feature>
							<threshold> 23.128878 </threshold>
							<split pos="left">
								<output> 0.5308613777160645 </output>
							</split>
							<split pos="right">
								<output> 1.1098453998565674 </output>
							</split>
						</split>
						<split pos="right">
							<output> 0.9073603749275208 </output>
						</split>
					</split>
					<split pos="right">
						<output> 0.32957056164741516 </output>
					</split>
				</split>
			</split>
		</split>
	</tree>
	<tree id="47" weight="0.11">
		<split>
			<feature> 134 </feature>
			<threshold> 0.0 </threshold>
			<split pos="left">
				<feature> 130 </feature>
				<threshold> 355.60156 </threshold>
				<split pos="left">
					<output> -0.2536535859107971 </output>
				</split>
				<split pos="right">
					<output> -0.20392388105392456 </output>
				</split>
			</split>
			<split pos="right">
				<feature> 130 </feature>
				<threshold> 64000.39 </threshold>
				<split pos="left">
					<feature> 130 </feature>
					<threshold> 355.60156 </threshold>
					<split pos="left">
						<output> -0.570045530796051 </output>
					</split>
					<split pos="right">
						<feature> 127 </feature>
						<threshold> 22.105469 </threshold>
						<split pos="left">
							<feature> 19 </feature>
							<threshold> 17.489565 </threshold>
							<split pos="left">
								<output> 0.19919641315937042 </output>
							</split>
							<split pos="right">
								<output> 0.6474724411964417 </output>
							</split>
						</split>
						<split pos="right">
							<output> 0.13571856915950775 </output>
						</split>
					</split>
				</split>
				<split pos="right">
					<feature> 110 </feature>
					<threshold> 23.995472 </threshold>
					<split pos="left">
						<feature> 134 </feature>
						<threshold> 51367.92 </threshold>
						<split pos="left">
							<feature> 14 </feature>
							<threshold> 4.0 </threshold>
							<split pos="left">
								<output> 0.5195773839950562 </output>
							</split>
							<split pos="right">
								<output> 0.044385433197021484 </output>
							</split>
						</split>
						<split pos="right">
							<output> 0.8611164689064026 </output>
						</split>
					</split>
					<split pos="right">
						<output> 0.8583467602729797 </output>
					</split>
				</split>
			</split>
		</split>
	</tree>
	<tree id="48" weight="0.11">
		<split>
			<feature> 134 </feature>
			<threshold> 0.0 </threshold>
			<split pos="left">
				<feature> 130 </feature>
				<threshold> 355.60156 </threshold>
				<split pos="left">
					<feature> 14 </feature>
					<threshold> 2.0 </threshold>
					<split pos="left">
						<output> 1.1005038022994995 </output>
					</split>
					<split pos="right">
						<feature> 105 </feature>
						<threshold> 0.99609375 </threshold>
						<split pos="left">
							<output> -0.1327085942029953 </output>
						</split>
						<split pos="right">
							<output> -0.6197986602783203 </output>
						</split>
					</split>
				</split>
				<split pos="right">
					<output> -0.1820034682750702 </output>
				</split>
			</split>
			<split pos="right">
				<feature> 130 </feature>
				<threshold> 63744.79 </threshold>
				<split pos="left">
					<feature> 127 </feature>
					<threshold> 22.105469 </threshold>
					<split pos="left">
						<feature> 16 </feature>
						<threshold> 8.845723 </threshold>
						<split pos="left">
							<output> 0.05970150604844093 </output>
						</split>
						<split pos="right">
							<output> 0.5814467668533325 </output>
						</split>
					</split>
					<split pos="right">
						<output> 0.023914311081171036 </output>
					</split>
				</split>
				<split pos="right">
					<feature> 110 </feature>
					<threshold> 22.858046 </threshold>
					<split pos="left">
						<feature> 135 </feature>
						<threshold> 10897.0 </threshold>
						<split pos="left">
							<output> 0.28600427508354187 </output>
						</split>
						<split pos="right">
							<output> 0.824614405632019 </output>
						</split>
					</split>
					<split pos="right">
						<output> 0.8084685206413269 </output>
					</split>
				</split>
			</split>
		</split>
	</tree>
	<tree id="49" weight="0.11">
		<split>
			<feature> 134 </feature>
			<threshold> 0.0 </threshold>
			<split pos="left">
				<feature> 130 </feature>
				<threshold> 355.60156 </threshold>
				<split pos="left">
					<feature> 14 </feature>
					<threshold> 2.0 </threshold>
					<split pos="left">
						<output> 1.0596916675567627 </output>
					</split>
					<split pos="right">
						<feature> 27 </feature>
						<threshold> 9.0 </threshold>
						<split pos="left">
							<feature> 105 </feature>
							<threshold> 0.99609375 </threshold>
							<split pos="left">
								<output> -0.1263500452041626 </output>
							</split>
							<split pos="right">
								<output> -0.6083961725234985 </output>
							</split>
						</split>
						<split pos="right">
							<output> 1.0696080923080444 </output>
						</split>
					</split>
				</split>
				<split pos="right">
					<output> -0.15949441492557526 </output>
				</split>
			</split>
			<split pos="right">
				<feature> 130 </feature>
				<threshold> 63744.79 </threshold>
				<split pos="left">
					<feature> 130 </feature>
					<threshold> 355.60156 </threshold>
					<split pos="left">
						<output> -0.4994544982910156 </output>
					</split>
					<split pos="right">
						<feature> 18 </feature>
						<threshold> 17.472729 </threshold>
						<split pos="left">
							<output> 0.05246086046099663 </output>
						</split>
						<split pos="right">
							<output> 0.45681604743003845 </output>
						</split>
					</split>
				</split>
				<split pos="right">
					<feature> 127 </feature>
					<threshold> 16.070312 </threshold>
					<split pos="left">
						<output> 0.6789341568946838 </output>
					</split>
					<split pos="right">
						<output> 0.3632313013076782 </output>
					</split>
				</split>
			</split>
		</split>
	</tree>
	<tree id="50" weight="0.11">
		<split>
			<feature> 134 </feature>
			<threshold> 0.0 </threshold>
			<split pos="left">
				<feature> 130 </feature>
				<threshold> 355.60156 </threshold>
				<split pos="left">
					<feature> 14 </feature>
					<threshold> 2.0 </threshold>
					<split pos="left">
						<output> 1.0349996089935303 </output>
					</split>
					<split pos="right">
						<feature> 18 </feature>
						<threshold> 23.277487 </threshold>
						<split pos="left">
							<output> -0.39193812012672424 </output>
						</split>
						<split pos="right">
							<output> -0.0011905343271791935 </output>
						</split>
					</split>
				</split>
				<split pos="right">
					<output> -0.14057420194149017 </output>
				</split>
			</split>
			<split pos="right">
				<feature> 130 </feature>
				<threshold> 63744.79 </threshold>
				<split pos="left">
					<feature> 114 </feature>
					<threshold> -15.908893 </threshold>
					<split pos="left">
						<output> 0.3655281066894531 </output>
					</split>
					<split pos="right">
						<output> -0.013064468279480934 </output>
					</split>
				</split>
				<split pos="right">
					<feature> 14 </feature>
					<threshold> 4.0 </threshold>
					<split pos="left">
						<feature> 108 </feature>
						<threshold> 23.128878 </threshold>
						<split pos="left">
							<feature> 109 </feature>
							<threshold> 12.691136 </threshold>
							<split pos="left">
								<output> 0.4038202166557312 </output>
							</split>
							<split pos="right">
								<output> 0.7758437395095825 </output>
							</split>
						</split>
						<split pos="right">
							<output> 1.0656095743179321 </output>
						</split>
					</split>
					<split pos="right">
						<output> 0.1861707866191864 </output>
					</split>
				</split>
			</split>
		</split>
	</tree>
	<tree id="51" weight="0.11">
		<split>
			<feature> 134 </feature>
			<threshold> 51367.92 </threshold>
			<split pos="left">
				<feature> 134 </feature>
				<threshold> 0.0 </threshold>
				<split pos="left">
					<feature> 130 </feature>
					<threshold> 355.60156 </threshold>
					<split pos="left">
						<output> -0.20685285329818726 </output>
					</split>
					<split pos="right">
						<output> -0.11686526983976364 </output>
					</split>
				</split>
				<split pos="right">
					<feature> 130 </feature>
					<threshold> 57865.953 </threshold>
					<split pos="left">
						<feature> 130 </feature>
						<threshold> 355.60156 </threshold>
						<split pos="left">
							<output> -0.46183642745018005 </output>
						</split>
						<split pos="right">
							<output> 0.10901964455842972 </output>
						</split>
					</split>
					<split pos="right">
						<feature> 108 </feature>
						<threshold> 24.120113 </threshold>
						<split pos="left">
							<feature> 127 </feature>
							<threshold> 22.105469 </threshold>
							<split pos="left">
								<feature> 109 </feature>
								<threshold> 15.51139 </threshold>
								<split pos="left">
									<feature> 16 </feature>
									<threshold> 7.5383887 </threshold>
									<split pos="left">
										<output> 0.221811905503273 </output>
									</split>
									<split pos="right">
										<output> 0.6133597493171692 </output>
									</split>
								</split>
								<split pos="right">
									<output> 0.8290356993675232 </output>
								</split>
							</split>
							<split pos="right">
								<output> 0.05195925757288933 </output>
							</split>
						</split>
						<split pos="right">
							<output> 0.984327495098114 </output>
						</split>
					</split>
				</split>
			</split>
			<split pos="right">
				<output> 0.7035797238349915 </output>
			</split>
		</split>
	</tree>
	<tree id="52" weight="0.11">
		<split>
			<feature> 134 </feature>
			<threshold> 0.0 </threshold>
			<split pos="left">
				<feature> 130 </feature>
				<threshold> 355.60156 </threshold>
				<split pos="left">
					<feature> 14 </feature>
					<threshold> 2.0 </threshold>
					<split pos="left">
						<output> 1.013979434967041 </output>
					</split>
					<split pos="right">
						<output> -0.20430061221122742 </output>
					</split>
				</split>
				<split pos="right">
					<output> -0.11252245306968689 </output>
				</split>
			</split>
			<split pos="right">
				<feature> 130 </feature>
				<threshold> 57865.953 </threshold>
				<split pos="left">
					<feature> 17 </feature>
					<threshold> 19.657204 </threshold>
					<split pos="left">
						<output> -0.10322441905736923 </output>
					</split>
					<split pos="right">
						<output> 0.23790186643600464 </output>
					</split>
				</split>
				<split pos="right">
					<feature> 14 </feature>
					<threshold> 4.0 </threshold>
					<split pos="left">
						<feature> 108 </feature>
						<threshold> 21.146406 </threshold>
						<split pos="left">
							<feature> 74 </feature>
							<threshold> 10.606065 </threshold>
							<split pos="left">
								<feature> 134 </feature>
								<threshold> 51367.92 </threshold>
								<split pos="left">
									<output> 0.3157852590084076 </output>
								</split>
								<split pos="right">
									<output> 0.7729415893554688 </output>
								</split>
							</split>
							<split pos="right">
								<output> 0.8133977651596069 </output>
							</split>
						</split>
						<split pos="right">
							<output> 0.9646188020706177 </output>
						</split>
					</split>
					<split pos="right">
						<output> 0.13013394176959991 </output>
					</split>
				</split>
			</split>
		</split>
	</tree>
	<tree id="53" weight="0.11">
		<split>
			<feature> 134 </feature>
			<threshold> 0.0 </threshold>
			<split pos="left">
				<feature> 130 </feature>
				<threshold> 355.60156 </threshold>
				<split pos="left">
					<feature> 14 </feature>
					<threshold> 2.0 </threshold>
					<split pos="left">
						<output> 0.9895715117454529 </output>
					</split>
					<split pos="right">
						<output> -0.18958823382854462 </output>
					</split>
				</split>
				<split pos="right">
					<output> -0.10034668445587158 </output>
				</split>
			</split>
			<split pos="right">
				<feature> 130 </feature>
				<threshold> 57865.953 </threshold>
				<split pos="left">
					<feature> 130 </feature>
					<threshold> 355.60156 </threshold>
					<split pos="left">
						<output> -0.38753893971443176 </output>
					</split>
					<split pos="right">
						<output> 0.08588462322950363 </output>
					</split>
				</split>
				<split pos="right">
					<feature> 110 </feature>
					<threshold> 27.407751 </threshold>
					<split pos="left">
						<feature> 135 </feature>
						<threshold> 10897.0 </threshold>
						<split pos="left">
							<feature> 108 </feature>
							<threshold> 21.146406 </threshold>
							<split pos="left">
								<feature> 127 </feature>
								<threshold> 16.070312 </threshold>
								<split pos="left">
									<output> 0.3453749120235443 </output>
								</split>
								<split pos="right">
									<output> 0.04825354740023613 </output>
								</split>
							</split>
							<split pos="right">
								<output> 0.7487626671791077 </output>
							</split>
						</split>
						<split pos="right">
							<output> 0.6554809808731079 </output>
						</split>
					</split>
					<split pos="right">
						<output> 0.7758167386054993 </output>
					</split>
				</split>
			</split>
		</split>
	</tree>
	<tree id="54" weight="0.11">
		<split>
			<feature> 134 </feature>
			<threshold> 0.0 </threshold>
