## LambdaMART
## No. of trees = 1000
## No. of leaves = 32
## No. of threshold candidates = 256
## Learning rate = 0.13
## Stop early = 100

<ensemble>
	<tree id="1" weight="0.13">
		<split>
			<feature> 130 </feature>
			<threshold> 355.60156 </threshold>
			<split pos="left">
				<feature> 19 </feature>
				<threshold> 7.3782644 </threshold>
				<split pos="left">
					<feature> 108 </feature>
					<threshold> 13.33966 </threshold>
					<split pos="left">
						<feature> 31 </feature>
						<threshold> 88.10547 </threshold>
						<split pos="left">
							<feature> 131 </feature>
							<threshold> 61695.117 </threshold>
							<split pos="left">
								<output> 1.3556703329086304 </output>
							</split>
							<split pos="right">
								<output> 1.6774260997772217 </output>
							</split>
						</split>
						<split pos="right">
							<output> 1.8102033138275146 </output>
						</split>
					</split>
					<split pos="right">
						<output> 1.9618951082229614 </output>
					</split>
				</split>
				<split pos="right">
					<feature> 54 </feature>
					<threshold> 0.148148 </threshold>
					<split pos="left">
						<feature> 123 </feature>
						<threshold> -15.597561 </threshold>
						<split pos="left">
							<output> 0.8767353892326355 </output>
						</split>
						<split pos="right">
							<feature> 131 </feature>
							<threshold> 57855.234 </threshold>
							<split pos="left">
								<feature> 118 </feature>
								<threshold> -48.32602 </threshold>
								<split pos="left">
									<output> 2.0 </output>
								</split>
								<split pos="right">
									<feature> 65 </feature>
									<threshold> 0.012515141 </threshold>
									<split pos="left">
										<feature> 64 </feature>
										<threshold> 0.12304689 </threshold>
										<split pos="left">
											<output> 0.9201332926750183 </output>
										</split>
										<split pos="right">
											<output> 1.4765392541885376 </output>
										</split>
									</split>
									<split pos="right">
										<feature> 12 </feature>
										<threshold> 1.0 </threshold>
										<split pos="left">
											<feature> 17 </feature>
											<threshold> 15.674397 </threshold>
											<split pos="left">
												<feature> 14 </feature>
												<threshold> 2.0 </threshold>
												<split pos="left">
													<output> 2.0 </output>
												</split>
												<split pos="right">
													<feature> 83 </feature>
													<threshold> 27.609621 </threshold>
													<split pos="left">
														<feature> 68 </feature>
														<threshold> 0.111328125 </threshold>
														<split pos="left">
															<output> 1.1221647262573242 </output>
														</split>
														<split pos="right">
															<output> 1.866184115409851 </output>
														</split>
													</split>
													<split pos="right">
														<output> 1.7143796682357788 </output>
													</split>
												</split>
											</split>
											<split pos="right">
												<feature> 53 </feature>
												<threshold> 0.05078125 </threshold>
												<split pos="left">
													<output> 0.993953287601471 </output>
												</split>
												<split pos="right">
													<feature> 15 </feature>
													<threshold> 4872.25 </threshold>
													<split pos="left">
														<feature> 111 </feature>
														<threshold> -24.115356 </threshold>
														<split pos="left">
															<output> 1.8896278142929077 </output>
														</split>
														<split pos="right">
															<feature> 55 </feature>
															<threshold> 0.12828013 </threshold>
															<split pos="left">
																<feature> 105 </feature>
																<threshold> 0.94140625 </threshold>
																<split pos="left">
																	<output> 1.305434226989746 </output>
																</split>
																<split pos="right">
																	<output> 1.0802245140075684 </output>
																</split>
															</split>
															<split pos="right">
																<output> 1.539233684539795 </output>
															</split>
														</split>
													</split>
													<split pos="right">
														<output> 1.8455866575241089 </output>
													</split>
												</split>
											</split>
										</split>
										<split pos="right">
											<output> 0.8948482275009155 </output>
										</split>
									</split>
								</split>
							</split>
							<split pos="right">
								<feature> 127 </feature>
								<threshold> 197.125 </threshold>
								<split pos="left">
									<feature> 20 </feature>
									<threshold> 4.558631 </threshold>
									<split pos="left">
										<output> 1.4762635231018066 </output>
									</split>
									<split pos="right">
										<output> 1.1436737775802612 </output>
									</split>
								</split>
								<split pos="right">
									<output> 1.8471713066101074 </output>
								</split>
							</split>
						</split>
					</split>
					<split pos="right">
						<feature> 41 </feature>
						<threshold> 1311.7979 </threshold>
						<split pos="left">
							<feature> 131 </feature>
							<threshold> 40703.758 </threshold>
							<split pos="left">
								<output> 1.1068764925003052 </output>
							</split>
							<split pos="right">
								<feature> 70 </feature>
								<threshold> 0.0017089844 </threshold>
								<split pos="left">
									<feature> 14 </feature>
									<threshold> 4.0 </threshold>
									<split pos="left">
										<output> 1.8125998973846436 </output>
									</split>
									<split pos="right">
										<output> 1.4278559684753418 </output>
									</split>
								</split>
								<split pos="right">
									<output> 1.9635177850723267 </output>
								</split>
							</split>
						</split>
						<split pos="right">
							<output> 1.9958176612854004 </output>
						</split>
					</split>
				</split>
			</split>
			<split pos="right">
				<feature> 134 </feature>
				<threshold> 0.0 </threshold>
				<split pos="left">
					<feature> 130 </feature>
					<threshold> 866.8047 </threshold>
					<split pos="left">
						<output> -0.26937195658683777 </output>
					</split>
					<split pos="right">
						<feature> 128 </feature>
						<threshold> 4.2489072E7 </threshold>
						<split pos="left">
							<feature> 19 </feature>
							<threshold> 7.3782644 </threshold>
							<split pos="left">
								<output> -1.38112473487854 </output>
							</split>
							<split pos="right">
								<output> -1.0981829166412354 </output>
							</split>
						</split>
						<split pos="right">
							<output> 0.8923150897026062 </output>
						</split>
					</split>
				</split>
				<split pos="right">
					<output> 0.20817522704601288 </output>
				</split>
			</split>
		</split>
	</tree>
	<tree id="2" weight="0.13">
		<split>
			<feature> 130 </feature>
			<threshold> 355.60156 </threshold>
			<split pos="left">
				<feature> 53 </feature>
				<threshold> 0.05078125 </threshold>
				<split pos="left">
					<feature> 54 </feature>
					<threshold> 0.111111 </threshold>
					<split pos="left">
						<feature> 131 </feature>
						<threshold> 57855.234 </threshold>
						<split pos="left">
							<feature> 123 </feature>
							<threshold> -15.597561 </threshold>
							<split pos="left">
								<output> 0.12368848919868469 </output>
							</split>
							<split pos="right">
								<output> 0.6871399283409119 </output>
							</split>
						</split>
						<split pos="right">
							<output> 1.0758417844772339 </output>
						</split>
					</split>
					<split pos="right">
						<feature> 131 </feature>
						<threshold> 50175.47 </threshold>
						<split pos="left">
							<output> 0.9721397161483765 </output>
						</split>
						<split pos="right">
							<feature> 84 </feature>
							<threshold> 10.220324 </threshold>
							<split pos="left">
								<feature> 113 </feature>
								<threshold> -4.0440936 </threshold>
								<split pos="left">
									<output> 1.3359099626541138 </output>
								</split>
								<split pos="right">
									<feature> 18 </feature>
									<threshold> 12.420964 </threshold>
									<split pos="left">
										<feature> 12 </feature>
										<threshold> 1.0 </threshold>
										<split pos="left">
											<output> 1.4231489896774292 </output>
										</split>
										<split pos="right">
											<output> 1.6766481399536133 </output>
										</split>
									</split>
									<split pos="right">
										<output> 1.723486304283142 </output>
									</split>
								</split>
							</split>
							<split pos="right">
								<output> 1.1253663301467896 </output>
							</split>
						</split>
					</split>
				</split>
				<split pos="right">
					<feature> 14 </feature>
					<threshold> 2.0 </threshold>
					<split pos="left">
						<output> 1.6786245107650757 </output>
					</split>
					<split pos="right">
						<feature> 105 </feature>
						<threshold> 0.94140625 </threshold>
						<split pos="left">
							<feature> 12 </feature>
							<threshold> 1.0 </threshold>
							<split pos="left">
								<feature> 17 </feature>
								<threshold> 15.674397 </threshold>
								<split pos="left">
									<output> 1.0884358882904053 </output>
								</split>
								<split pos="right">
									<feature> 16 </feature>
									<threshold> 1.8949642 </threshold>
									<split pos="left">
										<output> 1.6481165885925293 </output>
									</split>
									<split pos="right">
										<feature> 65 </feature>
										<threshold> 0.012515141 </threshold>
										<split pos="left">
											<output> 1.2233538627624512 </output>
										</split>
										<split pos="right">
											<feature> 19 </feature>
											<threshold> 13.117691 </threshold>
											<split pos="left">
												<output> 1.6212406158447266 </output>
											</split>
											<split pos="right">
												<feature> 131 </feature>
												<threshold> 59391.188 </threshold>
												<split pos="left">
													<feature> 131 </feature>
													<threshold> 59135.195 </threshold>
													<split pos="left">
														<feature> 11 </feature>
														<threshold> 211.5625 </threshold>
														<split pos="left">
															<output> 1.038341760635376 </output>
														</split>
														<split pos="right">
															<feature> 78 </feature>
															<threshold> 8.04277 </threshold>
															<split pos="left">
																<feature> 131 </feature>
																<threshold> 17920.453 </threshold>
																<split pos="left">
																	<output> 1.2221733331680298 </output>
																</split>
																<split pos="right">
																	<output> 1.3752936124801636 </output>
																</split>
															</split>
															<split pos="right">
																<output> 1.125156283378601 </output>
															</split>
														</split>
													</split>
													<split pos="right">
														<output> 1.6911327838897705 </output>
													</split>
												</split>
												<split pos="right">
													<output> 0.9081359505653381 </output>
												</split>
											</split>
										</split>
									</split>
								</split>
							</split>
							<split pos="right">
								<output> 0.5345567464828491 </output>
							</split>
						</split>
						<split pos="right">
							<feature> 54 </feature>
							<threshold> 0.142857 </threshold>
							<split pos="left">
								<feature> 131 </feature>
								<threshold> 57855.234 </threshold>
								<split pos="left">
									<feature> 12 </feature>
									<threshold> 1.0 </threshold>
									<split pos="left">
										<feature> 38 </feature>
										<threshold> 2.5 </threshold>
										<split pos="left">
											<feature> 14 </feature>
											<threshold> 6.0 </threshold>
											<split pos="left">
												<feature> 129 </feature>
												<threshold> 14.0 </threshold>
												<split pos="left">
													<output> 1.1487218141555786 </output>
												</split>
												<split pos="right">
													<output> 1.669110894203186 </output>
												</split>
											</split>
											<split pos="right">
												<output> 0.9448840618133545 </output>
											</split>
										</split>
										<split pos="right">
											<output> 1.1575381755828857 </output>
										</split>
									</split>
									<split pos="right">
										<output> 0.34556788206100464 </output>
									</split>
								</split>
								<split pos="right">
									<output> 1.0764225721359253 </output>
								</split>
							</split>
							<split pos="right">
								<feature> 131 </feature>
								<threshold> 40703.758 </threshold>
								<split pos="left">
									<output> 1.0316011905670166 </output>
								</split>
								<split pos="right">
									<feature> 129 </feature>
									<threshold> 2.0 </threshold>
									<split pos="left">
										<output> 1.1379679441452026 </output>
									</split>
									<split pos="right">
										<feature> 14 </feature>
										<threshold> 4.0 </threshold>
										<split pos="left">
											<output> 1.6556941270828247 </output>
										</split>
										<split pos="right">
											<output> 1.438816785812378 </output>
										</split>
									</split>
								</split>
							</split>
						</split>
					</split>
				</split>
			</split>
			<split pos="right">
				<output> -1.1943433284759521 </output>
			</split>
		</split>
	</tree>
	<tree id="3" weight="0.13">
		<split>
			<feature> 130 </feature>
			<threshold> 355.60156 </threshold>
			<split pos="left">
				<feature> 14 </feature>
				<threshold> 2.0 </threshold>
				<split pos="left">
					<output> 1.4680811166763306 </output>
				</split>
				<split pos="right">
					<feature> 53 </feature>
					<threshold> 0.05078125 </threshold>
					<split pos="left">
						<feature> 27 </feature>
						<threshold> 9.0 </threshold>
						<split pos="left">
							<feature> 54 </feature>
							<threshold> 0.111111 </threshold>
							<split pos="left">
								<feature> 131 </feature>
								<threshold> 57855.234 </threshold>
								<split pos="left">
									<output> 0.18528108298778534 </output>
								</split>
								<split pos="right">
									<output> 0.956885814666748 </output>
								</split>
							</split>
							<split pos="right">
								<feature> 131 </feature>
								<threshold> 50175.47 </threshold>
								<split pos="left">
									<output> 0.7354965806007385 </output>
								</split>
								<split pos="right">
									<feature> 84 </feature>
									<threshold> 10.220324 </threshold>
									<split pos="left">
										<feature> 113 </feature>
										<threshold> -4.0440936 </threshold>
										<split pos="left">
											<output> 1.0948481559753418 </output>
										</split>
										<split pos="right">
											<feature> 17 </feature>
											<threshold> 13.682995 </threshold>
											<split pos="left">
												<feature> 12 </feature>
												<threshold> 1.0 </threshold>
												<split pos="left">
													<output> 1.1919283866882324 </output>
												</split>
												<split pos="right">
													<output> 1.437801480293274 </output>
												</split>
											</split>
											<split pos="right">
												<output> 1.4974218606948853 </output>
											</split>
										</split>
									</split>
									<split pos="right">
										<output> 0.9176246523857117 </output>
									</split>
								</split>
							</split>
						</split>
						<split pos="right">
							<output> 1.5496068000793457 </output>
						</split>
					</split>
					<split pos="right">
						<feature> 14 </feature>
						<threshold> 6.0 </threshold>
						<split pos="left">
							<feature> 129 </feature>
							<threshold> 14.0 </threshold>
							<split pos="left">
								<feature> 131 </feature>
								<threshold> 21248.352 </threshold>
								<split pos="left">
									<output> 0.9058451056480408 </output>
								</split>
								<split pos="right">
									<feature> 56 </feature>
									<threshold> 0.0234375 </threshold>
									<split pos="left">
										<output> 0.9193216562271118 </output>
									</split>
									<split pos="right">
										<feature> 11 </feature>
										<threshold> 2961.875 </threshold>
										<split pos="left">
											<feature> 131 </feature>
											<threshold> 21504.344 </threshold>
											<split pos="left">
												<output> 1.6553401947021484 </output>
											</split>
											<split pos="right">
												<feature> 108 </feature>
												<threshold> 4.4465537 </threshold>
												<split pos="left">
													<output> 1.4700676202774048 </output>
												</split>
												<split pos="right">
													<feature> 127 </feature>
													<threshold> 58.316406 </threshold>
													<split pos="left">
														<feature> 68 </feature>
														<threshold> 0.0087890625 </threshold>
														<split pos="left">
															<feature> 133 </feature>
															<threshold> 16.0 </threshold>
															<split pos="left">
																<feature> 132 </feature>
																<threshold> 68.0 </threshold>
																<split pos="left">
																	<feature> 134 </feature>
																	<threshold> 0.0 </threshold>
																	<split pos="left">
																		<output> 1.1211951971054077 </output>
																	</split>
																	<split pos="right">
																		<output> 1.379692792892456 </output>
																	</split>
																</split>
																<split pos="right">
																	<output> 1.523678183555603 </output>
																</split>
															</split>
															<split pos="right">
																<output> 0.9813771843910217 </output>
															</split>
														</split>
														<split pos="right">
															<output> 1.399665355682373 </output>
														</split>
													</split>
													<split pos="right">
														<output> 1.5343964099884033 </output>
													</split>
												</split>
											</split>
										</split>
										<split pos="right">
											<output> 1.5333917140960693 </output>
										</split>
									</split>
								</split>
							</split>
							<split pos="right">
								<feature> 73 </feature>
								<threshold> 9.792187 </threshold>
								<split pos="left">
									<output> 1.4726849794387817 </output>
								</split>
								<split pos="right">
									<output> 1.197926640510559 </output>
								</split>
							</split>
						</split>
						<split pos="right">
							<feature> 105 </feature>
							<threshold> 0.94140625 </threshold>
							<split pos="left">
								<feature> 12 </feature>
								<threshold> 1.0 </threshold>
								<split pos="left">
									<feature> 111 </feature>
									<threshold> -4.521726 </threshold>
									<split pos="left">
										<feature> 125 </feature>
										<threshold> -10.97068 </threshold>
										<split pos="left">
											<output> 1.1591100692749023 </output>
										</split>
										<split pos="right">
											<output> 0.958893895149231 </output>
										</split>
									</split>
									<split pos="right">
										<output> 1.58855402469635 </output>
									</split>
								</split>
								<split pos="right">
									<output> 0.09160077571868896 </output>
								</split>
							</split>
							<split pos="right">
								<feature> 131 </feature>
								<threshold> 57855.234 </threshold>
								<split pos="left">
									<output> 0.6597239375114441 </output>
								</split>
								<split pos="right">
									<feature> 127 </feature>
									<threshold> 203.16016 </threshold>
									<split pos="left">
										<feature> 58 </feature>
										<threshold> 0.66796875 </threshold>
										<split pos="left">
											<output> 0.8698435425758362 </output>
										</split>
										<split pos="right">
											<output> 1.3679770231246948 </output>
										</split>
									</split>
									<split pos="right">
										<output> 1.439904808998108 </output>
									</split>
								</split>
							</split>
						</split>
					</split>
				</split>
			</split>
			<split pos="right">
				<output> -1.0024607181549072 </output>
			</split>
		</split>
	</tree>
	<tree id="4" weight="0.13">
		<split>
			<feature> 130 </feature>
			<threshold> 355.60156 </threshold>
			<split pos="left">
				<feature> 37 </feature>
				<threshold> 9.333333 </threshold>
				<split pos="left">
					<feature> 14 </feature>
					<threshold> 2.0 </threshold>
					<split pos="left">
						<output> 1.327805995941162 </output>
					</split>
					<split pos="right">
						<feature> 53 </feature>
						<threshold> 0.05078125 </threshold>
						<split pos="left">
							<feature> 131 </feature>
							<threshold> 57855.234 </threshold>
							<split pos="left">
								<feature> 54 </feature>
								<threshold> 0.111111 </threshold>
								<split pos="left">
									<output> 0.08149551600217819 </output>
								</split>
								<split pos="right">
									<feature> 131 </feature>
									<threshold> 50175.47 </threshold>
									<split pos="left">
										<output> 0.5509548783302307 </output>
									</split>
									<split pos="right">
										<feature> 121 </feature>
										<threshold> -6.16109 </threshold>
										<split pos="left">
											<output> 1.114050269126892 </output>
										</split>
										<split pos="right">
											<output> -0.247211292386055 </output>
										</split>
									</split>
								</split>
							</split>
							<split pos="right">
								<feature> 54 </feature>
								<threshold> 0.153846 </threshold>
								<split pos="left">
									<feature> 12 </feature>
									<threshold> 10.0 </threshold>
									<split pos="left">
										<feature> 111 </feature>
										<threshold> -4.521726 </threshold>
										<split pos="left">
											<output> 0.7286007404327393 </output>
										</split>
										<split pos="right">
											<output> 0.9840568900108337 </output>
										</split>
									</split>
									<split pos="right">
										<output> 1.3409085273742676 </output>
									</split>
								</split>
								<split pos="right">
									<output> 0.9796158671379089 </output>
								</split>
							</split>
						</split>
						<split pos="right">
							<feature> 14 </feature>
							<threshold> 6.0 </threshold>
							<split pos="left">
								<feature> 129 </feature>
								<threshold> 14.0 </threshold>
								<split pos="left">
									<feature> 131 </feature>
									<threshold> 21248.352 </threshold>
									<split pos="left">
										<feature> 81 </feature>
										<threshold> 281.5831 </threshold>
										<split pos="left">
											<output> 0.7146071195602417 </output>
										</split>
										<split pos="right">
											<output> 1.1671053171157837 </output>
										</split>
									</split>
									<split pos="right">
										<feature> 56 </feature>
										<threshold> 0.0234375 </threshold>
										<split pos="left">
											<output> 0.7898699045181274 </output>
										</split>
										<split pos="right">
											<feature> 131 </feature>
											<threshold> 21504.344 </threshold>
											<split pos="left">
												<output> 1.4667311906814575 </output>
											</split>
											<split pos="right">
												<feature> 11 </feature>
												<threshold> 2961.875 </threshold>
												<split pos="left">
													<feature> 127 </feature>
													<threshold> 58.316406 </threshold>
													<split pos="left">
														<feature> 108 </feature>
														<threshold> 4.4465537 </threshold>
														<split pos="left">
															<output> 1.3058137893676758 </output>
														</split>
														<split pos="right">
															<feature> 65 </feature>
															<threshold> 0.37545452 </threshold>
															<split pos="left">
																<feature> 133 </feature>
																<threshold> 16.0 </threshold>
																<split pos="left">
																	<feature> 74 </feature>
																	<threshold> 21.21213 </threshold>
																	<split pos="left">
																		<feature> 131 </feature>
																		<threshold> 52991.383 </threshold>
																		<split pos="left">
																			<feature> 134 </feature>
																			<threshold> 0.0 </threshold>
																			<split pos="left">
																				<output> 1.040279746055603 </output>
																			</split>
																			<split pos="right">
																				<output> 1.2966582775115967 </output>
																			</split>
																		</split>
																		<split pos="right">
																			<output> 0.7626533508300781 </output>
																		</split>
																	</split>
																	<split pos="right">
																		<output> 1.3548239469528198 </output>
																	</split>
																</split>
																<split pos="right">
																	<output> 0.827736496925354 </output>
																</split>
															</split>
															<split pos="right">
																<output> 1.3953447341918945 </output>
															</split>
														</split>
													</split>
													<split pos="right">
														<output> 1.381737470626831 </output>
													</split>
												</split>
												<split pos="right">
													<output> 1.3842014074325562 </output>
												</split>
											</split>
										</split>
									</split>
								</split>
								<split pos="right">
									<feature> 73 </feature>
									<threshold> 9.792187 </threshold>
									<split pos="left">
										<output> 1.336328148841858 </output>
									</split>
									<split pos="right">
										<output> 1.056918740272522 </output>
									</split>
								</split>
							</split>
							<split pos="right">
								<feature> 105 </feature>
								<threshold> 0.94140625 </threshold>
								<split pos="left">
									<feature> 12 </feature>
									<threshold> 1.0 </threshold>
									<split pos="left">
										<feature> 125 </feature>
										<threshold> -10.97068 </threshold>
										<split pos="left">
											<output> 0.9917047619819641 </output>
										</split>
										<split pos="right">
											<output> 0.8344973921775818 </output>
										</split>
									</split>
									<split pos="right">
										<output> 0.04187389835715294 </output>
									</split>
								</split>
								<split pos="right">
									<feature> 127 </feature>
									<threshold> 203.16016 </threshold>
									<split pos="left">
										<feature> 131 </feature>
										<threshold> 57087.258 </threshold>
										<split pos="left">
											<output> 0.4977342188358307 </output>
										</split>
										<split pos="right">
											<output> 0.7015888094902039 </output>
										</split>
									</split>
									<split pos="right">
										<output> 1.2101057767868042 </output>
									</split>
								</split>
							</split>
						</split>
					</split>
				</split>
				<split pos="right">
					<output> 1.4067972898483276 </output>
				</split>
			</split>
			<split pos="right">
				<output> -0.8491252064704895 </output>
			</split>
		</split>
	</tree>
	<tree id="5" weight="0.13">
		<split>
			<feature> 130 </feature>
			<threshold> 355.60156 </threshold>
			<split pos="left">
				<feature> 27 </feature>
				<threshold> 9.0 </threshold>
				<split pos="left">
					<feature> 14 </feature>
					<threshold> 2.0 </threshold>
					<split pos="left">
						<output> 1.22017240524292 </output>
					</split>
					<split pos="right">
						<feature> 54 </feature>
						<threshold> 0.153846 </threshold>
						<split pos="left">
							<feature> 53 </feature>
							<threshold> 0.05078125 </threshold>
							<split pos="left">
								<feature> 131 </feature>
								<threshold> 57855.234 </threshold>
								<split pos="left">
									<feature> 54 </feature>
									<threshold> 0.117647 </threshold>
									<split pos="left">
										<output> 0.05087573826313019 </output>
									</split>
									<split pos="right">
										<output> 0.6224943399429321 </output>
									</split>
								</split>
								<split pos="right">
									<feature> 12 </feature>
									<threshold> 10.0 </threshold>
									<split pos="left">
										<feature> 111 </feature>
										<threshold> -4.521726 </threshold>
										<split pos="left">
											<output> 0.6053082942962646 </output>
										</split>
										<split pos="right">
											<output> 0.82891446352005 </output>
										</split>
									</split>
									<split pos="right">
										<output> 1.2139352560043335 </output>
									</split>
								</split>
							</split>
							<split pos="right">
								<feature> 105 </feature>
								<threshold> 0.94140625 </threshold>
								<split pos="left">
									<feature> 12 </feature>
									<threshold> 1.0 </threshold>
									<split pos="left">
										<feature> 11 </feature>
										<threshold> 211.5625 </threshold>
										<split pos="left">
											<output> 0.5126835107803345 </output>
										</split>
										<split pos="right">
											<feature> 61 </feature>
											<threshold> 0.109375 </threshold>
											<split pos="left">
												<feature> 112 </feature>
												<threshold> -13.221191 </threshold>
												<split pos="left">
													<feature> 16 </feature>
													<threshold> 1.8949642 </threshold>
													<split pos="left">
														<output> 1.2045245170593262 </output>
													</split>
													<split pos="right">
														<feature> 131 </feature>
														<threshold> 33023.992 </threshold>
														<split pos="left">
															<output> 0.7670469880104065 </output>
														</split>
														<split pos="right">
															<output> 0.8913847208023071 </output>
														</split>
													</split>
												</split>
												<split pos="right">
													<output> 0.5890517234802246 </output>
												</split>
											</split>
											<split pos="right">
												<output> 1.2142822742462158 </output>
											</split>
										</split>
									</split>
									<split pos="right">
										<output> 0.15642015635967255 </output>
									</split>
								</split>
								<split pos="right">
									<feature> 14 </feature>
									<threshold> 6.0 </threshold>
									<split pos="left">
										<feature> 129 </feature>
										<threshold> 14.0 </threshold>
										<split pos="left">
											<feature> 131 </feature>
											<threshold> 21248.352 </threshold>
											<split pos="left">
												<output> 0.6581512093544006 </output>
											</split>
											<split pos="right">
												<feature> 131 </feature>
												<threshold> 21504.344 </threshold>
												<split pos="left">
													<output> 1.4314414262771606 </output>
												</split>
												<split pos="right">
													<feature> 127 </feature>
													<threshold> 58.316406 </threshold>
													<split pos="left">
														<output> 0.7624441385269165 </output>
													</split>
													<split pos="right">
														<output> 1.219071388244629 </output>
													</split>
												</split>
											</split>
										</split>
										<split pos="right">
											<output> 1.0534420013427734 </output>
										</split>
									</split>
									<split pos="right">
										<feature> 127 </feature>
										<threshold> 203.16016 </threshold>
										<split pos="left">
											<feature> 131 </feature>
											<threshold> 57087.258 </threshold>
											<split pos="left">
												<output> 0.3723805844783783 </output>
											</split>
											<split pos="right">
												<output> 0.5930168628692627 </output>
											</split>
										</split>
										<split pos="right">
											<output> 0.9768638610839844 </output>
										</split>
									</split>
								</split>
							</split>
						</split>
						<split pos="right">
							<feature> 131 </feature>
							<threshold> 47615.547 </threshold>
							<split pos="left">
								<output> 0.6707640886306763 </output>
							</split>
							<split pos="right">
								<feature> 41 </feature>
								<threshold> 1311.7979 </threshold>
								<split pos="left">
									<feature> 122 </feature>
									<threshold> -2.26364 </threshold>
									<split pos="left">
										<feature> 109 </feature>
										<threshold> 12.691136 </threshold>
										<split pos="left">
											<feature> 30 </feature>
											<threshold> 88.10547 </threshold>
											<split pos="left">
												<feature> 12 </feature>
												<threshold> 1.0 </threshold>
												<split pos="left">
													<feature> 16 </feature>
													<threshold> 9.074819 </threshold>
													<split pos="left">
														<feature> 134 </feature>
														<threshold> 0.0 </threshold>
														<split pos="left">
															<output> 0.9353618621826172 </output>
														</split>
														<split pos="right">
															<output> 1.2667129039764404 </output>
														</split>
													</split>
													<split pos="right">
														<output> 1.3336224555969238 </output>
													</split>
												</split>
												<split pos="right">
													<output> 1.2540209293365479 </output>
												</split>
											</split>
											<split pos="right">
												<output> 1.2820976972579956 </output>
											</split>
										</split>
										<split pos="right">
											<output> 0.9131885170936584 </output>
										</split>
									</split>
									<split pos="right">
										<output> 0.46656644344329834 </output>
									</split>
								</split>
								<split pos="right">
									<output> 1.3157012462615967 </output>
								</split>
							</split>
						</split>
					</split>
				</split>
				<split pos="right">
					<output> 1.316741704940796 </output>
				</split>
			</split>
			<split pos="right">
				<output> -0.7331235408782959 </output>
			</split>
		</split>
	</tree>
	<tree id="6" weight="0.13">
		<split>
			<feature> 130 </feature>
			<threshold> 355.60156 </threshold>
			<split pos="left">
				<feature> 37 </feature>
				<threshold> 9.333333 </threshold>
				<split pos="left">
					<feature> 14 </feature>
					<threshold> 2.0 </threshold>
					<split pos="left">
						<output> 1.1486220359802246 </output>
					</split>
					<split pos="right">
						<feature> 54 </feature>
						<threshold> 0.153846 </threshold>
						<split pos="left">
							<feature> 53 </feature>
							<threshold> 0.05078125 </threshold>
							<split pos="left">
								<feature> 131 </feature>
								<threshold> 57855.234 </threshold>
								<split pos="left">
									<feature> 54 </feature>
									<threshold> 0.117647 </threshold>
									<split pos="left">
										<output> 0.03063216432929039 </output>
									</split>
									<split pos="right">
										<output> 0.5189568400382996 </output>
									</split>
								</split>
								<split pos="right">
									<feature> 12 </feature>
									<threshold> 10.0 </threshold>
									<split pos="left">
										<feature> 111 </feature>
										<threshold> -4.521726 </threshold>
										<split pos="left">
											<output> 0.5011832118034363 </output>
										</split>
										<split pos="right">
											<output> 0.7179031372070312 </output>
										</split>
									</split>
									<split pos="right">
										<output> 1.1420683860778809 </output>
									</split>
								</split>
							</split>
							<split pos="right">
								<feature> 105 </feature>
								<threshold> 0.94140625 </threshold>
								<split pos="left">
									<feature> 12 </feature>
									<threshold> 1.0 </threshold>
									<split pos="left">
										<feature> 65 </feature>
										<threshold> 0.12515135 </threshold>
										<split pos="left">
											<feature> 11 </feature>
											<threshold> 211.5625 </threshold>
											<split pos="left">
												<output> 0.4020930528640747 </output>
											</split>
											<split pos="right">
												<feature> 112 </feature>
												<threshold> -13.221191 </threshold>
												<split pos="left">
													<feature> 131 </feature>
													<threshold> 33023.992 </threshold>
													<split pos="left">
														<output> 0.6673491597175598 </output>
													</split>
													<split pos="right">
														<feature> 19 </feature>
														<threshold> 13.117691 </threshold>
														<split pos="left">
															<output> 1.1599377393722534 </output>
														</split>
														<split pos="right">
															<output> 0.7914639711380005 </output>
														</split>
													</split>
												</split>
												<split pos="right">
													<output> 0.4709157347679138 </output>
												</split>
											</split>
										</split>
										<split pos="right">
											<output> 1.0989857912063599 </output>
										</split>
									</split>
									<split pos="right">
										<output> 0.07960855960845947 </output>
									</split>
								</split>
								<split pos="right">
									<feature> 14 </feature>
									<threshold> 6.0 </threshold>
									<split pos="left">
										<feature> 129 </feature>
										<threshold> 14.0 </threshold>
										<split pos="left">
											<feature> 131 </feature>
											<threshold> 21248.352 </threshold>
											<split pos="left">
												<output> 0.550860583782196 </output>
											</split>
											<split pos="right">
												<feature> 131 </feature>
												<threshold> 21504.344 </threshold>
												<split pos="left">
													<output> 1.3658509254455566 </output>
												</split>
												<split pos="right">
													<feature> 127 </feature>
													<threshold> 58.316406 </threshold>
													<split pos="left">
														<feature> 56 </feature>
														<threshold> 0.0234375 </threshold>
														<split pos="left">
															<output> 0.5088260173797607 </output>
														</split>
														<split pos="right">
															<output> 0.7238844037055969 </output>
														</split>
													</split>
													<split pos="right">
														<output> 1.1159963607788086 </output>
													</split>
												</split>
											</split>
										</split>
										<split pos="right">
											<output> 0.9426462650299072 </output>
										</split>
									</split>
									<split pos="right">
										<feature> 127 </feature>
										<threshold> 203.16016 </threshold>
										<split pos="left">
											<feature> 131 </feature>
											<threshold> 57087.258 </threshold>
											<split pos="left">
												<output> 0.280896931886673 </output>
											</split>
											<split pos="right">
												<output> 0.4985322058200836 </output>
											</split>
										</split>
										<split pos="right">
											<output> 0.6968835592269897 </output>
										</split>
									</split>
								</split>
							</split>
						</split>
						<split pos="right">
							<feature> 131 </feature>
							<threshold> 47359.555 </threshold>
							<split pos="left">
								<output> 0.5707719922065735 </output>
							</split>
							<split pos="right">
								<feature> 45 </feature>
								<threshold> 1325.415 </threshold>
								<split pos="left">
									<feature> 122 </feature>
									<threshold> -2.26364 </threshold>
									<split pos="left">
										<feature> 49 </feature>
										<threshold> 0.17258526 </threshold>
										<split pos="left">
											<feature> 55 </feature>
											<threshold> 0.0062575703 </threshold>
											<split pos="left">
												<output> 1.2663133144378662 </output>
											</split>
											<split pos="right">
												<feature> 111 </feature>
												<threshold> -9.043335 </threshold>
												<split pos="left">
													<output> 1.2394620180130005 </output>
												</split>
												<split pos="right">
													<feature> 129 </feature>
													<threshold> 14.0 </threshold>
													<split pos="left">
														<output> 0.8415015339851379 </output>
													</split>
													<split pos="right">
														<output> 1.2486258745193481 </output>
													</split>
												</split>
											</split>
										</split>
										<split pos="right">
											<output> 0.7427504062652588 </output>
										</split>
									</split>
									<split pos="right">
										<output> 0.3432825803756714 </output>
									</split>
								</split>
								<split pos="right">
									<output> 1.25360107421875 </output>
								</split>
							</split>
						</split>
					</split>
				</split>
				<split pos="right">
					<output> 1.2559226751327515 </output>
				</split>
			</split>
			<split pos="right">
				<output> -0.6307151913642883 </output>
			</split>
		</split>
	</tree>
	<tree id="7" weight="0.13">
		<split>
			<feature> 130 </feature>
			<threshold> 355.60156 </threshold>
			<split pos="left">
				<feature> 37 </feature>
				<threshold> 9.333333 </threshold>
				<split pos="left">
					<feature> 14 </feature>
					<threshold> 2.0 </threshold>
					<split pos="left">
						<output> 1.0914901494979858 </output>
					</split>
					<split pos="right">
						<feature> 54 </feature>
						<threshold> 0.153846 </threshold>
						<split pos="left">
							<feature> 53 </feature>
							<threshold> 0.05078125 </threshold>
							<split pos="left">
								<feature> 131 </feature>
								<threshold> 57855.234 </threshold>
								<split pos="left">
									<feature> 54 </feature>
									<threshold> 0.117647 </threshold>
									<split pos="left">
										<output> 0.013627183623611927 </output>
									</split>
									<split pos="right">
										<output> 0.3932774066925049 </output>
									</split>
								</split>
								<split pos="right">
									<feature> 12 </feature>
									<threshold> 10.0 </threshold>
									<split pos="left">
										<feature> 129 </feature>
										<threshold> 43.0 </threshold>
										<split pos="left">
											<output> 0.4372802674770355 </output>
										</split>
										<split pos="right">
											<output> 1.058151125907898 </output>
										</split>
									</split>
									<split pos="right">
										<output> 1.041603684425354 </output>
									</split>
								</split>
							</split>
							<split pos="right">
								<feature> 14 </feature>
								<threshold> 6.0 </threshold>
								<split pos="left">
									<feature> 131 </feature>
									<threshold> 21248.352 </threshold>
									<split pos="left">
										<feature> 81 </feature>
										<threshold> 281.5831 </threshold>
										<split pos="left">
											<output> 0.4263623356819153 </output>
										</split>
										<split pos="right">
											<output> 0.9482623338699341 </output>
										</split>
									</split>
									<split pos="right">
										<feature> 56 </feature>
										<threshold> 0.0234375 </threshold>
										<split pos="left">
											<output> 0.43633729219436646 </output>
										</split>
										<split pos="right">
											<feature> 131 </feature>
											<threshold> 21504.344 </threshold>
											<split pos="left">
												<output> 1.3005770444869995 </output>
											</split>
											<split pos="right">
												<feature> 133 </feature>
												<threshold> 4.0 </threshold>
												<split pos="left">
													<feature> 129 </feature>
													<threshold> 14.0 </threshold>
													<split pos="left">
														<output> 0.8610336184501648 </output>
													</split>
													<split pos="right">
														<output> 1.1960448026657104 </output>
													</split>
												</split>
												<split pos="right">
													<feature> 133 </feature>
													<threshold> 236.0 </threshold>
													<split pos="left">
														<output> 0.5867201685905457 </output>
													</split>
													<split pos="right">
														<output> 1.1559497117996216 </output>
													</split>
												</split>
											</split>
										</split>
									</split>
								</split>
								<split pos="right">
									<feature> 105 </feature>
									<threshold> 0.94140625 </threshold>
									<split pos="left">
										<feature> 12 </feature>
										<threshold> 1.0 </threshold>
										<split pos="left">
											<feature> 65 </feature>
											<threshold> 0.12515135 </threshold>
											<split pos="left">
												<feature> 121 </feature>
												<threshold> -11.637416 </threshold>
												<split pos="left">
													<output> 0.6873369216918945 </output>
												</split>
												<split pos="right">
													<output> 0.5219531059265137 </output>
												</split>
											</split>
											<split pos="right">
												<output> 1.0859533548355103 </output>
											</split>
										</split>
										<split pos="right">
											<output> 0.03380069509148598 </output>
										</split>
									</split>
									<split pos="right">
										<feature> 127 </feature>
										<threshold> 203.16016 </threshold>
										<split pos="left">
											<feature> 117 </feature>
											<threshold> -23.896648 </threshold>
											<split pos="left">
												<output> 0.5798770189285278 </output>
											</split>
											<split pos="right">
												<output> 0.1484188437461853 </output>
											</split>
										</split>
										<split pos="right">
											<output> 0.5900017023086548 </output>
										</split>
									</split>
								</split>
							</split>
						</split>
						<split pos="right">
							<feature> 131 </feature>
							<threshold> 47359.555 </threshold>
							<split pos="left">
								<output> 0.4900018274784088 </output>
							</split>
							<split pos="right">
								<feature> 45 </feature>
								<threshold> 1325.415 </threshold>
								<split pos="left">
									<feature> 122 </feature>
									<threshold> -2.26364 </threshold>
									<split pos="left">
										<feature> 49 </feature>
										<threshold> 0.17258526 </threshold>
										<split pos="left">
											<feature> 55 </feature>
											<threshold> 0.0062575703 </threshold>
											<split pos="left">
												<output> 1.186012625694275 </output>
											</split>
											<split pos="right">
												<feature> 111 </feature>
												<threshold> -9.043335 </threshold>
												<split pos="left">
													<output> 1.1916383504867554 </output>
												</split>
												<split pos="right">
													<feature> 129 </feature>
													<threshold> 14.0 </threshold>
													<split pos="left">
														<output> 0.7717279195785522 </output>
													</split>
													<split pos="right">
														<output> 1.1958633661270142 </output>
													</split>
												</split>
											</split>
										</split>
										<split pos="right">
											<output> 0.6515569090843201 </output>
										</split>
									</split>
									<split pos="right">
										<output> 0.3383994400501251 </output>
									</split>
								</split>
								<split pos="right">
									<output> 1.2089686393737793 </output>
								</split>
							</split>
						</split>
					</split>
				</split>
				<split pos="right">
					<output> 1.2128832340240479 </output>
				</split>
			</split>
			<split pos="right">
				<feature> 134 </feature>
				<threshold> 0.0 </threshold>
				<split pos="left">
					<output> -0.7341389656066895 </output>
				</split>
				<split pos="right">
					<output> 1.3036577701568604 </output>
				</split>
			</split>
		</split>
	</tree>
	<tree id="8" weight="0.13">
		<split>
			<feature> 130 </feature>
			<threshold> 355.60156 </threshold>
			<split pos="left">
				<feature> 37 </feature>
				<threshold> 9.333333 </threshold>
				<split pos="left">
					<feature> 14 </feature>
					<threshold> 2.0 </threshold>
					<split pos="left">
						<output> 1.0408737659454346 </output>
					</split>
					<split pos="right">
						<feature> 54 </feature>
						<threshold> 0.153846 </threshold>
						<split pos="left">
							<feature> 53 </feature>
							<threshold> 0.05078125 </threshold>
							<split pos="left">
								<feature> 131 </feature>
								<threshold> 57855.234 </threshold>
								<split pos="left">
									<feature> 115 </feature>
									<threshold> -4.505661 </threshold>
									<split pos="left">
										<output> -0.06012837216258049 </output>
									</split>
									<split pos="right">
										<output> 0.37333664298057556 </output>
									</split>
								</split>
								<split pos="right">
									<feature> 12 </feature>
									<threshold> 10.0 </threshold>
									<split pos="left">
										<output> 0.375484824180603 </output>
									</split>
									<split pos="right">
										<output> 0.9665805697441101 </output>
									</split>
								</split>
							</split>
							<split pos="right">
								<feature> 105 </feature>
								<threshold> 0.94140625 </threshold>
								<split pos="left">
									<feature> 12 </feature>
									<threshold> 1.0 </threshold>
									<split pos="left">
										<feature> 65 </feature>
										<threshold> 0.12515135 </threshold>
										<split pos="left">
											<feature> 11 </feature>
											<threshold> 211.5625 </threshold>
											<split pos="left">
												<output> 0.21810683608055115 </output>
											</split>
											<split pos="right">
												<feature> 112 </feature>
												<threshold> -13.221191 </threshold>
												<split pos="left">
													<feature> 16 </feature>
													<threshold> 1.8949642 </threshold>
													<split pos="left">
														<output> 1.0262506008148193 </output>
													</split>
													<split pos="right">
														<feature> 131 </feature>
														<threshold> 33023.992 </threshold>
														<split pos="left">
															<output> 0.5058435797691345 </output>
														</split>
														<split pos="right">
															<output> 0.6227672696113586 </output>
														</split>
													</split>
												</split>
												<split pos="right">
													<output> 0.2965450882911682 </output>
												</split>
											</split>
										</split>
										<split pos="right">
											<output> 0.902075469493866 </output>
										</split>
									</split>
									<split pos="right">
										<output> 0.07898731529712677 </output>
									</split>
								</split>
								<split pos="right">
									<feature> 14 </feature>
									<threshold> 6.0 </threshold>
									<split pos="left">
										<feature> 133 </feature>
										<threshold> 4.0 </threshold>
										<split pos="left">
											<feature> 55 </feature>
											<threshold> 0.0813484 </threshold>
											<split pos="left">
												<output> 0.635723888874054 </output>
											</split>
											<split pos="right">
												<output> 1.0972942113876343 </output>
											</split>
										</split>
										<split pos="right">
											<feature> 129 </feature>
											<threshold> 25.0 </threshold>
											<split pos="left">
												<feature> 49 </feature>
												<threshold> 0.33877867 </threshold>
												<split pos="left">
													<feature> 81 </feature>
													<threshold> 281.5831 </threshold>
													<split pos="left">
														<feature> 88 </feature>
														<threshold> 96.513245 </threshold>
														<split pos="left">
															<feature> 78 </feature>
															<threshold> 72.38493 </threshold>
															<split pos="left">
																<feature> 120 </feature>
																<threshold> -26.861984 </threshold>
																<split pos="left">
																	<output> 1.0583475828170776 </output>
																</split>
																<split pos="right">
																	<feature> 48 </feature>
																	<threshold> 0.83496094 </threshold>
																	<split pos="left">
																		<output> 0.29823893308639526 </output>
																	</split>
																	<split pos="right">
																		<output> 0.6290255188941956 </output>
																	</split>
																</split>
															</split>
															<split pos="right">
																<output> 1.0890471935272217 </output>
															</split>
														</split>
														<split pos="right">
															<output> -3.2344894409179688 </output>
														</split>
													</split>
													<split pos="right">
														<output> 0.7384714484214783 </output>
													</split>
												</split>
												<split pos="right">
													<output> 1.3140604496002197 </output>
												</split>
											</split>
											<split pos="right">
												<output> 0.9485966563224792 </output>
											</split>
										</split>
									</split>
									<split pos="right">
										<feature> 115 </feature>
										<threshold> -15.01932 </threshold>
										<split pos="left">
											<output> 0.7254205942153931 </output>
										</split>
										<split pos="right">
											<output> 0.16249942779541016 </output>
										</split>
									</split>
								</split>
							</split>
						</split>
						<split pos="right">
							<feature> 131 </feature>
							<threshold> 48383.523 </threshold>
							<split pos="left">
								<output> 0.40897491574287415 </output>
							</split>
							<split pos="right">
								<feature> 41 </feature>
								<threshold> 1311.7979 </threshold>
								<split pos="left">
									<feature> 122 </feature>
									<threshold> -2.26364 </threshold>
									<split pos="left">
										<feature> 49 </feature>
										<threshold> 0.17258526 </threshold>
										<split pos="left">
											<feature> 111 </feature>
											<threshold> -7.5361323 </threshold>
											<split pos="left">
												<output> 1.0407400131225586 </output>
											</split>
											<split pos="right">
												<output> 0.7677147388458252 </output>
											</split>
										</split>
										<split pos="right">
											<output> 0.5603744983673096 </output>
										</split>
									</split>
									<split pos="right">
										<output> 0.32195067405700684 </output>
									</split>
								</split>
								<split pos="right">
									<output> 1.176592469215393 </output>
								</split>
							</split>
						</split>
					</split>
				</split>
				<split pos="right">
					<output> 1.179815411567688 </output>
				</split>
			</split>
			<split pos="right">
				<output> -0.463605135679245 </output>
			</split>
		</split>
	</tree>
	<tree id="9" weight="0.13">
		<split>
			<feature> 130 </feature>
			<threshold> 355.60156 </threshold>
			<split pos="left">
				<feature> 37 </feature>
				<threshold> 9.333333 </threshold>
				<split pos="left">
					<feature> 14 </feature>
					<threshold> 2.0 </threshold>
					<split pos="left">
						<output> 0.9971960783004761 </output>
					</split>
					<split pos="right">
						<feature> 54 </feature>
						<threshold> 0.153846 </threshold>
						<split pos="left">
							<feature> 3 </feature>
							<threshold> 1.0 </threshold>
							<split pos="left">
								<feature> 131 </feature>
								<threshold> 65023.016 </threshold>
								<split pos="left">
									<feature> 115 </feature>
									<threshold> -3.7546854 </threshold>
									<split pos="left">
										<output> -0.1461717188358307 </output>
									</split>
									<split pos="right">
										<output> 0.2257511168718338 </output>
									</split>
								</split>
								<split pos="right">
									<output> 0.40873807668685913 </output>
								</split>
							</split>
							<split pos="right">
								<feature> 14 </feature>
								<threshold> 6.0 </threshold>
								<split pos="left">
									<feature> 131 </feature>
									<threshold> 15872.516 </threshold>
									<split pos="left">
										<output> 0.3238522708415985 </output>
									</split>
									<split pos="right">
										<feature> 121 </feature>
										<threshold> -8.214712 </threshold>
										<split pos="left">
											<output> 0.42812132835388184 </output>
										</split>
										<split pos="right">
											<feature> 127 </feature>
											<threshold> 58.316406 </threshold>
											<split pos="left">
												<feature> 19 </feature>
												<threshold> 11.204549 </threshold>
												<split pos="left">
													<output> 0.9719215035438538 </output>
												</split>
												<split pos="right">
													<feature> 63 </feature>
													<threshold> 0.05859375 </threshold>
													<split pos="left">
														<output> 1.3304953575134277 </output>
													</split>
													<split pos="right">
														<feature> 131 </feature>
														<threshold> 55295.312 </threshold>
														<split pos="left">
															<feature> 133 </feature>
															<threshold> 14.0 </threshold>
															<split pos="left">
																<output> 0.7811285257339478 </output>
															</split>
															<split pos="right">
																<output> 0.50245600938797 </output>
															</split>
														</split>
														<split pos="right">
															<output> -0.013199537992477417 </output>
														</split>
													</split>
												</split>
											</split>
											<split pos="right">
												<output> 1.2024372816085815 </output>
											</split>
										</split>
									</split>
								</split>
								<split pos="right">
									<feature> 3 </feature>
									<threshold> 2.0 </threshold>
									<split pos="left">
										<feature> 60 </feature>
										<threshold> 0.2033709 </threshold>
										<split pos="left">
											<output> 0.2115761637687683 </output>
										</split>
										<split pos="right">
											<output> 0.7715151309967041 </output>
										</split>
									</split>
									<split pos="right">
										<feature> 106 </feature>
										<threshold> 3.819804 </threshold>
										<split pos="left">
											<output> 0.9521142840385437 </output>
										</split>
										<split pos="right">
											<feature> 105 </feature>
											<threshold> 0.94140625 </threshold>
											<split pos="left">
												<output> 0.4930213987827301 </output>
											</split>
											<split pos="right">
												<output> 0.3957105278968811 </output>
											</split>
										</split>
									</split>
								</split>
							</split>
						</split>
						<split pos="right">
							<feature> 131 </feature>
							<threshold> 19968.39 </threshold>
							<split pos="left">
								<output> 0.155474454164505 </output>
							</split>
							<split pos="right">
								<feature> 41 </feature>
								<threshold> 1311.7979 </threshold>
								<split pos="left">
									<feature> 51 </feature>
									<threshold> 0.2109375 </threshold>
									<split pos="left">
										<feature> 129 </feature>
										<threshold> 2.0 </threshold>
										<split pos="left">
											<feature> 40 </feature>
											<threshold> 123.34766 </threshold>
											<split pos="left">
												<feature> 11 </feature>
												<threshold> 158.67188 </threshold>
												<split pos="left">
													<feature> 122 </feature>
													<threshold> -18.597115 </threshold>
													<split pos="left">
														<output> 1.264588713645935 </output>
													</split>
													<split pos="right">
														<feature> 131 </feature>
														<threshold> 50687.453 </threshold>
														<split pos="left">
															<output> 0.33701440691947937 </output>
														</split>
														<split pos="right">
															<feature> 12 </feature>
															<threshold> 1.0 </threshold>
															<split pos="left">
																<output> 0.5683631300926208 </output>
															</split>
															<split pos="right">
																<output> 0.9487019777297974 </output>
															</split>
														</split>
													</split>
												</split>
												<split pos="right">
													<output> 0.1012767031788826 </output>
												</split>
											</split>
											<split pos="right">
												<output> 1.0127333402633667 </output>
											</split>
										</split>
										<split pos="right">
											<feature> 79 </feature>
											<threshold> 4.615319 </threshold>
											<split pos="left">
												<output> 1.2185906171798706 </output>
											</split>
											<split pos="right">
												<feature> 14 </feature>
												<threshold> 4.0 </threshold>
												<split pos="left">
													<output> 1.0621641874313354 </output>
												</split>
												<split pos="right">
													<output> 0.6669836640357971 </output>
												</split>
											</split>
										</split>
									</split>
									<split pos="right">
										<output> 1.1072686910629272 </output>
									</split>
								</split>
								<split pos="right">
									<output> 1.1683138608932495 </output>
								</split>
							</split>
						</split>
					</split>
				</split>
				<split pos="right">
					<output> 1.156602144241333 </output>
				</split>
			</split>
			<split pos="right">
				<feature> 134 </feature>
				<threshold> 0.0 </threshold>
				<split pos="left">
					<output> -0.5880587100982666 </output>
				</split>
				<split pos="right">
					<output> 1.2115613222122192 </output>
				</split>
			</split>
		</split>
	</tree>
	<tree id="10" weight="0.13">
		<split>
			<feature> 130 </feature>
			<threshold> 355.60156 </threshold>
			<split pos="left">
				<feature> 37 </feature>
				<threshold> 9.333333 </threshold>
				<split pos="left">
					<feature> 14 </feature>
					<threshold> 2.0 </threshold>
					<split pos="left">
						<output> 0.9550396800041199 </output>
					</split>
					<split pos="right">
						<feature> 54 </feature>
						<threshold> 0.153846 </threshold>
						<split pos="left">
							<feature> 3 </feature>
							<threshold> 1.0 </threshold>
							<split pos="left">
								<feature> 131 </feature>
								<threshold> 65023.016 </threshold>
								<split pos="left">
									<feature> 115 </feature>
									<threshold> -3.7546854 </threshold>
									<split pos="left">
										<output> -0.3047845959663391 </output>
									</split>
									<split pos="right">
										<output> 0.18085318803787231 </output>
									</split>
								</split>
								<split pos="right">
									<output> 0.3331088125705719 </output>
								</split>
							</split>
							<split pos="right">
								<feature> 14 </feature>
								<threshold> 6.0 </threshold>
								<split pos="left">
									<feature> 131 </feature>
									<threshold> 15872.516 </threshold>
									<split pos="left">
										<output> 0.27707138657569885 </output>
									</split>
									<split pos="right">
										<feature> 121 </feature>
										<threshold> -8.214712 </threshold>
										<split pos="left">
											<output> 0.3744014799594879 </output>
										</split>
										<split pos="right">
											<feature> 127 </feature>
											<threshold> 58.316406 </threshold>
											<split pos="left">
												<feature> 19 </feature>
												<threshold> 11.204549 </threshold>
												<split pos="left">
													<output> 0.9064860939979553 </output>
												</split>
												<split pos="right">
													<feature> 101 </feature>
													<threshold> 0.9140625 </threshold>
													<split pos="left">
														<output> 0.9435999393463135 </output>
													</split>
													<split pos="right">
														<output> 0.4129081666469574 </output>
													</split>
												</split>
											</split>
											<split pos="right">
												<output> 1.1735457181930542 </output>
											</split>
										</split>
									</split>
								</split>
								<split pos="right">
									<feature> 3 </feature>
									<threshold> 2.0 </threshold>
									<split pos="left">
										<feature> 60 </feature>
										<threshold> 0.20962846 </threshold>
										<split pos="left">
											<feature> 126 </feature>
											<threshold> 17.0 </threshold>
											<split pos="left">
												<output> 0.18058545887470245 </output>
											</split>
											<split pos="right">
												<output> 1.2764716148376465 </output>
											</split>
										</split>
										<split pos="right">
											<output> 0.6913095116615295 </output>
										</split>
									</split>
									<split pos="right">
										<feature> 105 </feature>
										<threshold> 0.94140625 </threshold>
										<split pos="left">
											<feature> 16 </feature>
											<threshold> 1.8949642 </threshold>
											<split pos="left">
												<output> 0.9056861400604248 </output>
											</split>
											<split pos="right">
												<feature> 134 </feature>
												<threshold> 0.0 </threshold>
												<split pos="left">
													<feature> 84 </feature>
													<threshold> 8.516936 </threshold>
													<split pos="left">
														<output> 0.3862282633781433 </output>
													</split>
													<split pos="right">
														<output> 0.6334589123725891 </output>
													</split>
												</split>
												<split pos="right">
													<output> 0.9314051270484924 </output>
												</split>
											</split>
										</split>
										<split pos="right">
											<output> 0.36113959550857544 </output>
										</split>
									</split>
								</split>
							</split>
						</split>
						<split pos="right">
							<feature> 131 </feature>
							<threshold> 19712.398 </threshold>
							<split pos="left">
								<output> 0.1198311448097229 </output>
							</split>
							<split pos="right">
								<feature> 45 </feature>
								<threshold> 1325.415 </threshold>
								<split pos="left">
									<feature> 51 </feature>
									<threshold> 0.2109375 </threshold>
									<split pos="left">
										<feature> 129 </feature>
										<threshold> 2.0 </threshold>
										<split pos="left">
											<feature> 31 </feature>
											<threshold> 123.34766 </threshold>
											<split pos="left">
												<feature> 11 </feature>
												<threshold> 158.67188 </threshold>
												<split pos="left">
													<feature> 122 </feature>
													<threshold> -18.597115 </threshold>
													<split pos="left">
														<output> 1.2267006635665894 </output>
													</split>
													<split pos="right">
														<feature> 60 </feature>
														<threshold> 0.0062575703 </threshold>
														<split pos="left">
															<output> 1.0321134328842163 </output>
														</split>
														<split pos="right">
															<feature> 12 </feature>
															<threshold> 1.0 </threshold>
															<split pos="left">
																<output> 0.39273789525032043 </output>
															</split>
															<split pos="right">
																<output> 0.7984398603439331 </output>
															</split>
														</split>
													</split>
												</split>
												<split pos="right">
													<output> 0.0032902350649237633 </output>
												</split>
											</split>
											<split pos="right">
												<output> 0.9568069577217102 </output>
											</split>
										</split>
										<split pos="right">
											<feature> 14 </feature>
											<threshold> 4.0 </threshold>
											<split pos="left">
												<output> 1.0051573514938354 </output>
											</split>
											<split pos="right">
												<output> 0.588575005531311 </output>
											</split>
										</split>
									</split>
									<split pos="right">
										<output> 1.0326251983642578 </output>
									</split>
								</split>
								<split pos="right">
									<output> 1.1805888414382935 </output>
								</split>
							</split>
						</split>
					</split>
				</split>
				<split pos="right">
					<output> 1.136967658996582 </output>
				</split>
			</split>
			<split pos="right">
				<feature> 134 </feature>
				<threshold> 0.0 </threshold>
				<split pos="left">
					<output> -0.5178658962249756 </output>
				</split>
				<split pos="right">
					<output> 1.0499894618988037 </output>
				</split>
			</split>
		</split>
	</tree>
	<tree id="11" weight="0.13">
		<split>
			<feature> 130 </feature>
			<threshold> 355.60156 </threshold>
			<split pos="left">
				<feature> 37 </feature>
				<threshold> 9.333333 </threshold>
				<split pos="left">
					<feature> 54 </feature>
					<threshold> 0.153846 </threshold>
					<split pos="left">
						<feature> 14 </feature>
						<threshold> 2.0 </threshold>
						<split pos="left">
							<output> 0.9141925573348999 </output>
						</split>
						<split pos="right">
							<feature> 3 </feature>
							<threshold> 2.0 </threshold>
							<split pos="left">
								<feature> 3 </feature>
								<threshold> 1.0 </threshold>
								<split pos="left">
									<feature> 119 </feature>
									<threshold> -7.541046 </threshold>
									<split pos="left">
										<feature> 28 </feature>
										<threshold> 6.0 </threshold>
										<split pos="left">
											<feature> 133 </feature>
											<threshold> 4.0 </threshold>
											<split pos="left">
												<output> 0.03202285245060921 </output>
											</split>
											<split pos="right">
												<output> -0.3690735995769501 </output>
											</split>
										</split>
										<split pos="right">
											<output> 0.5768216848373413 </output>
										</split>
									</split>
									<split pos="right">
										<feature> 128 </feature>
										<threshold> 3.312224E7 </threshold>
										<split pos="left">
											<feature> 131 </feature>
											<threshold> 64511.03 </threshold>
											<split pos="left">
												<output> 0.16515816748142242 </output>
											</split>
											<split pos="right">
												<output> 0.5746133327484131 </output>
											</split>
										</split>
										<split pos="right">
											<output> 1.212692141532898 </output>
										</split>
									</split>
								</split>
								<split pos="right">
									<feature> 14 </feature>
									<threshold> 6.0 </threshold>
									<split pos="left">
										<feature> 127 </feature>
										<threshold> 58.316406 </threshold>
										<split pos="left">
											<feature> 131 </feature>
											<threshold> 20992.36 </threshold>
											<split pos="left">
												<output> 0.1243964210152626 </output>
											</split>
											<split pos="right">
												<feature> 19 </feature>
												<threshold> 11.204549 </threshold>
												<split pos="left">
													<output> 0.8936783671379089 </output>
												</split>
												<split pos="right">
													<feature> 121 </feature>
													<threshold> -8.214712 </threshold>
													<split pos="left">
														<output> 0.18588274717330933 </output>
													</split>
													<split pos="right">
														<feature> 131 </feature>
														<threshold> 21504.344 </threshold>
														<split pos="left">
															<output> 1.2122857570648193 </output>
														</split>
														<split pos="right">
															<output> 0.4524158239364624 </output>
														</split>
													</split>
												</split>
											</split>
										</split>
										<split pos="right">
											<output> 1.123976707458496 </output>
										</split>
									</split>
									<split pos="right">
										<feature> 60 </feature>
										<threshold> 0.20962846 </threshold>
										<split pos="left">
											<output> 0.13204237818717957 </output>
										</split>
										<split pos="right">
											<output> 0.6208135485649109 </output>
										</split>
									</split>
								</split>
							</split>
							<split pos="right">
								<feature> 134 </feature>
								<threshold> 0.0 </threshold>
								<split pos="left">
									<feature> 112 </feature>
									<threshold> -31.730774 </threshold>
									<split pos="left">
										<output> 0.6783257126808167 </output>
									</split>
									<split pos="right">
										<feature> 127 </feature>
										<threshold> 197.125 </threshold>
										<split pos="left">
											<feature> 69 </feature>
											<threshold> 0.008789063 </threshold>
											<split pos="left">
												<feature> 106 </feature>
												<threshold> 3.819804 </threshold>
												<split pos="left">
													<output> 0.8489798903465271 </output>
												</split>
												<split pos="right">
													<feature> 108 </feature>
													<threshold> 22.232769 </threshold>
													<split pos="left">
														<output> 0.17040419578552246 </output>
													</split>
													<split pos="right">
														<output> 0.36328884959220886 </output>
													</split>
												</split>
											</split>
											<split pos="right">
												<output> 0.6476023197174072 </output>
											</split>
										</split>
										<split pos="right">
											<output> 0.48628219962120056 </output>
										</split>
									</split>
								</split>
								<split pos="right">
									<output> 0.8374913334846497 </output>
								</split>
							</split>
						</split>
					</split>
					<split pos="right">
						<feature> 131 </feature>
						<threshold> 19968.39 </threshold>
						<split pos="left">
							<output> 0.11527370661497116 </output>
						</split>
						<split pos="right">
							<feature> 41 </feature>
							<threshold> 1311.7979 </threshold>
							<split pos="left">
								<feature> 51 </feature>
								<threshold> 0.2109375 </threshold>
								<split pos="left">
									<feature> 129 </feature>
									<threshold> 2.0 </threshold>
									<split pos="left">
										<feature> 11 </feature>
										<threshold> 0.0 </threshold>
										<split pos="left">
											<output> 0.5772627592086792 </output>
										</split>
										<split pos="right">
											<output> 0.16683554649353027 </output>
										</split>
									</split>
									<split pos="right">
										<feature> 131 </feature>
										<threshold> 25344.227 </threshold>
										<split pos="left">
											<output> 1.256561279296875 </output>
										</split>
										<split pos="right">
											<output> 0.535865843296051 </output>
										</split>
									</split>
								</split>
								<split pos="right">
									<output> 0.9999602437019348 </output>
								</split>
							</split>
							<split pos="right">
								<output> 1.161167860031128 </output>
							</split>
						</split>
					</split>
				</split>
				<split pos="right">
					<output> 1.1206647157669067 </output>
				</split>
			</split>
			<split pos="right">
				<feature> 134 </feature>
				<threshold> 0.0 </threshold>
				<split pos="left">
					<output> -0.4534679651260376 </output>
				</split>
				<split pos="right">
					<output> 0.9046947360038757 </output>
				</split>
			</split>
		</split>
	</tree>
	<tree id="12" weight="0.13">
		<split>
			<feature> 134 </feature>
			<threshold> 0.0 </threshold>
			<split pos="left">
				<feature> 130 </feature>
				<threshold> 355.60156 </threshold>
				<split pos="left">
					<feature> 37 </feature>
					<threshold> 9.333333 </threshold>
					<split pos="left">
						<feature> 14 </feature>
						<threshold> 2.0 </threshold>
						<split pos="left">
							<output> 0.8773016929626465 </output>
						</split>
						<split pos="right">
							<feature> 54 </feature>
							<threshold> 0.153846 </threshold>
							<split pos="left">
								<feature> 3 </feature>
								<threshold> 2.0 </threshold>
								<split pos="left">
									<feature> 133 </feature>
									<threshold> 4.0 </threshold>
									<split pos="left">
										<feature> 127 </feature>
										<threshold> 28.140625 </threshold>
										<split pos="left">
											<feature> 76 </feature>
											<threshold> 332.30182 </threshold>
											<split pos="left">
												<output> 0.6294379830360413 </output>
											</split>
											<split pos="right">
												<output> 1.2249202728271484 </output>
											</split>
										</split>
										<split pos="right">
											<feature> 128 </feature>
											<threshold> 6.1222736E7 </threshold>
											<split pos="left">
												<feature> 53 </feature>
												<threshold> 0.66796875 </threshold>
												<split pos="left">
													<feature> 126 </feature>
													<threshold> 1.0 </threshold>
													<split pos="left">
														<output> 0.7371758818626404 </output>
													</split>
													<split pos="right">
														<feature> 129 </feature>
														<threshold> 35.0 </threshold>
														<split pos="left">
															<feature> 129 </feature>
															<threshold> 1.0 </threshold>
															<split pos="left">
																<output> -0.024907885119318962 </output>
															</split>
															<split pos="right">
																<output> 0.23280376195907593 </output>
															</split>
														</split>
														<split pos="right">
															<output> 0.7044530510902405 </output>
														</split>
													</split>
												</split>
												<split pos="right">
													<output> 0.9675025939941406 </output>
												</split>
											</split>
											<split pos="right">
												<output> 1.1012617349624634 </output>
											</split>
										</split>
									</split>
									<split pos="right">
										<feature> 3 </feature>
										<threshold> 1.0 </threshold>
										<split pos="left">
											<output> -0.24885068833827972 </output>
										</split>
										<split pos="right">
											<feature> 65 </feature>
											<threshold> 0.12515135 </threshold>
											<split pos="left">
												<feature> 111 </feature>
												<threshold> -4.521726 </threshold>
												<split pos="left">
													<feature> 126 </feature>
													<threshold> 15.0 </threshold>
													<split pos="left">
														<feature> 131 </feature>
														<threshold> 31744.031 </threshold>
														<split pos="left">
															<output> -0.046316392719745636 </output>
														</split>
														<split pos="right">
															<feature> 69 </feature>
															<threshold> 0.009492188 </threshold>
															<split pos="left">
																<output> 0.18282663822174072 </output>
															</split>
															<split pos="right">
																<output> 0.8164108991622925 </output>
															</split>
														</split>
													</split>
													<split pos="right">
														<output> 1.2392926216125488 </output>
													</split>
												</split>
												<split pos="right">
													<output> 0.9156631231307983 </output>
												</split>
											</split>
											<split pos="right">
												<output> 0.4878501892089844 </output>
											</split>
										</split>
									</split>
								</split>
								<split pos="right">
									<feature> 112 </feature>
									<threshold> -31.730774 </threshold>
									<split pos="left">
										<output> 0.6230814456939697 </output>
									</split>
									<split pos="right">
										<feature> 69 </feature>
										<threshold> 0.008789063 </threshold>
										<split pos="left">
											<feature> 127 </feature>
											<threshold> 197.125 </threshold>
											<split pos="left">
												<feature> 108 </feature>
												<threshold> 22.232769 </threshold>
												<split pos="left">
													<output> 0.11916174739599228 </output>
												</split>
												<split pos="right">
													<output> 0.3048633337020874 </output>
												</split>
											</split>
											<split pos="right">
												<output> 0.4488098919391632 </output>
											</split>
										</split>
										<split pos="right">
											<output> 0.5881943702697754 </output>
										</split>
									</split>
								</split>
							</split>
							<split pos="right">
								<feature> 131 </feature>
								<threshold> 19968.39 </threshold>
								<split pos="left">
									<output> 0.043770503252744675 </output>
								</split>
								<split pos="right">
									<feature> 56 </feature>
									<threshold> 0.2109375 </threshold>
									<split pos="left">
										<feature> 45 </feature>
										<threshold> 1325.415 </threshold>
										<split pos="left">
											<feature> 129 </feature>
											<threshold> 2.0 </threshold>
											<split pos="left">
												<feature> 11 </feature>
												<threshold> 0.0 </threshold>
												<split pos="left">
													<output> 0.47597551345825195 </output>
												</split>
												<split pos="right">
													<output> 0.14133310317993164 </output>
												</split>
											</split>
											<split pos="right">
												<feature> 13 </feature>
												<threshold> 0.0 </threshold>
												<split pos="left">
													<output> 1.1592656373977661 </output>
												</split>
												<split pos="right">
													<output> 0.46736055612564087 </output>
												</split>
											</split>
										</split>
										<split pos="right">
											<output> 1.100304126739502 </output>
										</split>
									</split>
									<split pos="right">
										<output> 1.0130692720413208 </output>
									</split>
								</split>
							</split>
						</split>
					</split>
					<split pos="right">
						<output> 1.1052508354187012 </output>
					</split>
				</split>
				<split pos="right">
					<output> -0.39515379071235657 </output>
				</split>
			</split>
			<split pos="right">
				<feature> 130 </feature>
				<threshold> 355.60156 </threshold>
				<split pos="left">
					<output> 0.6482295393943787 </output>
				</split>
				<split pos="right">
					<output> 0.7849658131599426 </output>
				</split>
			</split>
		</split>
	</tree>
	<tree id="13" weight="0.13">
		<split>
			<feature> 134 </feature>
			<threshold> 0.0 </threshold>
			<split pos="left">
				<feature> 130 </feature>
				<threshold> 355.60156 </threshold>
				<split pos="left">
					<feature> 27 </feature>
					<threshold> 9.0 </threshold>
					<split pos="left">
						<feature> 54 </feature>
						<threshold> 0.153846 </threshold>
						<split pos="left">
							<feature> 14 </feature>
							<threshold> 2.0 </threshold>
							<split pos="left">
								<output> 0.8331090211868286 </output>
							</split>
							<split pos="right">
								<feature> 3 </feature>
								<threshold> 2.0 </threshold>
								<split pos="left">
									<feature> 133 </feature>
									<threshold> 4.0 </threshold>
									<split pos="left">
										<feature> 127 </feature>
										<threshold> 28.140625 </threshold>
										<split pos="left">
											<output> 0.556841254234314 </output>
										</split>
										<split pos="right">
											<feature> 53 </feature>
											<threshold> 0.66796875 </threshold>
											<split pos="left">
												<feature> 128 </feature>
												<threshold> 6.1222736E7 </threshold>
												<split pos="left">
													<feature> 129 </feature>
													<threshold> 32.0 </threshold>
													<split pos="left">
														<feature> 126 </feature>
														<threshold> 1.0 </threshold>
														<split pos="left">
															<output> 0.6308944225311279 </output>
														</split>
														<split pos="right">
															<feature> 129 </feature>
															<threshold> 1.0 </threshold>
															<split pos="left">
																<output> -0.062108296900987625 </output>
															</split>
															<split pos="right">
																<output> 0.23700624704360962 </output>
															</split>
														</split>
													</split>
													<split pos="right">
														<output> 0.5991871356964111 </output>
													</split>
												</split>
												<split pos="right">
													<output> 1.0271636247634888 </output>
												</split>
											</split>
											<split pos="right">
												<output> 0.8910452723503113 </output>
											</split>
										</split>
									</split>
									<split pos="right">
										<feature> 23 </feature>
										<threshold> 1.0 </threshold>
										<split pos="left">
											<output> -0.3853451609611511 </output>
										</split>
										<split pos="right">
											<feature> 65 </feature>
											<threshold> 0.112636216 </threshold>
											<split pos="left">
												<feature> 131 </feature>
												<threshold> 31744.031 </threshold>
												<split pos="left">
													<output> -0.16906152665615082 </output>
												</split>
												<split pos="right">
													<feature> 69 </feature>
													<threshold> 0.015468745 </threshold>
													<split pos="left">
														<output> 0.17249558866024017 </output>
													</split>
													<split pos="right">
														<output> 0.974695086479187 </output>
													</split>
												</split>
											</split>
											<split pos="right">
												<output> 0.42655083537101746 </output>
											</split>
										</split>
									</split>
								</split>
								<split pos="right">
									<feature> 112 </feature>
									<threshold> -31.730774 </threshold>
									<split pos="left">
										<output> 0.5652658343315125 </output>
									</split>
									<split pos="right">
										<feature> 69 </feature>
										<threshold> 0.008789063 </threshold>
										<split pos="left">
											<feature> 81 </feature>
											<threshold> 281.5831 </threshold>
											<split pos="left">
												<feature> 14 </feature>
												<threshold> 24.0 </threshold>
												<split pos="left">
													<feature> 127 </feature>
													<threshold> 179.01953 </threshold>
													<split pos="left">
														<feature> 44 </feature>
														<threshold> 1.555556 </threshold>
														<split pos="left">
															<feature> 117 </feature>
															<threshold> -25.302347 </threshold>
															<split pos="left">
																<output> 0.24573396146297455 </output>
															</split>
															<split pos="right">
																<output> -0.009949364699423313 </output>
															</split>
														</split>
														<split pos="right">
															<output> -5.055224895477295 </output>
														</split>
													</split>
													<split pos="right">
														<output> -3.56254243850708 </output>
													</split>
												</split>
												<split pos="right">
													<output> 0.53940749168396 </output>
												</split>
											</split>
											<split pos="right">
												<output> 0.5908184051513672 </output>
											</split>
										</split>
										<split pos="right">
											<output> 0.5537999868392944 </output>
										</split>
									</split>
								</split>
							</split>
						</split>
						<split pos="right">
							<feature> 131 </feature>
							<threshold> 19968.39 </threshold>
							<split pos="left">
								<output> 0.018635457381606102 </output>
							</split>
							<split pos="right">
								<feature> 56 </feature>
								<threshold> 0.21484375 </threshold>
								<split pos="left">
									<feature> 41 </feature>
									<threshold> 1311.7979 </threshold>
									<split pos="left">
										<feature> 129 </feature>
										<threshold> 2.0 </threshold>
										<split pos="left">
											<feature> 65 </feature>
											<threshold> 0.093863524 </threshold>
											<split pos="left">
												<output> 0.05447857454419136 </output>
											</split>
											<split pos="right">
												<feature> 122 </feature>
												<threshold> -17.112253 </threshold>
												<split pos="left">
													<output> 1.1191821098327637 </output>
												</split>
												<split pos="right">
													<output> 0.37694865465164185 </output>
												</split>
											</split>
										</split>
										<split pos="right">
											<output> 0.4499247968196869 </output>
										</split>
									</split>
									<split pos="right">
										<output> 1.089343547821045 </output>
									</split>
								</split>
								<split pos="right">
									<output> 0.963404655456543 </output>
								</split>
							</split>
						</split>
					</split>
					<split pos="right">
						<output> 1.0928921699523926 </output>
					</split>
				</split>
				<split pos="right">
					<output> -0.3511207103729248 </output>
				</split>
			</split>
			<split pos="right">
				<feature> 130 </feature>
				<threshold> 355.60156 </threshold>
				<split pos="left">
					<output> 0.6268585920333862 </output>
				</split>
				<split pos="right">
					<output> 0.7809793949127197 </output>
				</split>
			</split>
		</split>
	</tree>
	<tree id="14" weight="0.13">
		<split>
			<feature> 134 </feature>
			<threshold> 0.0 </threshold>
			<split pos="left">
				<feature> 108 </feature>
				<threshold> 18.897852 </threshold>
				<split pos="left">
					<feature> 65 </feature>
					<threshold> 0.018772712 </threshold>
					<split pos="left">
						<feature> 128 </feature>
						<threshold> 6.1222736E7 </threshold>
						<split pos="left">
							<feature> 109 </feature>
							<threshold> 12.973162 </threshold>
							<split pos="left">
								<feature> 125 </feature>
								<threshold> -4.114134 </threshold>
								<split pos="left">
									<feature> 130 </feature>
									<threshold> 355.60156 </threshold>
									<split pos="left">
										<feature> 64 </feature>
										<threshold> 0.11339615 </threshold>
										<split pos="left">
											<output> -0.2948381304740906 </output>
										</split>
										<split pos="right">
											<output> 0.2876787483692169 </output>
										</split>
									</split>
									<split pos="right">
										<output> -0.6864607930183411 </output>
									</split>
								</split>
								<split pos="right">
									<output> 0.0035428041592240334 </output>
								</split>
							</split>
							<split pos="right">
								<output> 0.018722182139754295 </output>
							</split>
						</split>
						<split pos="right">
							<output> 0.9138283729553223 </output>
						</split>
					</split>
					<split pos="right">
						<feature> 14 </feature>
						<threshold> 2.0 </threshold>
						<split pos="left">
							<output> 0.8887099623680115 </output>
						</split>
						<split pos="right">
							<feature> 11 </feature>
							<threshold> 0.0 </threshold>
							<split pos="left">
								<feature> 65 </feature>
								<threshold> 0.4004849 </threshold>
								<split pos="left">
									<feature> 130 </feature>
									<threshold> 355.60156 </threshold>
									<split pos="left">
										<output> 0.24029047787189484 </output>
									</split>
									<split pos="right">
										<output> 0.34235212206840515 </output>
									</split>
								</split>
								<split pos="right">
									<output> 1.0770164728164673 </output>
								</split>
							</split>
							<split pos="right">
								<feature> 127 </feature>
								<threshold> 34.17578 </threshold>
								<split pos="left">
									<feature> 14 </feature>
									<threshold> 9.0 </threshold>
									<split pos="left">
										<feature> 130 </feature>
										<threshold> 355.60156 </threshold>
										<split pos="left">
											<feature> 133 </feature>
											<threshold> 4.0 </threshold>
											<split pos="left">
												<output> 0.4869344234466553 </output>
											</split>
											<split pos="right">
												<output> -0.01964484713971615 </output>
											</split>
										</split>
										<split pos="right">
											<output> -0.05525768920779228 </output>
										</split>
									</split>
									<split pos="right">
										<output> 1.0693215131759644 </output>
									</split>
								</split>
								<split pos="right">
									<feature> 105 </feature>
									<threshold> 0.27734375 </threshold>
									<split pos="left">
										<output> 0.20181339979171753 </output>
									</split>
									<split pos="right">
										<feature> 130 </feature>
										<threshold> 355.60156 </threshold>
										<split pos="left">
											<feature> 64 </feature>
											<threshold> 0.301585 </threshold>
											<split pos="left">
												<feature> 64 </feature>
												<threshold> 0.21472861 </threshold>
												<split pos="left">
													<feature> 127 </feature>
													<threshold> 420.42578 </threshold>
													<split pos="left">
														<feature> 54 </feature>
														<threshold> 0.2 </threshold>
														<split pos="left">
															<feature> 53 </feature>
															<threshold> 0.66796875 </threshold>
															<split pos="left">
																<output> -0.11336751282215118 </output>
															</split>
															<split pos="right">
																<output> -1.1841528415679932 </output>
															</split>
														</split>
														<split pos="right">
															<output> 1.5223872661590576 </output>
														</split>
													</split>
													<split pos="right">
														<output> -3.2292048931121826 </output>
													</split>
												</split>
												<split pos="right">
													<output> -1.383066177368164 </output>
												</split>
											</split>
											<split pos="right">
												<output> 0.9860396385192871 </output>
											</split>
										</split>
										<split pos="right">
											<output> -0.3023753762245178 </output>
										</split>
									</split>
								</split>
							</split>
						</split>
					</split>
				</split>
				<split pos="right">
					<feature> 130 </feature>
					<threshold> 355.60156 </threshold>
					<split pos="left">
						<feature> 14 </feature>
						<threshold> 2.0 </threshold>
						<split pos="left">
							<output> 0.737094521522522 </output>
						</split>
						<split pos="right">
							<feature> 60 </feature>
							<threshold> 0.41925767 </threshold>
							<split pos="left">
								<feature> 112 </feature>
								<threshold> -25.120209 </threshold>
								<split pos="left">
									<output> 0.41586393117904663 </output>
								</split>
								<split pos="right">
									<feature> 14 </feature>
									<threshold> 6.0 </threshold>
									<split pos="left">
										<feature> 129 </feature>
										<threshold> 24.0 </threshold>
										<split pos="left">
											<feature> 133 </feature>
											<threshold> 8.0 </threshold>
											<split pos="left">
												<output> 0.39877742528915405 </output>
											</split>
											<split pos="right">
												<output> 0.010549262166023254 </output>
											</split>
										</split>
										<split pos="right">
											<output> 0.9784784913063049 </output>
										</split>
									</split>
									<split pos="right">
										<output> 0.05425596609711647 </output>
									</split>
								</split>
							</split>
							<split pos="right">
								<output> 0.960089385509491 </output>
							</split>
						</split>
					</split>
					<split pos="right">
						<output> 0.2470729947090149 </output>
					</split>
				</split>
			</split>
			<split pos="right">
				<feature> 130 </feature>
				<threshold> 355.60156 </threshold>
				<split pos="left">
					<output> 0.5510427355766296 </output>
				</split>
				<split pos="right">
					<output> 0.8555058240890503 </output>
				</split>
			</split>
		</split>
	</tree>
	<tree id="15" weight="0.13">
		<split>
			<feature> 134 </feature>
			<threshold> 0.0 </threshold>
			<split pos="left">
				<feature> 108 </feature>
				<threshold> 18.897852 </threshold>
				<split pos="left">
					<feature> 65 </feature>
					<threshold> 0.018772712 </threshold>
					<split pos="left">
						<feature> 128 </feature>
						<threshold> 6.1222736E7 </threshold>
						<split pos="left">
							<feature> 130 </feature>
							<threshold> 355.60156 </threshold>
							<split pos="left">
								<feature> 53 </feature>
								<threshold> 0.66796875 </threshold>
								<split pos="left">
									<feature> 18 </feature>
									<threshold> 18.216722 </threshold>
									<split pos="left">
										<feature> 3 </feature>
										<threshold> 3.0 </threshold>
										<split pos="left">
											<feature> 54 </feature>
											<threshold> 0.2 </threshold>
											<split pos="left">
												<output> -0.4436921179294586 </output>
											</split>
											<split pos="right">
												<output> 0.4258032739162445 </output>
											</split>
										</split>
										<split pos="right">
											<output> 0.8276517391204834 </output>
										</split>
									</split>
									<split pos="right">
										<output> -0.15790501236915588 </output>
									</split>
								</split>
								<split pos="right">
									<output> -1.8935438394546509 </output>
								</split>
							</split>
							<split pos="right">
								<output> -0.6106048226356506 </output>
							</split>
						</split>
						<split pos="right">
							<output> 0.8842937350273132 </output>
						</split>
					</split>
					<split pos="right">
						<feature> 14 </feature>
						<threshold> 2.0 </threshold>
						<split pos="left">
							<output> 0.8530806303024292 </output>
						</split>
						<split pos="right">
							<feature> 114 </feature>
							<threshold> -3.0041037 </threshold>
							<split pos="left">
								<feature> 133 </feature>
								<threshold> 47.0 </threshold>
								<split pos="left">
									<feature> 20 </feature>
									<threshold> 20.706064 </threshold>
									<split pos="left">
										<feature> 127 </feature>
										<threshold> 34.17578 </threshold>
										<split pos="left">
											<feature> 14 </feature>
											<threshold> 9.0 </threshold>
											<split pos="left">
												<output> 0.05666626617312431 </output>
											</split>
											<split pos="right">
