## LambdaMART
## No. of trees = 1000
## No. of leaves = 10
## No. of threshold candidates = 256
## Learning rate = 0.13
## Stop early = 100

<ensemble>
	<tree id="1" weight="0.13">
		<split>
			<feature> 130 </feature>
			<threshold> 355.60156 </threshold>
			<split pos="left">
				<feature> 64 </feature>
				<threshold> 0.07968753 </threshold>
				<split pos="left">
					<feature> 53 </feature>
					<threshold> 0.05078125 </threshold>
					<split pos="left">
						<feature> 128 </feature>
						<threshold> 6.1222736E7 </threshold>
						<split pos="left">
							<feature> 131 </feature>
							<threshold> 57855.234 </threshold>
							<split pos="left">
								<output> 0.8768048286437988 </output>
							</split>
							<split pos="right">
								<output> 1.1474950313568115 </output>
							</split>
						</split>
						<split pos="right">
							<output> 1.793289065361023 </output>
						</split>
					</split>
					<split pos="right">
						<feature> 16 </feature>
						<threshold> 4.9237227 </threshold>
						<split pos="left">
							<output> 1.2639193534851074 </output>
						</split>
						<split pos="right">
							<output> 1.078344702720642 </output>
						</split>
					</split>
				</split>
				<split pos="right">
					<feature> 131 </feature>
					<threshold> 48127.53 </threshold>
					<split pos="left">
						<output> 1.117767333984375 </output>
					</split>
					<split pos="right">
						<feature> 127 </feature>
						<threshold> 34.17578 </threshold>
						<split pos="left">
							<feature> 133 </feature>
							<threshold> 3.0 </threshold>
							<split pos="left">
								<output> 1.8702086210250854 </output>
							</split>
							<split pos="right">
								<output> 1.413313388824463 </output>
							</split>
						</split>
						<split pos="right">
							<output> 1.2696608304977417 </output>
						</split>
					</split>
				</split>
			</split>
			<split pos="right">
				<output> -0.9378566145896912 </output>
			</split>
		</split>
	</tree>
	<tree id="2" weight="0.13">
		<split>
			<feature> 130 </feature>
			<threshold> 355.60156 </threshold>
			<split pos="left">
				<feature> 64 </feature>
				<threshold> 0.07734378 </threshold>
				<split pos="left">
					<feature> 131 </feature>
					<threshold> 57855.234 </threshold>
					<split pos="left">
						<output> 0.5439324975013733 </output>
					</split>
					<split pos="right">
						<output> 1.0803501605987549 </output>
					</split>
				</split>
				<split pos="right">
					<feature> 131 </feature>
					<threshold> 48127.53 </threshold>
					<split pos="left">
						<output> 1.053440809249878 </output>
					</split>
					<split pos="right">
						<feature> 65 </feature>
						<threshold> 0.4004849 </threshold>
						<split pos="left">
							<feature> 127 </feature>
							<threshold> 34.17578 </threshold>
							<split pos="left">
								<feature> 133 </feature>
								<threshold> 3.0 </threshold>
								<split pos="left">
									<output> 1.470260739326477 </output>
								</split>
								<split pos="right">
									<output> 1.229062795639038 </output>
								</split>
							</split>
							<split pos="right">
								<feature> 109 </feature>
								<threshold> 3.9483516 </threshold>
								<split pos="left">
									<output> 1.6266233921051025 </output>
								</split>
								<split pos="right">
									<feature> 121 </feature>
									<threshold> -10.83866 </threshold>
									<split pos="left">
										<output> 1.3948700428009033 </output>
									</split>
									<split pos="right">
										<output> 1.1460556983947754 </output>
									</split>
								</split>
							</split>
						</split>
						<split pos="right">
							<output> 1.7502533197402954 </output>
						</split>
					</split>
				</split>
			</split>
			<split pos="right">
				<output> -1.2272827625274658 </output>
			</split>
		</split>
	</tree>
	<tree id="3" weight="0.13">
		<split>
			<feature> 130 </feature>
			<threshold> 355.60156 </threshold>
			<split pos="left">
				<feature> 27 </feature>
				<threshold> 9.0 </threshold>
				<split pos="left">
					<feature> 64 </feature>
					<threshold> 0.07734378 </threshold>
					<split pos="left">
						<feature> 131 </feature>
						<threshold> 57855.234 </threshold>
						<split pos="left">
							<output> 0.35624808073043823 </output>
						</split>
						<split pos="right">
							<output> 0.8941584229469299 </output>
						</split>
					</split>
					<split pos="right">
						<feature> 131 </feature>
						<threshold> 48127.53 </threshold>
						<split pos="left">
							<output> 0.8847053647041321 </output>
						</split>
						<split pos="right">
							<feature> 127 </feature>
							<threshold> 34.17578 </threshold>
							<split pos="left">
								<feature> 133 </feature>
								<threshold> 3.0 </threshold>
								<split pos="left">
									<feature> 54 </feature>
									<threshold> 0.2 </threshold>
									<split pos="left">
										<output> 1.2183946371078491 </output>
									</split>
									<split pos="right">
										<output> 1.431174635887146 </output>
									</split>
								</split>
								<split pos="right">
									<output> 0.9999402761459351 </output>
								</split>
							</split>
							<split pos="right">
								<feature> 121 </feature>
								<threshold> -10.83866 </threshold>
								<split pos="left">
									<output> 1.1665314435958862 </output>
								</split>
								<split pos="right">
									<output> 0.9379596710205078 </output>
								</split>
							</split>
						</split>
					</split>
				</split>
				<split pos="right">
					<output> 1.5241364240646362 </output>
				</split>
			</split>
			<split pos="right">
				<output> -1.0170462131500244 </output>
			</split>
		</split>
	</tree>
	<tree id="4" weight="0.13">
		<split>
			<feature> 130 </feature>
			<threshold> 355.60156 </threshold>
			<split pos="left">
				<feature> 27 </feature>
				<threshold> 9.0 </threshold>
				<split pos="left">
					<feature> 64 </feature>
					<threshold> 0.07734378 </threshold>
					<split pos="left">
						<feature> 131 </feature>
						<threshold> 57855.234 </threshold>
						<split pos="left">
							<output> 0.287822425365448 </output>
						</split>
						<split pos="right">
							<output> 0.7414693236351013 </output>
						</split>
					</split>
					<split pos="right">
						<feature> 131 </feature>
						<threshold> 48127.53 </threshold>
						<split pos="left">
							<output> 0.7375859022140503 </output>
						</split>
						<split pos="right">
							<feature> 127 </feature>
							<threshold> 34.17578 </threshold>
							<split pos="left">
								<feature> 133 </feature>
								<threshold> 3.0 </threshold>
								<split pos="left">
									<feature> 14 </feature>
									<threshold> 4.0 </threshold>
									<split pos="left">
										<output> 1.2924884557724 </output>
									</split>
									<split pos="right">
										<output> 1.0673922300338745 </output>
									</split>
								</split>
								<split pos="right">
									<output> 0.8428168296813965 </output>
								</split>
							</split>
							<split pos="right">
								<feature> 121 </feature>
								<threshold> -10.83866 </threshold>
								<split pos="left">
									<output> 1.0178914070129395 </output>
								</split>
								<split pos="right">
									<output> 0.7836422324180603 </output>
								</split>
							</split>
						</split>
					</split>
				</split>
				<split pos="right">
					<output> 1.3906232118606567 </output>
				</split>
			</split>
			<split pos="right">
				<output> -0.861210823059082 </output>
			</split>
		</split>
	</tree>
	<tree id="5" weight="0.13">
		<split>
			<feature> 130 </feature>
			<threshold> 355.60156 </threshold>
			<split pos="left">
				<feature> 27 </feature>
				<threshold> 9.0 </threshold>
				<split pos="left">
					<feature> 64 </feature>
					<threshold> 0.07734378 </threshold>
					<split pos="left">
						<feature> 131 </feature>
						<threshold> 57855.234 </threshold>
						<split pos="left">
							<output> 0.23755277693271637 </output>
						</split>
						<split pos="right">
							<output> 0.6221078634262085 </output>
						</split>
					</split>
					<split pos="right">
						<feature> 131 </feature>
						<threshold> 48127.53 </threshold>
						<split pos="left">
							<output> 0.6049362421035767 </output>
						</split>
						<split pos="right">
							<feature> 127 </feature>
							<threshold> 34.17578 </threshold>
							<split pos="left">
								<feature> 133 </feature>
								<threshold> 3.0 </threshold>
								<split pos="left">
									<feature> 14 </feature>
									<threshold> 4.0 </threshold>
									<split pos="left">
										<output> 1.1977742910385132 </output>
									</split>
									<split pos="right">
										<output> 0.9558993577957153 </output>
									</split>
								</split>
								<split pos="right">
									<output> 0.7182663679122925 </output>
								</split>
							</split>
							<split pos="right">
								<feature> 121 </feature>
								<threshold> -10.83866 </threshold>
								<split pos="left">
									<output> 0.8990225195884705 </output>
								</split>
								<split pos="right">
									<output> 0.6581478714942932 </output>
								</split>
							</split>
						</split>
					</split>
				</split>
				<split pos="right">
					<output> 1.3051950931549072 </output>
				</split>
			</split>
			<split pos="right">
				<output> -0.7331649661064148 </output>
			</split>
		</split>
	</tree>
	<tree id="6" weight="0.13">
		<split>
			<feature> 130 </feature>
			<threshold> 355.60156 </threshold>
			<split pos="left">
				<feature> 27 </feature>
				<threshold> 9.0 </threshold>
				<split pos="left">
					<feature> 64 </feature>
					<threshold> 0.07734378 </threshold>
					<split pos="left">
						<feature> 131 </feature>
						<threshold> 57855.234 </threshold>
						<split pos="left">
							<output> 0.19322237372398376 </output>
						</split>
						<split pos="right">
							<output> 0.5224657654762268 </output>
						</split>
					</split>
					<split pos="right">
						<feature> 131 </feature>
						<threshold> 48127.53 </threshold>
						<split pos="left">
							<output> 0.5077733397483826 </output>
						</split>
						<split pos="right">
							<feature> 127 </feature>
							<threshold> 34.17578 </threshold>
							<split pos="left">
								<feature> 133 </feature>
								<threshold> 3.0 </threshold>
								<split pos="left">
									<output> 0.9156285524368286 </output>
								</split>
								<split pos="right">
									<output> 0.6118249893188477 </output>
								</split>
							</split>
							<split pos="right">
								<feature> 121 </feature>
								<threshold> -12.751406 </threshold>
								<split pos="left">
									<output> 0.8567183613777161 </output>
								</split>
								<split pos="right">
									<feature> 109 </feature>
									<threshold> 3.9483516 </threshold>
									<split pos="left">
										<output> 1.1009782552719116 </output>
									</split>
									<split pos="right">
										<output> 0.5625087022781372 </output>
									</split>
								</split>
							</split>
						</split>
					</split>
				</split>
				<split pos="right">
					<output> 1.2474982738494873 </output>
				</split>
			</split>
			<split pos="right">
				<output> -0.6280092000961304 </output>
			</split>
		</split>
	</tree>
	<tree id="7" weight="0.13">
		<split>
			<feature> 130 </feature>
			<threshold> 355.60156 </threshold>
			<split pos="left">
				<feature> 27 </feature>
				<threshold> 9.0 </threshold>
				<split pos="left">
					<feature> 64 </feature>
					<threshold> 0.07734378 </threshold>
					<split pos="left">
						<feature> 131 </feature>
						<threshold> 57855.234 </threshold>
						<split pos="left">
							<output> 0.15677297115325928 </output>
						</split>
						<split pos="right">
							<output> 0.4370516240596771 </output>
						</split>
					</split>
					<split pos="right">
						<feature> 131 </feature>
						<threshold> 48127.53 </threshold>
						<split pos="left">
							<output> 0.42470794916152954 </output>
						</split>
						<split pos="right">
							<feature> 121 </feature>
							<threshold> -7.650751 </threshold>
							<split pos="left">
								<feature> 113 </feature>
								<threshold> -5.1572847 </threshold>
								<split pos="left">
									<output> 0.6959652900695801 </output>
								</split>
								<split pos="right">
									<output> 0.8699408173561096 </output>
								</split>
							</split>
							<split pos="right">
								<feature> 16 </feature>
								<threshold> 1.3285565 </threshold>
								<split pos="left">
									<output> 1.149679183959961 </output>
								</split>
								<split pos="right">
									<feature> 127 </feature>
									<threshold> 34.17578 </threshold>
									<split pos="left">
										<output> 0.5440468192100525 </output>
									</split>
									<split pos="right">
										<output> 0.33986344933509827 </output>
									</split>
								</split>
							</split>
						</split>
					</split>
				</split>
				<split pos="right">
					<output> 1.2067960500717163 </output>
				</split>
			</split>
			<split pos="right">
				<output> -0.5370854139328003 </output>
			</split>
		</split>
	</tree>
	<tree id="8" weight="0.13">
		<split>
			<feature> 130 </feature>
			<threshold> 355.60156 </threshold>
			<split pos="left">
				<feature> 27 </feature>
				<threshold> 9.0 </threshold>
				<split pos="left">
					<feature> 64 </feature>
					<threshold> 0.07734378 </threshold>
					<split pos="left">
						<feature> 131 </feature>
						<threshold> 57855.234 </threshold>
						<split pos="left">
							<output> 0.1276022344827652 </output>
						</split>
						<split pos="right">
							<output> 0.364189475774765 </output>
						</split>
					</split>
					<split pos="right">
						<feature> 131 </feature>
						<threshold> 48127.53 </threshold>
						<split pos="left">
							<output> 0.35260623693466187 </output>
						</split>
						<split pos="right">
							<feature> 121 </feature>
							<threshold> -7.650751 </threshold>
							<split pos="left">
								<feature> 113 </feature>
								<threshold> -5.1572847 </threshold>
								<split pos="left">
									<output> 0.614515483379364 </output>
								</split>
								<split pos="right">
									<output> 0.7967249155044556 </output>
								</split>
							</split>
							<split pos="right">
								<feature> 16 </feature>
								<threshold> 1.3285565 </threshold>
								<split pos="left">
									<output> 1.0980291366577148 </output>
								</split>
								<split pos="right">
									<feature> 59 </feature>
									<threshold> 0.15 </threshold>
									<split pos="left">
										<output> 0.20816536247730255 </output>
									</split>
									<split pos="right">
										<output> 0.4912642538547516 </output>
									</split>
								</split>
							</split>
						</split>
					</split>
				</split>
				<split pos="right">
					<output> 1.176483154296875 </output>
				</split>
			</split>
			<split pos="right">
				<output> -0.45689958333969116 </output>
			</split>
		</split>
	</tree>
	<tree id="9" weight="0.13">
		<split>
			<feature> 130 </feature>
			<threshold> 355.60156 </threshold>
			<split pos="left">
				<feature> 27 </feature>
				<threshold> 9.0 </threshold>
				<split pos="left">
					<feature> 64 </feature>
					<threshold> 0.07734378 </threshold>
					<split pos="left">
						<feature> 131 </feature>
						<threshold> 57855.234 </threshold>
						<split pos="left">
							<output> 0.10350045561790466 </output>
						</split>
						<split pos="right">
							<output> 0.29664477705955505 </output>
						</split>
					</split>
					<split pos="right">
						<feature> 131 </feature>
						<threshold> 48383.523 </threshold>
						<split pos="left">
							<output> 0.2888290286064148 </output>
						</split>
						<split pos="right">
							<feature> 111 </feature>
							<threshold> -7.5074477 </threshold>
							<split pos="left">
								<feature> 127 </feature>
								<threshold> 28.140625 </threshold>
								<split pos="left">
									<output> 0.7218090295791626 </output>
								</split>
								<split pos="right">
									<feature> 89 </feature>
									<threshold> 2.3569036 </threshold>
									<split pos="left">
										<output> 1.1179035902023315 </output>
									</split>
									<split pos="right">
										<feature> 120 </feature>
										<threshold> -6.757618 </threshold>
										<split pos="left">
											<output> 0.5315610766410828 </output>
										</split>
										<split pos="right">
											<output> 1.0965235233306885 </output>
										</split>
									</split>
								</split>
							</split>
							<split pos="right">
								<output> 0.2619308531284332 </output>
							</split>
						</split>
					</split>
				</split>
				<split pos="right">
					<output> 1.1530482769012451 </output>
				</split>
			</split>
			<split pos="right">
				<output> -0.3901430070400238 </output>
			</split>
		</split>
	</tree>
	<tree id="10" weight="0.13">
		<split>
			<feature> 130 </feature>
			<threshold> 355.60156 </threshold>
			<split pos="left">
				<feature> 27 </feature>
				<threshold> 9.0 </threshold>
				<split pos="left">
					<feature> 64 </feature>
					<threshold> 0.07734378 </threshold>
					<split pos="left">
						<feature> 128 </feature>
						<threshold> 6.1222736E7 </threshold>
						<split pos="left">
							<feature> 3 </feature>
							<threshold> 2.0 </threshold>
							<split pos="left">
								<feature> 131 </feature>
								<threshold> 65023.016 </threshold>
								<split pos="left">
									<output> -0.009316746145486832 </output>
								</split>
								<split pos="right">
									<output> 0.31723979115486145 </output>
								</split>
							</split>
							<split pos="right">
								<output> 0.46028703451156616 </output>
							</split>
						</split>
						<split pos="right">
							<output> 0.8976459503173828 </output>
						</split>
					</split>
					<split pos="right">
						<feature> 131 </feature>
						<threshold> 48639.516 </threshold>
						<split pos="left">
							<output> 0.23686982691287994 </output>
						</split>
						<split pos="right">
							<feature> 111 </feature>
							<threshold> -7.5074477 </threshold>
							<split pos="left">
								<feature> 127 </feature>
								<threshold> 28.140625 </threshold>
								<split pos="left">
									<output> 0.6704089641571045 </output>
								</split>
								<split pos="right">
									<output> 0.47749948501586914 </output>
								</split>
							</split>
							<split pos="right">
								<output> 0.2074895054101944 </output>
							</split>
						</split>
					</split>
				</split>
				<split pos="right">
					<output> 1.1352193355560303 </output>
				</split>
			</split>
			<split pos="right">
				<output> -0.33142587542533875 </output>
			</split>
		</split>
	</tree>
	<tree id="11" weight="0.13">
		<split>
			<feature> 130 </feature>
			<threshold> 355.60156 </threshold>
			<split pos="left">
				<feature> 27 </feature>
				<threshold> 9.0 </threshold>
				<split pos="left">
					<feature> 49 </feature>
					<threshold> 0.16619322 </threshold>
					<split pos="left">
						<feature> 3 </feature>
						<threshold> 2.0 </threshold>
						<split pos="left">
							<feature> 79 </feature>
							<threshold> 19.932241 </threshold>
							<split pos="left">
								<feature> 131 </feature>
								<threshold> 65023.016 </threshold>
								<split pos="left">
									<output> -0.07944688200950623 </output>
								</split>
								<split pos="right">
									<output> 0.25337785482406616 </output>
								</split>
							</split>
							<split pos="right">
								<output> 0.9291214942932129 </output>
							</split>
						</split>
						<split pos="right">
							<output> 0.47294142842292786 </output>
						</split>
					</split>
					<split pos="right">
						<feature> 131 </feature>
						<threshold> 48383.523 </threshold>
						<split pos="left">
							<output> 0.26238885521888733 </output>
						</split>
						<split pos="right">
							<feature> 19 </feature>
							<threshold> 10.449417 </threshold>
							<split pos="left">
								<output> 0.5002076029777527 </output>
							</split>
							<split pos="right">
								<feature> 109 </feature>
								<threshold> 21.715927 </threshold>
								<split pos="left">
									<output> 0.30350354313850403 </output>
								</split>
								<split pos="right">
									<output> 0.6488990783691406 </output>
								</split>
							</split>
						</split>
					</split>
				</split>
				<split pos="right">
					<output> 1.1204521656036377 </output>
				</split>
			</split>
			<split pos="right">
				<output> -0.29261454939842224 </output>
			</split>
		</split>
	</tree>
	<tree id="12" weight="0.13">
		<split>
			<feature> 130 </feature>
			<threshold> 355.60156 </threshold>
			<split pos="left">
				<feature> 27 </feature>
				<threshold> 9.0 </threshold>
				<split pos="left">
					<feature> 49 </feature>
					<threshold> 0.16619322 </threshold>
					<split pos="left">
						<feature> 79 </feature>
						<threshold> 19.932241 </threshold>
						<split pos="left">
							<feature> 3 </feature>
							<threshold> 2.0 </threshold>
							<split pos="left">
								<feature> 131 </feature>
								<threshold> 65023.016 </threshold>
								<split pos="left">
									<output> -0.11900739371776581 </output>
								</split>
								<split pos="right">
									<output> 0.19504322111606598 </output>
								</split>
							</split>
							<split pos="right">
								<output> 0.4514843225479126 </output>
							</split>
						</split>
						<split pos="right">
							<output> 0.7945839762687683 </output>
						</split>
					</split>
					<split pos="right">
						<feature> 131 </feature>
						<threshold> 48895.508 </threshold>
						<split pos="left">
							<output> 0.25332391262054443 </output>
						</split>
						<split pos="right">
							<feature> 5 </feature>
							<threshold> 13.0 </threshold>
							<split pos="left">
								<feature> 127 </feature>
								<threshold> 28.140625 </threshold>
								<split pos="left">
									<output> 0.4701824486255646 </output>
								</split>
								<split pos="right">
									<output> 0.32881462574005127 </output>
								</split>
							</split>
							<split pos="right">
								<output> 1.0723892450332642 </output>
							</split>
						</split>
					</split>
				</split>
				<split pos="right">
					<output> 1.105638861656189 </output>
				</split>
			</split>
			<split pos="right">
				<output> -0.2661285102367401 </output>
			</split>
		</split>
	</tree>
	<tree id="13" weight="0.13">
		<split>
			<feature> 130 </feature>
			<threshold> 355.60156 </threshold>
			<split pos="left">
				<feature> 27 </feature>
				<threshold> 9.0 </threshold>
				<split pos="left">
					<feature> 49 </feature>
					<threshold> 0.16619322 </threshold>
					<split pos="left">
						<feature> 79 </feature>
						<threshold> 19.932241 </threshold>
						<split pos="left">
							<feature> 3 </feature>
							<threshold> 2.0 </threshold>
							<split pos="left">
								<feature> 113 </feature>
								<threshold> -8.022356 </threshold>
								<split pos="left">
									<output> -0.3476221263408661 </output>
								</split>
								<split pos="right">
									<output> 0.07692087441682816 </output>
								</split>
							</split>
							<split pos="right">
								<output> 0.3989856243133545 </output>
							</split>
						</split>
						<split pos="right">
							<output> 0.7274800539016724 </output>
						</split>
					</split>
					<split pos="right">
						<feature> 131 </feature>
						<threshold> 48895.508 </threshold>
						<split pos="left">
							<output> 0.2064611166715622 </output>
						</split>
						<split pos="right">
							<feature> 11 </feature>
							<threshold> 0.0 </threshold>
							<split pos="left">
								<output> 0.47260457277297974 </output>
							</split>
							<split pos="right">
								<feature> 129 </feature>
								<threshold> 2.0 </threshold>
								<split pos="left">
									<output> 0.10951024293899536 </output>
								</split>
								<split pos="right">
									<output> 0.49741584062576294 </output>
								</split>
							</split>
						</split>
					</split>
				</split>
				<split pos="right">
					<output> 1.0931354761123657 </output>
				</split>
			</split>
			<split pos="right">
				<output> -0.22195208072662354 </output>
			</split>
		</split>
	</tree>
	<tree id="14" weight="0.13">
		<split>
			<feature> 109 </feature>
			<threshold> 18.613659 </threshold>
			<split pos="left">
				<feature> 134 </feature>
				<threshold> 0.0 </threshold>
				<split pos="left">
					<feature> 8 </feature>
					<threshold> 0.714286 </threshold>
					<split pos="left">
						<feature> 55 </feature>
						<threshold> 0.4036137 </threshold>
						<split pos="left">
							<feature> 55 </feature>
							<threshold> 0.10637865 </threshold>
							<split pos="left">
								<output> -0.32029885053634644 </output>
							</split>
							<split pos="right">
								<output> 0.2705427408218384 </output>
							</split>
						</split>
						<split pos="right">
							<output> 1.074666142463684 </output>
						</split>
					</split>
					<split pos="right">
						<feature> 130 </feature>
						<threshold> 355.60156 </threshold>
						<split pos="left">
							<feature> 54 </feature>
							<threshold> 0.222222 </threshold>
							<split pos="left">
								<feature> 106 </feature>
								<threshold> 5.155224 </threshold>
								<split pos="left">
									<output> 0.7035492062568665 </output>
								</split>
								<split pos="right">
									<feature> 79 </feature>
									<threshold> 19.932241 </threshold>
									<split pos="left">
										<output> 0.10540817677974701 </output>
									</split>
									<split pos="right">
										<output> 0.6727697253227234 </output>
									</split>
								</split>
							</split>
							<split pos="right">
								<output> 0.6366943717002869 </output>
							</split>
						</split>
						<split pos="right">
							<output> 0.027842819690704346 </output>
						</split>
					</split>
				</split>
				<split pos="right">
					<output> 1.1529479026794434 </output>
				</split>
			</split>
			<split pos="right">
				<output> 0.39005666971206665 </output>
			</split>
		</split>
	</tree>
	<tree id="15" weight="0.13">
		<split>
			<feature> 134 </feature>
			<threshold> 0.0 </threshold>
			<split pos="left">
				<feature> 109 </feature>
				<threshold> 18.613659 </threshold>
				<split pos="left">
					<feature> 108 </feature>
					<threshold> 12.886099 </threshold>
					<split pos="left">
						<feature> 65 </feature>
						<threshold> 0.4036137 </threshold>
						<split pos="left">
							<feature> 125 </feature>
							<threshold> -4.4688644 </threshold>
							<split pos="left">
								<output> -0.49244067072868347 </output>
							</split>
							<split pos="right">
								<output> -0.04485531523823738 </output>
							</split>
						</split>
						<split pos="right">
							<output> 1.065435767173767 </output>
						</split>
					</split>
					<split pos="right">
						<feature> 54 </feature>
						<threshold> 0.4 </threshold>
						<split pos="left">
							<feature> 130 </feature>
							<threshold> 355.60156 </threshold>
							<split pos="left">
								<feature> 16 </feature>
								<threshold> 1.0017232 </threshold>
								<split pos="left">
									<output> 1.0474045276641846 </output>
								</split>
								<split pos="right">
									<feature> 54 </feature>
									<threshold> 0.222222 </threshold>
									<split pos="left">
										<output> 0.08258403092622757 </output>
									</split>
									<split pos="right">
										<output> 0.5110419988632202 </output>
									</split>
								</split>
							</split>
							<split pos="right">
								<output> -0.1114787757396698 </output>
							</split>
						</split>
						<split pos="right">
							<output> 0.9487435221672058 </output>
						</split>
					</split>
				</split>
				<split pos="right">
					<output> 0.2855251729488373 </output>
				</split>
			</split>
			<split pos="right">
				<output> 1.388590931892395 </output>
			</split>
		</split>
	</tree>
	<tree id="16" weight="0.13">
		<split>
			<feature> 134 </feature>
			<threshold> 0.0 </threshold>
			<split pos="left">
				<feature> 3 </feature>
				<threshold> 2.0 </threshold>
				<split pos="left">
					<feature> 54 </feature>
					<threshold> 0.571429 </threshold>
					<split pos="left">
						<feature> 54 </feature>
						<threshold> 0.142857 </threshold>
						<split pos="left">
							<feature> 108 </feature>
							<threshold> 12.225273 </threshold>
							<split pos="left">
								<output> -0.41073620319366455 </output>
							</split>
							<split pos="right">
								<feature> 79 </feature>
								<threshold> 19.932241 </threshold>
								<split pos="left">
									<feature> 74 </feature>
									<threshold> 84.84852 </threshold>
									<split pos="left">
										<feature> 116 </feature>
										<threshold> -1.8404694 </threshold>
										<split pos="left">
											<feature> 129 </feature>
											<threshold> 8.0 </threshold>
											<split pos="left">
												<output> -0.08142662048339844 </output>
											</split>
											<split pos="right">
												<output> 0.23453372716903687 </output>
											</split>
										</split>
										<split pos="right">
											<output> 1.4341908693313599 </output>
										</split>
									</split>
									<split pos="right">
										<output> -6.62371301651001 </output>
									</split>
								</split>
								<split pos="right">
									<output> 0.7637315988540649 </output>
								</split>
							</split>
						</split>
						<split pos="right">
							<output> 0.15513364970684052 </output>
						</split>
					</split>
					<split pos="right">
						<output> 0.968094527721405 </output>
					</split>
				</split>
				<split pos="right">
					<output> 0.27624353766441345 </output>
				</split>
			</split>
			<split pos="right">
				<output> 1.1688482761383057 </output>
			</split>
		</split>
	</tree>
	<tree id="17" weight="0.13">
		<split>
			<feature> 134 </feature>
			<threshold> 0.0 </threshold>
			<split pos="left">
				<feature> 109 </feature>
				<threshold> 21.433903 </threshold>
				<split pos="left">
					<feature> 64 </feature>
					<threshold> 0.57187486 </threshold>
					<split pos="left">
						<feature> 108 </feature>
						<threshold> 16.851051 </threshold>
						<split pos="left">
							<feature> 125 </feature>
							<threshold> -4.4688644 </threshold>
							<split pos="left">
								<output> -0.37051528692245483 </output>
							</split>
							<split pos="right">
								<feature> 130 </feature>
								<threshold> 355.60156 </threshold>
								<split pos="left">
									<feature> 27 </feature>
									<threshold> 9.0 </threshold>
									<split pos="left">
										<feature> 111 </feature>
										<threshold> -18.76794 </threshold>
										<split pos="left">
											<output> 0.8013474345207214 </output>
										</split>
										<split pos="right">
											<feature> 129 </feature>
											<threshold> 49.0 </threshold>
											<split pos="left">
												<output> 0.13501513004302979 </output>
											</split>
											<split pos="right">
												<output> 1.0868873596191406 </output>
											</split>
										</split>
									</split>
									<split pos="right">
										<output> 1.064341425895691 </output>
									</split>
								</split>
								<split pos="right">
									<output> -0.21922147274017334 </output>
								</split>
							</split>
						</split>
						<split pos="right">
							<output> 0.12131497263908386 </output>
						</split>
					</split>
					<split pos="right">
						<output> 0.927672266960144 </output>
					</split>
				</split>
				<split pos="right">
					<output> 0.3247876465320587 </output>
				</split>
			</split>
			<split pos="right">
				<output> 1.007199764251709 </output>
			</split>
		</split>
	</tree>
	<tree id="18" weight="0.13">
		<split>
			<feature> 134 </feature>
			<threshold> 0.0 </threshold>
			<split pos="left">
				<feature> 109 </feature>
				<threshold> 21.433903 </threshold>
				<split pos="left">
					<feature> 108 </feature>
					<threshold> 16.851051 </threshold>
					<split pos="left">
						<feature> 54 </feature>
						<threshold> 0.5 </threshold>
						<split pos="left">
							<feature> 125 </feature>
							<threshold> -4.4688644 </threshold>
							<split pos="left">
								<output> -0.36893898248672485 </output>
							</split>
							<split pos="right">
								<feature> 130 </feature>
								<threshold> 355.60156 </threshold>
								<split pos="left">
									<feature> 22 </feature>
									<threshold> 9.0 </threshold>
									<split pos="left">
										<feature> 121 </feature>
										<threshold> -18.48964 </threshold>
										<split pos="left">
											<output> 0.7230159640312195 </output>
										</split>
										<split pos="right">
											<feature> 16 </feature>
											<threshold> 1.6553899 </threshold>
											<split pos="left">
												<output> 0.7311393022537231 </output>
											</split>
											<split pos="right">
												<output> 0.08739893138408661 </output>
											</split>
										</split>
									</split>
									<split pos="right">
										<output> 1.0580335855484009 </output>
									</split>
								</split>
								<split pos="right">
									<output> -0.17123845219612122 </output>
								</split>
							</split>
						</split>
						<split pos="right">
							<output> 0.8884377479553223 </output>
						</split>
					</split>
					<split pos="right">
						<output> 0.12545421719551086 </output>
					</split>
				</split>
				<split pos="right">
					<output> 0.30353105068206787 </output>
				</split>
			</split>
			<split pos="right">
				<output> 0.8699779510498047 </output>
			</split>
		</split>
	</tree>
	<tree id="19" weight="0.13">
		<split>
			<feature> 134 </feature>
			<threshold> 0.0 </threshold>
			<split pos="left">
				<feature> 3 </feature>
				<threshold> 2.0 </threshold>
				<split pos="left">
					<feature> 54 </feature>
					<threshold> 0.571429 </threshold>
					<split pos="left">
						<feature> 108 </feature>
						<threshold> 12.225273 </threshold>
						<split pos="left">
							<feature> 125 </feature>
							<threshold> -4.4688644 </threshold>
							<split pos="left">
								<output> -0.46909281611442566 </output>
							</split>
							<split pos="right">
								<output> 0.02349003590643406 </output>
							</split>
						</split>
						<split pos="right">
							<feature> 124 </feature>
							<threshold> -1.4924941 </threshold>
							<split pos="left">
								<feature> 129 </feature>
								<threshold> 8.0 </threshold>
								<split pos="left">
									<feature> 106 </feature>
									<threshold> 5.155224 </threshold>
									<split pos="left">
										<output> 0.7819595336914062 </output>
									</split>
									<split pos="right">
										<feature> 133 </feature>
										<threshold> 151.0 </threshold>
										<split pos="left">
											<output> -0.03859187662601471 </output>
										</split>
										<split pos="right">
											<output> -0.43707117438316345 </output>
										</split>
									</split>
								</split>
								<split pos="right">
									<output> 0.28320103883743286 </output>
								</split>
							</split>
							<split pos="right">
								<output> 0.4458487033843994 </output>
							</split>
						</split>
					</split>
					<split pos="right">
						<output> 0.8497942686080933 </output>
					</split>
				</split>
				<split pos="right">
					<output> 0.23997263610363007 </output>
				</split>
			</split>
			<split pos="right">
				<output> 0.7695022821426392 </output>
			</split>
		</split>
	</tree>
	<tree id="20" weight="0.13">
		<split>
			<feature> 134 </feature>
			<threshold> 0.0 </threshold>
			<split pos="left">
				<feature> 108 </feature>
				<threshold> 16.851051 </threshold>
				<split pos="left">
					<feature> 64 </feature>
					<threshold> 0.50156164 </threshold>
					<split pos="left">
						<feature> 49 </feature>
						<threshold> 0.14701708 </threshold>
						<split pos="left">
							<feature> 79 </feature>
							<threshold> 19.932241 </threshold>
							<split pos="left">
								<output> -0.31881001591682434 </output>
							</split>
							<split pos="right">
								<output> 0.7401020526885986 </output>
							</split>
						</split>
						<split pos="right">
							<feature> 130 </feature>
							<threshold> 355.60156 </threshold>
							<split pos="left">
								<output> 0.08808635920286179 </output>
							</split>
							<split pos="right">
								<output> -0.011838705278933048 </output>
							</split>
						</split>
					</split>
					<split pos="right">
						<output> 0.8154451847076416 </output>
					</split>
				</split>
				<split pos="right">
					<feature> 63 </feature>
					<threshold> 0.01953125 </threshold>
					<split pos="left">
						<output> 1.2265337705612183 </output>
					</split>
					<split pos="right">
						<feature> 109 </feature>
						<threshold> 25.382244 </threshold>
						<split pos="left">
							<feature> 130 </feature>
							<threshold> 355.60156 </threshold>
							<split pos="left">
								<output> 0.09445807337760925 </output>
							</split>
							<split pos="right">
								<output> 0.1608401983976364 </output>
							</split>
						</split>
						<split pos="right">
							<output> 0.39933842420578003 </output>
						</split>
					</split>
				</split>
			</split>
			<split pos="right">
				<output> 0.6781286001205444 </output>
			</split>
		</split>
	</tree>
	<tree id="21" weight="0.13">
		<split>
			<feature> 134 </feature>
			<threshold> 0.0 </threshold>
			<split pos="left">
				<feature> 108 </feature>
				<threshold> 20.485582 </threshold>
				<split pos="left">
					<feature> 49 </feature>
					<threshold> 0.14701708 </threshold>
					<split pos="left">
						<feature> 108 </feature>
						<threshold> 12.225273 </threshold>
						<split pos="left">
							<output> -0.37098392844200134 </output>
						</split>
						<split pos="right">
							<output> -0.016452334821224213 </output>
						</split>
					</split>
					<split pos="right">
						<feature> 64 </feature>
						<threshold> 0.57187486 </threshold>
						<split pos="left">
							<feature> 11 </feature>
							<threshold> 0.0 </threshold>
							<split pos="left">
								<output> 0.2465401291847229 </output>
							</split>
							<split pos="right">
								<feature> 105 </feature>
								<threshold> 0.13671875 </threshold>
								<split pos="left">
									<output> 0.7049968838691711 </output>
								</split>
								<split pos="right">
									<feature> 124 </feature>
									<threshold> -1.4924941 </threshold>
									<split pos="left">
										<feature> 79 </feature>
										<threshold> 34.63634 </threshold>
										<split pos="left">
											<output> -0.010695792734622955 </output>
										</split>
										<split pos="right">
											<output> 1.1689393520355225 </output>
										</split>
									</split>
									<split pos="right">
										<output> 0.344756543636322 </output>
									</split>
								</split>
							</split>
						</split>
						<split pos="right">
							<output> 0.7726640701293945 </output>
						</split>
					</split>
				</split>
				<split pos="right">
					<output> 0.18461614847183228 </output>
				</split>
			</split>
			<split pos="right">
				<output> 0.6059221029281616 </output>
			</split>
		</split>
	</tree>
	<tree id="22" weight="0.13">
		<split>
			<feature> 134 </feature>
			<threshold> 0.0 </threshold>
			<split pos="left">
				<feature> 4 </feature>
				<threshold> 3.0 </threshold>
				<split pos="left">
					<feature> 108 </feature>
					<threshold> 20.485582 </threshold>
					<split pos="left">
						<feature> 60 </feature>
						<threshold> 0.012515141 </threshold>
						<split pos="left">
							<output> -0.46871647238731384 </output>
						</split>
						<split pos="right">
							<feature> 127 </feature>
							<threshold> 28.140625 </threshold>
							<split pos="left">
								<output> 0.10244327038526535 </output>
							</split>
							<split pos="right">
								<feature> 69 </feature>
								<threshold> 0.037265655 </threshold>
								<split pos="left">
									<feature> 79 </feature>
									<threshold> 35.61662 </threshold>
									<split pos="left">
										<feature> 129 </feature>
										<threshold> 9.0 </threshold>
										<split pos="left">
											<feature> 130 </feature>
											<threshold> 355.60156 </threshold>
											<split pos="left">
												<output> -0.11416281014680862 </output>
											</split>
											<split pos="right">
												<output> -0.3725888133049011 </output>
											</split>
										</split>
										<split pos="right">
											<output> 0.09768780320882797 </output>
										</split>
									</split>
									<split pos="right">
										<output> 0.8920435905456543 </output>
									</split>
								</split>
								<split pos="right">
									<output> 1.966875433921814 </output>
								</split>
							</split>
						</split>
					</split>
					<split pos="right">
						<output> 0.13296639919281006 </output>
					</split>
				</split>
				<split pos="right">
					<output> 0.4652881920337677 </output>
				</split>
			</split>
			<split pos="right">
				<output> 0.7228958010673523 </output>
			</split>
		</split>
	</tree>
	<tree id="23" weight="0.13">
		<split>
			<feature> 134 </feature>
			<threshold> 0.0 </threshold>
			<split pos="left">
				<feature> 3 </feature>
				<threshold> 2.0 </threshold>
				<split pos="left">
					<feature> 65 </feature>
					<threshold> 0.0062575703 </threshold>
					<split pos="left">
						<output> -0.5227430462837219 </output>
					</split>
					<split pos="right">
						<feature> 127 </feature>
						<threshold> 28.140625 </threshold>
						<split pos="left">
							<feature> 130 </feature>
							<threshold> 355.60156 </threshold>
							<split pos="left">
								<feature> 129 </feature>
								<threshold> 2.0 </threshold>
								<split pos="left">
									<output> 0.014697619713842869 </output>
								</split>
								<split pos="right">
									<output> 0.6139084696769714 </output>
								</split>
							</split>
							<split pos="right">
								<output> 0.0710078552365303 </output>
							</split>
						</split>
						<split pos="right">
							<feature> 69 </feature>
							<threshold> 0.037265655 </threshold>
							<split pos="left">
								<feature> 129 </feature>
								<threshold> 8.0 </threshold>
								<split pos="left">
									<feature> 130 </feature>
									<threshold> 355.60156 </threshold>
									<split pos="left">
										<output> -0.1243664026260376 </output>
									</split>
									<split pos="right">
										<output> -0.3238966464996338 </output>
									</split>
								</split>
								<split pos="right">
									<output> 0.06617624312639236 </output>
								</split>
							</split>
							<split pos="right">
								<output> 1.6646201610565186 </output>
							</split>
						</split>
					</split>
				</split>
				<split pos="right">
					<output> 0.1855746954679489 </output>
				</split>
			</split>
			<split pos="right">
				<output> 0.6862362623214722 </output>
			</split>
		</split>
	</tree>
	<tree id="24" weight="0.13">
		<split>
			<feature> 134 </feature>
			<threshold> 0.0 </threshold>
			<split pos="left">
				<feature> 4 </feature>
				<threshold> 3.0 </threshold>
				<split pos="left">
					<feature> 108 </feature>
					<threshold> 12.225273 </threshold>
					<split pos="left">
						<feature> 125 </feature>
						<threshold> -4.4688644 </threshold>
						<split pos="left">
							<output> -0.4508366882801056 </output>
						</split>
						<split pos="right">
							<output> 0.016365448012948036 </output>
						</split>
					</split>
					<split pos="right">
						<feature> 1 </feature>
						<threshold> 15.0 </threshold>
						<split pos="left">
							<feature> 133 </feature>
							<threshold> 20.0 </threshold>
							<split pos="left">
								<feature> 130 </feature>
								<threshold> 355.60156 </threshold>
								<split pos="left">
									<feature> 19 </feature>
									<threshold> 6.2253284 </threshold>
									<split pos="left">
										<output> 1.0511484146118164 </output>
									</split>
									<split pos="right">
										<feature> 20 </feature>
										<threshold> 3.2825208 </threshold>
										<split pos="left">
											<output> 0.7659372687339783 </output>
										</split>
										<split pos="right">
											<output> 0.08639931678771973 </output>
										</split>
									</split>
								</split>
								<split pos="right">
									<output> 0.08899322897195816 </output>
								</split>
							</split>
							<split pos="right">
								<output> -0.11457622051239014 </output>
							</split>
						</split>
						<split pos="right">
							<output> 1.1680045127868652 </output>
						</split>
					</split>
				</split>
				<split pos="right">
					<output> 0.41425544023513794 </output>
				</split>
			</split>
			<split pos="right">
				<output> 0.642448902130127 </output>
			</split>
		</split>
	</tree>
	<tree id="25" weight="0.13">
		<split>
			<feature> 134 </feature>
			<threshold> 0.0 </threshold>
			<split pos="left">
				<feature> 109 </feature>
				<threshold> 24.818195 </threshold>
				<split pos="left">
					<feature> 108 </feature>
					<threshold> 13.216512 </threshold>
					<split pos="left">
						<feature> 115 </feature>
						<threshold> -5.01116 </threshold>
						<split pos="left">
							<output> -0.4253877103328705 </output>
						</split>
						<split pos="right">
							<feature> 125 </feature>
							<threshold> -5.107296 </threshold>
							<split pos="left">
								<output> 1.1416822671890259 </output>
							</split>
							<split pos="right">
								<output> -0.030684499070048332 </output>
							</split>
						</split>
					</split>
					<split pos="right">
						<feature> 5 </feature>
						<threshold> 15.0 </threshold>
						<split pos="left">
							<feature> 54 </feature>
							<threshold> 0.4 </threshold>
							<split pos="left">
								<feature> 133 </feature>
								<threshold> 20.0 </threshold>
								<split pos="left">
									<feature> 130 </feature>
									<threshold> 355.60156 </threshold>
									<split pos="left">
										<output> 0.080486960709095 </output>
									</split>
									<split pos="right">
										<output> 0.10440713912248611 </output>
									</split>
								</split>
								<split pos="right">
									<output> -0.11645276099443436 </output>
								</split>
							</split>
							<split pos="right">
								<output> 0.804695188999176 </output>
							</split>
						</split>
						<split pos="right">
							<output> 1.13844633102417 </output>
						</split>
					</split>
				</split>
				<split pos="right">
					<output> 0.2876723110675812 </output>
				</split>
			</split>
			<split pos="right">
				<output> 0.6295235753059387 </output>
			</split>
		</split>
	</tree>
	<tree id="26" weight="0.13">
		<split>
			<feature> 134 </feature>
			<threshold> 0.0 </threshold>
			<split pos="left">
				<feature> 3 </feature>
				<threshold> 2.0 </threshold>
				<split pos="left">
					<feature> 127 </feature>
					<threshold> 28.140625 </threshold>
					<split pos="left">
						<feature> 65 </feature>
						<threshold> 0.36606812 </threshold>
						<split pos="left">
							<feature> 59 </feature>
							<threshold> 0.5 </threshold>
							<split pos="left">
								<feature> 129 </feature>
								<threshold> 2.0 </threshold>
								<split pos="left">
									<output> -0.09033304452896118 </output>
								</split>
								<split pos="right">
									<output> 0.33952420949935913 </output>
								</split>
							</split>
							<split pos="right">
								<output> 0.6602713465690613 </output>
							</split>
						</split>
						<split pos="right">
							<output> 0.8704988360404968 </output>
						</split>
					</split>
					<split pos="right">
						<feature> 130 </feature>
						<threshold> 355.60156 </threshold>
						<split pos="left">
							<feature> 55 </feature>
							<threshold> 0.12515135 </threshold>
							<split pos="left">
								<feature> 18 </feature>
								<threshold> 17.472729 </threshold>
								<split pos="left">
									<output> -0.21297043561935425 </output>
								</split>
								<split pos="right">
									<output> -0.05957029014825821 </output>
								</split>
							</split>
							<split pos="right">
								<output> -0.47474509477615356 </output>
							</split>
						</split>
						<split pos="right">
							<output> -0.34613677859306335 </output>
						</split>
					</split>
				</split>
				<split pos="right">
					<output> 0.1486484557390213 </output>
				</split>
			</split>
			<split pos="right">
				<output> 0.6258150935173035 </output>
			</split>
		</split>
	</tree>
	<tree id="27" weight="0.13">
		<split>
			<feature> 134 </feature>
			<threshold> 0.0 </threshold>
			<split pos="left">
				<feature> 3 </feature>
				<threshold> 2.0 </threshold>
				<split pos="left">
					<feature> 130 </feature>
					<threshold> 355.60156 </threshold>
					<split pos="left">
						<feature> 27 </feature>
						<threshold> 9.0 </threshold>
						<split pos="left">
							<feature> 64 </feature>
							<threshold> 0.17578118 </threshold>
							<split pos="left">
								<feature> 54 </feature>
								<threshold> 0.153846 </threshold>
								<split pos="left">
									<feature> 104 </feature>
									<threshold> 0.9609375 </threshold>
									<split pos="left">
										<feature> 128 </feature>
										<threshold> 6.1222736E7 </threshold>
										<split pos="left">
											<feature> 14 </feature>
											<threshold> 2.0 </threshold>
											<split pos="left">
												<output> 1.356583595275879 </output>
											</split>
											<split pos="right">
												<output> -0.11307249963283539 </output>
											</split>
										</split>
										<split pos="right">
											<output> 0.9071300625801086 </output>
										</split>
									</split>
									<split pos="right">
										<output> -0.23991833627223969 </output>
									</split>
								</split>
								<split pos="right">
									<output> 0.16914664208889008 </output>
								</split>
							</split>
							<split pos="right">
								<output> -0.1961226463317871 </output>
							</split>
						</split>
						<split pos="right">
							<output> 1.0461121797561646 </output>
						</split>
					</split>
					<split pos="right">
						<output> -0.23708797991275787 </output>
					</split>
				</split>
				<split pos="right">
					<output> 0.139950692653656 </output>
				</split>
			</split>
			<split pos="right">
				<output> 0.6008222103118896 </output>
			</split>
		</split>
	</tree>
	<tree id="28" weight="0.13">
		<split>
			<feature> 134 </feature>
			<threshold> 0.0 </threshold>
			<split pos="left">
				<feature> 3 </feature>
				<threshold> 2.0 </threshold>
				<split pos="left">
					<feature> 130 </feature>
					<threshold> 355.60156 </threshold>
					<split pos="left">
						<feature> 27 </feature>
						<threshold> 9.0 </threshold>
						<split pos="left">
							<feature> 101 </feature>
							<threshold> 0.96484375 </threshold>
							<split pos="left">
								<feature> 125 </feature>
								<threshold> -4.4688644 </threshold>
								<split pos="left">
									<output> -0.1796426922082901 </output>
								</split>
								<split pos="right">
									<output> 0.1825960874557495 </output>
								</split>
							</split>
							<split pos="right">
								<feature> 129 </feature>
								<threshold> 73.0 </threshold>
								<split pos="left">
									<feature> 19 </feature>
									<threshold> 6.2253284 </threshold>
									<split pos="left">
										<output> 0.418752521276474 </output>
									</split>
									<split pos="right">
										<output> -0.27845725417137146 </output>
									</split>
								</split>
								<split pos="right">
									<output> 1.131217122077942 </output>
								</split>
							</split>
						</split>
						<split pos="right">
							<output> 1.0407644510269165 </output>
						</split>
					</split>
					<split pos="right">
						<output> -0.26281577348709106 </output>
					</split>
				</split>
				<split pos="right">
					<output> 0.12759268283843994 </output>
				</split>
			</split>
			<split pos="right">
				<feature> 130 </feature>
				<threshold> 355.60156 </threshold>
				<split pos="left">
					<output> -0.7457782030105591 </output>
				</split>
				<split pos="right">
					<output> 0.8786452412605286 </output>
				</split>
			</split>
		</split>
	</tree>
	<tree id="29" weight="0.13">
		<split>
			<feature> 134 </feature>
			<threshold> 0.0 </threshold>
			<split pos="left">
				<feature> 130 </feature>
				<threshold> 355.60156 </threshold>
				<split pos="left">
					<feature> 17 </feature>
					<threshold> 23.64001 </threshold>
					<split pos="left">
						<feature> 27 </feature>
						<threshold> 9.0 </threshold>
						<split pos="left">
							<feature> 49 </feature>
							<threshold> 0.17897731 </threshold>
							<split pos="left">
								<feature> 54 </feature>
								<threshold> 0.153846 </threshold>
								<split pos="left">
									<output> -0.34815484285354614 </output>
								</split>
								<split pos="right">
									<output> 0.16995689272880554 </output>
								</split>
							</split>
							<split pos="right">
								<feature> 19 </feature>
								<threshold> 4.817299 </threshold>
								<split pos="left">
									<output> 0.8069803714752197 </output>
								</split>
								<split pos="right">
									<output> -0.20388178527355194 </output>
								</split>
							</split>
						</split>
						<split pos="right">
							<output> 1.03677499294281 </output>
						</split>
					</split>
					<split pos="right">
						<output> 0.05797475576400757 </output>
					</split>
				</split>
				<split pos="right">
					<output> -0.21063950657844543 </output>
				</split>
			</split>
			<split pos="right">
				<feature> 130 </feature>
				<threshold> 355.60156 </threshold>
				<split pos="left">
					<output> -0.6280862092971802 </output>
				</split>
				<split pos="right">
					<feature> 130 </feature>
					<threshold> 64767.195 </threshold>
					<split pos="left">
						<output> 0.7348068356513977 </output>
					</split>
					<split pos="right">
						<output> 1.110214352607727 </output>
					</split>
				</split>
			</split>
		</split>
	</tree>
	<tree id="30" weight="0.13">
		<split>
			<feature> 134 </feature>
			<threshold> 0.0 </threshold>
			<split pos="left">
				<feature> 130 </feature>
				<threshold> 355.60156 </threshold>
				<split pos="left">
					<feature> 18 </feature>
					<threshold> 17.472729 </threshold>
					<split pos="left">
						<feature> 27 </feature>
						<threshold> 9.0 </threshold>
						<split pos="left">
							<feature> 89 </feature>
							<threshold> 35.942776 </threshold>
							<split pos="left">
								<feature> 129 </feature>
								<threshold> 76.0 </threshold>
								<split pos="left">
									<output> -0.30840176343917847 </output>
								</split>
								<split pos="right">
									<output> 1.0834600925445557 </output>
								</split>
							</split>
							<split pos="right">
								<output> 0.8968475461006165 </output>
							</split>
						</split>
						<split pos="right">
							<output> 1.0329279899597168 </output>
						</split>
					</split>
					<split pos="right">
						<output> -0.027912357822060585 </output>
					</split>
				</split>
				<split pos="right">
					<output> -0.3243139982223511 </output>
				</split>
			</split>
			<split pos="right">
				<feature> 130 </feature>
				<threshold> 64767.195 </threshold>
				<split pos="left">
					<output> 0.4062431752681732 </output>
				</split>
				<split pos="right">
					<feature> 126 </feature>
					<threshold> 1.0 </threshold>
					<split pos="left">
						<feature> 134 </feature>
						<threshold> 51367.92 </threshold>
						<split pos="left">
							<output> 1.0729420185089111 </output>
						</split>
						<split pos="right">
							<output> 1.243936538696289 </output>
						</split>
					</split>
					<split pos="right">
						<output> 0.7706725597381592 </output>
					</split>
				</split>
			</split>
		</split>
	</tree>
	<tree id="31" weight="0.13">
		<split>
			<feature> 134 </feature>
			<threshold> 51367.92 </threshold>
			<split pos="left">
				<feature> 134 </feature>
				<threshold> 0.0 </threshold>
				<split pos="left">
					<feature> 18 </feature>
					<threshold> 17.472729 </threshold>
					<split pos="left">
						<feature> 130 </feature>
						<threshold> 355.60156 </threshold>
						<split pos="left">
							<output> -0.36913809180259705 </output>
						</split>
						<split pos="right">
							<output> -0.4777502417564392 </output>
						</split>
					</split>
					<split pos="right">
						<output> -0.1057019755244255 </output>
					</split>
				</split>
				<split pos="right">
					<feature> 130 </feature>
					<threshold> 64767.195 </threshold>
					<split pos="left">
						<output> 0.34937357902526855 </output>
					</split>
					<split pos="right">
						<feature> 126 </feature>
						<threshold> 1.0 </threshold>
						<split pos="left">
							<feature> 110 </feature>
							<threshold> 19.445766 </threshold>
							<split pos="left">
								<feature> 108 </feature>
								<threshold> 23.128878 </threshold>
								<split pos="left">
									<feature> 26 </feature>
									<threshold> 52.86328 </threshold>
									<split pos="left">
										<output> 0.887722909450531 </output>
									</split>
									<split pos="right">
										<output> 1.146545648574829 </output>
									</split>
								</split>
								<split pos="right">
									<output> 1.2547457218170166 </output>
								</split>
							</split>
							<split pos="right">
								<output> 1.1693166494369507 </output>
							</split>
						</split>
						<split pos="right">
							<output> 0.7094988822937012 </output>
						</split>
					</split>
				</split>
			</split>
			<split pos="right">
				<output> 1.1232279539108276 </output>
			</split>
		</split>
	</tree>
	<tree id="32" weight="0.13">
		<split>
			<feature> 134 </feature>
			<threshold> 51367.92 </threshold>
			<split pos="left">
				<feature> 134 </feature>
				<threshold> 0.0 </threshold>
				<split pos="left">
					<feature> 18 </feature>
					<threshold> 17.472729 </threshold>
					<split pos="left">
						<output> -0.49609407782554626 </output>
					</split>
					<split pos="right">
						<output> -0.11824733018875122 </output>
					</split>
				</split>
				<split pos="right">
					<feature> 130 </feature>
					<threshold> 64767.195 </threshold>
					<split pos="left">
						<output> 0.301570862531662 </output>
					</split>
					<split pos="right">
						<feature> 14 </feature>
						<threshold> 4.0 </threshold>
						<split pos="left">
							<feature> 109 </feature>
							<threshold> 12.973162 </threshold>
							<split pos="left">
								<feature> 110 </feature>
								<threshold> 19.445766 </threshold>
								<split pos="left">
									<feature> 26 </feature>
									<threshold> 52.86328 </threshold>
									<split pos="left">
										<feature> 132 </feature>
										<threshold> 125.0 </threshold>
										<split pos="left">
											<output> 0.8493772149085999 </output>
										</split>
										<split pos="right">
											<output> 1.2359265089035034 </output>
										</split>
									</split>
									<split pos="right">
										<output> 1.0277332067489624 </output>
									</split>
								</split>
								<split pos="right">
									<output> 1.043681263923645 </output>
								</split>
							</split>
							<split pos="right">
								<output> 1.1375243663787842 </output>
							</split>
						</split>
						<split pos="right">
							<output> 0.7217417359352112 </output>
						</split>
					</split>
				</split>
			</split>
			<split pos="right">
				<output> 1.0944994688034058 </output>
			</split>
		</split>
	</tree>
	<tree id="33" weight="0.13">
		<split>
			<feature> 134 </feature>
			<threshold> 51367.92 </threshold>
			<split pos="left">
				<feature> 134 </feature>
				<threshold> 0.0 </threshold>
				<split pos="left">
					<feature> 18 </feature>
					<threshold> 17.472729 </threshold>
					<split pos="left">
						<output> -0.5445464253425598 </output>
					</split>
					<split pos="right">
						<output> -0.12771165370941162 </output>
					</split>
				</split>
				<split pos="right">
					<feature> 130 </feature>
					<threshold> 64767.195 </threshold>
					<split pos="left">
						<output> 0.29445815086364746 </output>
					</split>
					<split pos="right">
						<feature> 54 </feature>
						<threshold> 0.222222 </threshold>
						<split pos="left">
							<feature> 14 </feature>
							<threshold> 4.0 </threshold>
							<split pos="left">
								<feature> 89 </feature>
								<threshold> 4.7138066 </threshold>
								<split pos="left">
									<feature> 26 </feature>
									<threshold> 52.86328 </threshold>
									<split pos="left">
										<feature> 108 </feature>
										<threshold> 23.128878 </threshold>
										<split pos="left">
											<output> 0.8288633227348328 </output>
										</split>
										<split pos="right">
											<output> 1.1976693868637085 </output>
										</split>
									</split>
									<split pos="right">
										<output> 1.0121721029281616 </output>
									</split>
								</split>
								<split pos="right">
									<output> 1.1677125692367554 </output>
								</split>
							</split>
							<split pos="right">
								<output> 0.639053225517273 </output>
							</split>
						</split>
						<split pos="right">
							<output> 1.0341163873672485 </output>
						</split>
					</split>
				</split>
			</split>
			<split pos="right">
				<output> 1.0397428274154663 </output>
			</split>
		</split>
	</tree>
	<tree id="34" weight="0.13">
		<split>
			<feature> 134 </feature>
			<threshold> 51367.92 </threshold>
			<split pos="left">
				<feature> 134 </feature>
				<threshold> 0.0 </threshold>
				<split pos="left">
					<feature> 130 </feature>
					<threshold> 355.60156 </threshold>
					<split pos="left">
						<feature> 18 </feature>
						<threshold> 17.472729 </threshold>
						<split pos="left">
							<output> -0.6240081191062927 </output>
						</split>
						<split pos="right">
							<output> -0.07390589267015457 </output>
						</split>
					</split>
					<split pos="right">
						<output> -0.4095892310142517 </output>
					</split>
				</split>
				<split pos="right">
					<feature> 130 </feature>
					<threshold> 64767.195 </threshold>
					<split pos="left">
						<feature> 130 </feature>
						<threshold> 355.60156 </threshold>
						<split pos="left">
							<output> -0.9767225384712219 </output>
						</split>
						<split pos="right">
							<output> 0.44619935750961304 </output>
						</split>
					</split>
					<split pos="right">
						<feature> 54 </feature>
						<threshold> 0.222222 </threshold>
						<split pos="left">
							<feature> 110 </feature>
							<threshold> 29.682604 </threshold>
							<split pos="left">
								<feature> 108 </feature>
								<threshold> 26.432997 </threshold>
								<split pos="left">
									<output> 0.674068808555603 </output>
								</split>
								<split pos="right">
									<output> 1.2025882005691528 </output>
								</split>
							</split>
							<split pos="right">
								<output> 1.155001163482666 </output>
							</split>
						</split>
						<split pos="right">
							<output> 0.9800240397453308 </output>
						</split>
					</split>
				</split>
			</split>
			<split pos="right">
				<output> 0.9984955787658691 </output>
			</split>
		</split>
	</tree>
	<tree id="35" weight="0.13">
		<split>
			<feature> 134 </feature>
			<threshold> 51367.92 </threshold>
			<split pos="left">
				<feature> 134 </feature>
				<threshold> 0.0 </threshold>
				<split pos="left">
					<feature> 130 </feature>
					<threshold> 355.60156 </threshold>
					<split pos="left">
						<output> -0.30717572569847107 </output>
					</split>
					<split pos="right">
						<output> -0.3769688010215759 </output>
					</split>
				</split>
				<split pos="right">
					<feature> 130 </feature>
					<threshold> 64767.195 </threshold>
					<split pos="left">
						<feature> 130 </feature>
						<threshold> 355.60156 </threshold>
						<split pos="left">
							<output> -0.8280377388000488 </output>
						</split>
						<split pos="right">
							<feature> 127 </feature>
							<threshold> 22.105469 </threshold>
							<split pos="left">
								<output> 0.6532930135726929 </output>
							</split>
							<split pos="right">
								<output> 0.2939843237400055 </output>
							</split>
						</split>
					</split>
					<split pos="right">
						<feature> 54 </feature>
						<threshold> 0.222222 </threshold>
						<split pos="left">
							<feature> 108 </feature>
							<threshold> 34.362896 </threshold>
							<split pos="left">
								<feature> 14 </feature>
								<threshold> 4.0 </threshold>
								<split pos="left">
									<output> 0.770451009273529 </output>
								</split>
								<split pos="right">
									<output> 0.4961421489715576 </output>
								</split>
							</split>
							<split pos="right">
								<output> 1.2461715936660767 </output>
							</split>
						</split>
						<split pos="right">
							<output> 0.9436439275741577 </output>
						</split>
					</split>
				</split>
			</split>
			<split pos="right">
				<output> 0.9578018188476562 </output>
			</split>
		</split>
	</tree>
	<tree id="36" weight="0.13">
		<split>
			<feature> 134 </feature>
			<threshold> 0.0 </threshold>
			<split pos="left">
				<feature> 130 </feature>
				<threshold> 355.60156 </threshold>
				<split pos="left">
					<output> -0.32711485028266907 </output>
				</split>
				<split pos="right">
					<output> -0.3640746474266052 </output>
				</split>
			</split>
			<split pos="right">
				<feature> 130 </feature>
				<threshold> 64767.195 </threshold>
				<split pos="left">
					<feature> 127 </feature>
					<threshold> 22.105469 </threshold>
					<split pos="left">
						<feature> 19 </feature>
						<threshold> 17.489565 </threshold>
						<split pos="left">
							<output> 0.4396006166934967 </output>
						</split>
						<split pos="right">
							<output> 0.9946451783180237 </output>
						</split>
					</split>
					<split pos="right">
						<output> 0.035240888595581055 </output>
					</split>
				</split>
				<split pos="right">
					<feature> 54 </feature>
					<threshold> 0.222222 </threshold>
					<split pos="left">
						<feature> 108 </feature>
						<threshold> 26.432997 </threshold>
						<split pos="left">
							<feature> 134 </feature>
							<threshold> 154103.77 </threshold>
							<split pos="left">
								<feature> 19 </feature>
								<threshold> 13.265476 </threshold>
								<split pos="left">
									<output> 0.32668760418891907 </output>
								</split>
								<split pos="right">
									<output> 0.7600861191749573 </output>
								</split>
							</split>
							<split pos="right">
								<output> 1.1234679222106934 </output>
							</split>
						</split>
						<split pos="right">
							<output> 1.1416717767715454 </output>
						</split>
					</split>
					<split pos="right">
						<output> 0.9210345149040222 </output>
					</split>
				</split>
			</split>
		</split>
	</tree>
	<tree id="37" weight="0.13">
		<split>
			<feature> 134 </feature>
			<threshold> 0.0 </threshold>
			<split pos="left">
				<feature> 130 </feature>
				<threshold> 355.60156 </threshold>
				<split pos="left">
					<feature> 18 </feature>
					<threshold> 23.277487 </threshold>
					<split pos="left">
						<output> -0.5366649031639099 </output>
					</split>
					<split pos="right">
						<output> -0.01656414195895195 </output>
					</split>
				</split>
				<split pos="right">
					<output> -0.3344394862651825 </output>
				</split>
			</split>
			<split pos="right">
				<feature> 127 </feature>
				<threshold> 22.105469 </threshold>
				<split pos="left">
					<feature> 130 </feature>
					<threshold> 63744.79 </threshold>
					<split pos="left">
						<feature> 19 </feature>
						<threshold> 17.489565 </threshold>
						<split pos="left">
							<output> 0.3761101961135864 </output>
						</split>
						<split pos="right">
							<output> 0.9055356979370117 </output>
						</split>
					</split>
					<split pos="right">
						<feature> 109 </feature>
						<threshold> 12.691136 </threshold>
						<split pos="left">
							<feature> 108 </feature>
							<threshold> 23.128878 </threshold>
							<split pos="left">
								<feature> 134 </feature>
								<threshold> 51367.92 </threshold>
								<split pos="left">
									<output> 0.6157935857772827 </output>
								</split>
								<split pos="right">
									<output> 0.9810299873352051 </output>
								</split>
							</split>
							<split pos="right">
								<output> 1.1950160264968872 </output>
							</split>
						</split>
						<split pos="right">
							<output> 0.9651111960411072 </output>
						</split>
					</split>
				</split>
				<split pos="right">
					<output> 0.09595988690853119 </output>
				</split>
			</split>
		</split>
	</tree>
	<tree id="38" weight="0.13">
		<split>
			<feature> 134 </feature>
			<threshold> 0.0 </threshold>
			<split pos="left">
				<feature> 130 </feature>
				<threshold> 355.60156 </threshold>
				<split pos="left">
					<output> -0.3211212158203125 </output>
				</split>
				<split pos="right">
					<output> -0.29593122005462646 </output>
				</split>
			</split>
			<split pos="right">
				<feature> 130 </feature>
				<threshold> 64000.39 </threshold>
				<split pos="left">
					<feature> 127 </feature>
					<threshold> 22.105469 </threshold>
					<split pos="left">
						<feature> 18 </feature>
						<threshold> 15.537808 </threshold>
						<split pos="left">
							<output> 0.2650856375694275 </output>
						</split>
						<split pos="right">
							<output> 0.8147819638252258 </output>
						</split>
					</split>
					<split pos="right">
						<output> -0.016346264630556107 </output>
					</split>
				</split>
				<split pos="right">
					<feature> 54 </feature>
					<threshold> 0.230769 </threshold>
					<split pos="left">
						<feature> 108 </feature>
						<threshold> 23.128878 </threshold>
						<split pos="left">
							<feature> 134 </feature>
							<threshold> 154103.77 </threshold>
							<split pos="left">
								<feature> 110 </feature>
								<threshold> 29.682604 </threshold>
								<split pos="left">
									<output> 0.46936681866645813 </output>
								</split>
								<split pos="right">
									<output> 1.015406608581543 </output>
								</split>
							</split>
							<split pos="right">
								<output> 1.0216392278671265 </output>
							</split>
						</split>
						<split pos="right">
							<output> 1.1027164459228516 </output>
						</split>
					</split>
					<split pos="right">
						<output> 0.8571923971176147 </output>
					</split>
				</split>
			</split>
		</split>
	</tree>
	<tree id="39" weight="0.13">
		<split>
			<feature> 134 </feature>
			<threshold> 0.0 </threshold>
			<split pos="left">
				<feature> 130 </feature>
				<threshold> 355.60156 </threshold>
				<split pos="left">
					<feature> 105 </feature>
					<threshold> 0.99609375 </threshold>
					<split pos="left">
						<output> -0.170188769698143 </output>
					</split>
					<split pos="right">
						<output> -0.6996317505836487 </output>
					</split>
				</split>
				<split pos="right">
					<output> -0.2536790668964386 </output>
				</split>
			</split>
			<split pos="right">
				<feature> 130 </feature>
				<threshold> 64000.39 </threshold>
				<split pos="left">
					<feature> 130 </feature>
					<threshold> 355.60156 </threshold>
					<split pos="left">
						<output> -0.9152117371559143 </output>
					</split>
					<split pos="right">
						<feature> 127 </feature>
						<threshold> 22.105469 </threshold>
						<split pos="left">
							<feature> 16 </feature>
							<threshold> 8.845723 </threshold>
							<split pos="left">
								<output> 0.2335110455751419 </output>
							</split>
							<split pos="right">
								<output> 0.7752195000648499 </output>
							</split>
						</split>
						<split pos="right">
							<output> 0.15634261071681976 </output>
						</split>
					</split>
				</split>
				<split pos="right">
					<feature> 110 </feature>
					<threshold> 23.995472 </threshold>
					<split pos="left">
						<feature> 54 </feature>
						<threshold> 0.222222 </threshold>
						<split pos="left">
							<output> 0.45045313239097595 </output>
						</split>
						<split pos="right">
							<output> 0.7506090998649597 </output>
						</split>
					</split>
					<split pos="right">
						<output> 0.9213554859161377 </output>
					</split>
				</split>
			</split>
		</split>
	</tree>
	<tree id="40" weight="0.13">
		<split>
			<feature> 134 </feature>
			<threshold> 0.0 </threshold>
			<split pos="left">
				<feature> 130 </feature>
				<threshold> 355.60156 </threshold>
				<split pos="left">
					<output> -0.2766018211841583 </output>
				</split>
				<split pos="right">
					<output> -0.21135418117046356 </output>
				</split>
			</split>
			<split pos="right">
				<feature> 130 </feature>
				<threshold> 64000.39 </threshold>
				<split pos="left">
					<feature> 130 </feature>
					<threshold> 355.60156 </threshold>
					<split pos="left">
						<output> -0.7658764123916626 </output>
					</split>
					<split pos="right">
						<feature> 127 </feature>
						<threshold> 22.105469 </threshold>
						<split pos="left">
							<feature> 19 </feature>
							<threshold> 17.489565 </threshold>
							<split pos="left">
								<output> 0.26079779863357544 </output>
							</split>
							<split pos="right">
								<output> 0.7271472215652466 </output>
							</split>
						</split>
						<split pos="right">
							<output> 0.13855791091918945 </output>
						</split>
					</split>
				</split>
				<split pos="right">
					<feature> 110 </feature>
					<threshold> 23.995472 </threshold>
					<split pos="left">
						<feature> 134 </feature>
						<threshold> 51367.92 </threshold>
						<split pos="left">
							<feature> 14 </feature>
							<threshold> 4.0 </threshold>
							<split pos="left">
								<output> 0.5410851836204529 </output>
							</split>
							<split pos="right">
								<output> 0.082839235663414 </output>
							</split>
						</split>
						<split pos="right">
							<output> 0.8590095639228821 </output>
						</split>
					</split>
					<split pos="right">
						<output> 0.8598710894584656 </output>
					</split>
				</split>
			</split>
		</split>
	</tree>
	<tree id="41" weight="0.13">
		<split>
			<feature> 134 </feature>
			<threshold> 0.0 </threshold>
			<split pos="left">
				<feature> 130 </feature>
				<threshold> 355.60156 </threshold>
				<split pos="left">
					<feature> 27 </feature>
					<threshold> 9.0 </threshold>
					<split pos="left">
						<feature> 105 </feature>
						<threshold> 0.99609375 </threshold>
						<split pos="left">
							<output> -0.15305666625499725 </output>
						</split>
						<split pos="right">
							<output> -0.6458278298377991 </output>
						</split>
					</split>
					<split pos="right">
						<output> 1.0709128379821777 </output>
					</split>
				</split>
				<split pos="right">
					<output> -0.18035954236984253 </output>
				</split>
			</split>
			<split pos="right">
				<feature> 130 </feature>
				<threshold> 64000.39 </threshold>
				<split pos="left">
					<feature> 130 </feature>
					<threshold> 355.60156 </threshold>
					<split pos="left">
						<output> -0.6240366101264954 </output>
					</split>
					<split pos="right">
						<feature> 127 </feature>
						<threshold> 22.105469 </threshold>
						<split pos="left">
							<output> 0.40148088335990906 </output>
						</split>
						<split pos="right">
							<output> 0.11696972697973251 </output>
						</split>
					</split>
				</split>
				<split pos="right">
					<feature> 110 </feature>
					<threshold> 23.995472 </threshold>
					<split pos="left">
						<feature> 135 </feature>
						<threshold> 10897.0 </threshold>
						<split pos="left">
							<output> 0.3408585488796234 </output>
						</split>
						<split pos="right">
							<output> 0.8271009922027588 </output>
						</split>
					</split>
					<split pos="right">
						<output> 0.8069700598716736 </output>
					</split>
				</split>
			</split>
		</split>
	</tree>
	<tree id="42" weight="0.13">
		<split>
			<feature> 134 </feature>
			<threshold> 0.0 </threshold>
			<split pos="left">
				<feature> 130 </feature>
				<threshold> 355.60156 </threshold>
				<split pos="left">
					<feature> 27 </feature>
					<threshold> 9.0 </threshold>
					<split pos="left">
						<feature> 105 </feature>
						<threshold> 0.99609375 </threshold>
						<split pos="left">
							<output> -0.14475539326667786 </output>
						</split>
						<split pos="right">
							<output> -0.6370651721954346 </output>
						</split>
					</split>
					<split pos="right">
						<output> 1.0662081241607666 </output>
					</split>
				</split>
				<split pos="right">
					<output> -0.15199905633926392 </output>
				</split>
			</split>
			<split pos="right">
				<feature> 130 </feature>
				<threshold> 63744.79 </threshold>
				<split pos="left">
					<feature> 130 </feature>
					<threshold> 355.60156 </threshold>
					<split pos="left">
						<output> -0.5068066716194153 </output>
					</split>
					<split pos="right">
						<feature> 127 </feature>
						<threshold> 22.105469 </threshold>
						<split pos="left">
							<output> 0.33927497267723083 </output>
						</split>
						<split pos="right">
							<output> 0.10217507928609848 </output>
						</split>
					</split>
				</split>
				<split pos="right">
					<feature> 110 </feature>
					<threshold> 22.858046 </threshold>
					<split pos="left">
						<feature> 134 </feature>
						<threshold> 51367.92 </threshold>
						<split pos="left">
							<output> 0.3333337604999542 </output>
						</split>
						<split pos="right">
							<output> 0.8187679052352905 </output>
						</split>
					</split>
					<split pos="right">
						<output> 0.7578293681144714 </output>
					</split>
				</split>
			</split>
		</split>
	</tree>
	<tree id="43" weight="0.13">
		<split>
			<feature> 134 </feature>
			<threshold> 0.0 </threshold>
			<split pos="left">
				<feature> 130 </feature>
				<threshold> 355.60156 </threshold>
				<split pos="left">
					<feature> 27 </feature>
					<threshold> 9.0 </threshold>
					<split pos="left">
						<output> -0.23607070744037628 </output>
					</split>
					<split pos="right">
						<output> 1.0620336532592773 </output>
					</split>
				</split>
				<split pos="right">
					<output> -0.13341829180717468 </output>
				</split>
			</split>
			<split pos="right">
				<feature> 130 </feature>
				<threshold> 63744.79 </threshold>
				<split pos="left">
					<feature> 114 </feature>
					<threshold> -15.908893 </threshold>
					<split pos="left">
						<output> 0.3844638764858246 </output>
					</split>
					<split pos="right">
						<output> -0.013632320798933506 </output>
					</split>
				</split>
				<split pos="right">
					<feature> 124 </feature>
					<threshold> -58.194824 </threshold>
					<split pos="left">
						<output> 1.3481030464172363 </output>
					</split>
					<split pos="right">
						<feature> 14 </feature>
						<threshold> 4.0 </threshold>
						<split pos="left">
							<feature> 108 </feature>
							<threshold> 23.128878 </threshold>
							<split pos="left">
								<feature> 109 </feature>
								<threshold> 12.691136 </threshold>
								<split pos="left">
									<output> 0.39402148127555847 </output>
								</split>
								<split pos="right">
									<output> 0.7766209840774536 </output>
								</split>
							</split>
							<split pos="right">
								<output> 1.0740547180175781 </output>
							</split>
						</split>
						<split pos="right">
							<output> 0.17175611853599548 </output>
						</split>
					</split>
				</split>
			</split>
		</split>
	</tree>
	<tree id="44" weight="0.13">
		<split>
			<feature> 134 </feature>
			<threshold> 0.0 </threshold>
			<split pos="left">
				<feature> 130 </feature>
				<threshold> 355.60156 </threshold>
				<split pos="left">
					<feature> 14 </feature>
					<threshold> 2.0 </threshold>
					<split pos="left">
						<output> 1.283300518989563 </output>
					</split>
					<split pos="right">
						<feature> 16 </feature>
						<threshold> 17.016565 </threshold>
						<split pos="left">
							<output> -0.3148422837257385 </output>
						</split>
						<split pos="right">
							<output> 0.054107774049043655 </output>
						</split>
					</split>
				</split>
				<split pos="right">
					<output> -0.10953976213932037 </output>
				</split>
			</split>
			<split pos="right">
				<feature> 130 </feature>
				<threshold> 57865.953 </threshold>
				<split pos="left">
					<output> 0.040588997304439545 </output>
				</split>
				<split pos="right">
					<feature> 14 </feature>
					<threshold> 4.0 </threshold>
					<split pos="left">
						<feature> 108 </feature>
						<threshold> 24.120113 </threshold>
						<split pos="left">
							<feature> 74 </feature>
							<threshold> 10.606065 </threshold>
							<split pos="left">
								<feature> 19 </feature>
								<threshold> 16.081535 </threshold>
								<split pos="left">
									<output> 0.2763415277004242 </output>
								</split>
								<split pos="right">
									<output> 0.6654030084609985 </output>
								</split>
							</split>
							<split pos="right">
								<output> 0.8280830383300781 </output>
							</split>
						</split>
						<split pos="right">
							<output> 1.0716584920883179 </output>
						</split>
					</split>
					<split pos="right">
						<output> 0.16503937542438507 </output>
					</split>
				</split>
			</split>
		</split>
	</tree>
	<tree id="45" weight="0.13">
		<split>
			<feature> 134 </feature>
			<threshold> 0.0 </threshold>
			<split pos="left">
				<feature> 130 </feature>
				<threshold> 355.60156 </threshold>
				<split pos="left">
					<feature> 27 </feature>
					<threshold> 9.0 </threshold>
					<split pos="left">
						<output> -0.20686879754066467 </output>
					</split>
					<split pos="right">
						<output> 1.060723900794983 </output>
					</split>
				</split>
				<split pos="right">
					<output> -0.1081056147813797 </output>
				</split>
			</split>
			<split pos="right">
				<feature> 130 </feature>
				<threshold> 57865.953 </threshold>
				<split pos="left">
					<output> 0.019710559397935867 </output>
				</split>
				<split pos="right">
					<feature> 110 </feature>
					<threshold> 27.407751 </threshold>
					<split pos="left">
						<feature> 111 </feature>
						<threshold> -43.165703 </threshold>
						<split pos="left">
							<output> 1.2951761484146118 </output>
						</split>
						<split pos="right">
							<feature> 14 </feature>
							<threshold> 4.0 </threshold>
							<split pos="left">
								<feature> 108 </feature>
								<threshold> 23.128878 </threshold>
								<split pos="left">
									<feature> 109 </feature>
									<threshold> 12.691136 </threshold>
									<split pos="left">
										<output> 0.2980630695819855 </output>
									</split>
									<split pos="right">
										<output> 0.6162978410720825 </output>
									</split>
								</split>
								<split pos="right">
									<output> 1.0334481000900269 </output>
								</split>
							</split>
							<split pos="right">
								<output> -0.004561135079711676 </output>
							</split>
						</split>
					</split>
					<split pos="right">
						<output> 0.800430178642273 </output>
					</split>
				</split>
			</split>
		</split>
	</tree>
	<tree id="46" weight="0.13">
		<split>
			<feature> 134 </feature>
			<threshold> 0.0 </threshold>
			<split pos="left">
				<feature> 130 </feature>
				<threshold> 355.60156 </threshold>
				<split pos="left">
					<feature> 14 </feature>
					<threshold> 2.0 </threshold>
					<split pos="left">
						<output> 1.2342723608016968 </output>
					</split>
					<split pos="right">
						<output> -0.1893066018819809 </output>
					</split>
				</split>
				<split pos="right">
					<output> -0.08794505894184113 </output>
				</split>
			</split>
			<split pos="right">
				<feature> 130 </feature>
				<threshold> 57865.953 </threshold>
				<split pos="left">
					<output> 0.017636992037296295 </output>
				</split>
				<split pos="right">
					<feature> 110 </feature>
					<threshold> 27.407751 </threshold>
					<split pos="left">
						<feature> 111 </feature>
						<threshold> -43.165703 </threshold>
						<split pos="left">
							<output> 1.2546669244766235 </output>
						</split>
						<split pos="right">
							<feature> 135 </feature>
							<threshold> 10897.0 </threshold>
							<split pos="left">
								<feature> 108 </feature>
								<threshold> 25.772173 </threshold>
								<split pos="left">
									<feature> 127 </feature>
									<threshold> 16.070312 </threshold>
									<split pos="left">
										<output> 0.3711405098438263 </output>
									</split>
									<split pos="right">
										<output> 0.0708010122179985 </output>
									</split>
								</split>
								<split pos="right">
									<output> 0.9582502841949463 </output>
								</split>
							</split>
							<split pos="right">
								<output> 0.6609556674957275 </output>
							</split>
						</split>
					</split>
					<split pos="right">
						<output> 0.7459914088249207 </output>
					</split>
				</split>
			</split>
		</split>
	</tree>
	<tree id="47" weight="0.13">
		<split>
			<feature> 134 </feature>
			<threshold> 51367.92 </threshold>
			<split pos="left">
				<feature> 134 </feature>
				<threshold> 0.0 </threshold>
				<split pos="left">
					<feature> 130 </feature>
					<threshold> 355.60156 </threshold>
					<split pos="left">
						<feature> 14 </feature>
						<threshold> 2.0 </threshold>
						<split pos="left">
							<output> 1.1887375116348267 </output>
						</split>
						<split pos="right">
							<feature> 4 </feature>
							<threshold> 3.0 </threshold>
							<split pos="left">
								<output> -0.1930399090051651 </output>
							</split>
							<split pos="right">
								<output> 0.27852508425712585 </output>
							</split>
						</split>
					</split>
					<split pos="right">
						<output> -0.07391674071550369 </output>
					</split>
				</split>
				<split pos="right">
					<feature> 130 </feature>
					<threshold> 57865.953 </threshold>
					<split pos="left">
						<output> 0.015408627688884735 </output>
					</split>
					<split pos="right">
						<feature> 108 </feature>
						<threshold> 24.120113 </threshold>
						<split pos="left">
							<feature> 111 </feature>
							<threshold> -43.165703 </threshold>
							<split pos="left">
								<output> 1.2209054231643677 </output>
							</split>
							<split pos="right">
								<feature> 16 </feature>
								<threshold> 8.845723 </threshold>
								<split pos="left">
									<output> 0.13830320537090302 </output>
								</split>
								<split pos="right">
									<output> 0.5363076329231262 </output>
								</split>
							</split>
						</split>
						<split pos="right">
							<output> 0.8910500407218933 </output>
						</split>
					</split>
				</split>
			</split>
			<split pos="right">
				<output> 0.6185857057571411 </output>
			</split>
		</split>
	</tree>
	<tree id="48" weight="0.13">
		<split>
			<feature> 134 </feature>
			<threshold> 51367.92 </threshold>
			<split pos="left">
				<feature> 134 </feature>
				<threshold> 0.0 </threshold>
				<split pos="left">
					<feature> 14 </feature>
					<threshold> 2.0 </threshold>
					<split pos="left">
						<output> 1.175745964050293 </output>
					</split>
					<split pos="right">
						<feature> 130 </feature>
						<threshold> 355.60156 </threshold>
						<split pos="left">
							<feature> 27 </feature>
							<threshold> 9.0 </threshold>
							<split pos="left">
								<feature> 105 </feature>
								<threshold> 0.99609375 </threshold>
								<split pos="left">
									<feature> 128 </feature>
									<threshold> 6.1222736E7 </threshold>
									<split pos="left">
										<output> -0.08201564848423004 </output>
									</split>
									<split pos="right">
										<output> 0.7703700661659241 </output>
									</split>
								</split>
								<split pos="right">
									<output> -0.500234842300415 </output>
								</split>
							</split>
							<split pos="right">
								<output> 1.0610371828079224 </output>
							</split>
						</split>
						<split pos="right">
							<output> -0.06269127130508423 </output>
						</split>
					</split>
				</split>
				<split pos="right">
					<feature> 127 </feature>
					<threshold> 22.105469 </threshold>
					<split pos="left">
						<feature> 20 </feature>
						<threshold> 7.856457 </threshold>
						<split pos="left">
							<output> 0.06991028785705566 </output>
						</split>
						<split pos="right">
							<output> 0.5008877515792847 </output>
						</split>
					</split>
					<split pos="right">
						<output> -0.028129108250141144 </output>
					</split>
				</split>
			</split>
			<split pos="right">
				<output> 0.5837042331695557 </output>
			</split>
		</split>
	</tree>
	<tree id="49" weight="0.13">
		<split>
			<feature> 134 </feature>
			<threshold> 154103.77 </threshold>
			<split pos="left">
				<feature> 134 </feature>
				<threshold> 0.0 </threshold>
				<split pos="left">
					<feature> 14 </feature>
					<threshold> 2.0 </threshold>
					<split pos="left">
						<output> 1.1249377727508545 </output>
					</split>
					<split pos="right">
						<feature> 130 </feature>
						<threshold> 355.60156 </threshold>
						<split pos="left">
							<feature> 2 </feature>
							<threshold> 5.0 </threshold>
							<split pos="left">
								<output> -0.14303739368915558 </output>
							</split>
							<split pos="right">
								<output> 1.0745810270309448 </output>
							</split>
						</split>
						<split pos="right">
							<output> -0.04903138056397438 </output>
						</split>
					</split>
				</split>
				<split pos="right">
					<feature> 130 </feature>
					<threshold> 46363.883 </threshold>
					<split pos="left">
						<output> -0.0668395385146141 </output>
					</split>
					<split pos="right">
						<feature> 110 </feature>
						<threshold> 27.407751 </threshold>
						<split pos="left">
							<feature> 111 </feature>
							<threshold> -43.165703 </threshold>
							<split pos="left">
								<output> 1.194247841835022 </output>
							</split>
							<split pos="right">
								<feature> 14 </feature>
								<threshold> 4.0 </threshold>
								<split pos="left">
									<output> 0.2960605323314667 </output>
								</split>
								<split pos="right">
									<output> -0.1169353574514389 </output>
								</split>
							</split>
						</split>
						<split pos="right">
							<output> 0.6379939317703247 </output>
						</split>
					</split>
				</split>
			</split>
			<split pos="right">
				<output> 0.7606405019760132 </output>
			</split>
		</split>
	</tree>
	<tree id="50" weight="0.13">
		<split>
			<feature> 134 </feature>
			<threshold> 51367.92 </threshold>
			<split pos="left">
				<feature> 134 </feature>
				<threshold> 0.0 </threshold>
				<split pos="left">
					<feature> 127 </feature>
					<threshold> 28.140625 </threshold>
					<split pos="left">
						<output> 0.25532034039497375 </output>
					</split>
					<split pos="right">
						<feature> 130 </feature>
						<threshold> 355.60156 </threshold>
						<split pos="left">
							<output> -0.15948878228664398 </output>
						</split>
						<split pos="right">
							<output> -0.19001762568950653 </output>
						</split>
					</split>
				</split>
				<split pos="right">
					<feature> 126 </feature>
					<threshold> 1.0 </threshold>
					<split pos="left">
						<feature> 20 </feature>
						<threshold> 7.856457 </threshold>
						<split pos="left">
							<feature> 114 </feature>
							<threshold> -23.544964 </threshold>
							<split pos="left">
								<output> 0.7433304190635681 </output>
							</split>
							<split pos="right">
								<feature> 41 </feature>
								<threshold> 10796.509 </threshold>
								<split pos="left">
									<output> -0.0131801413372159 </output>
								</split>
								<split pos="right">
									<output> 1.2083210945129395 </output>
								</split>
							</split>
						</split>
						<split pos="right">
							<feature> 130 </feature>
							<threshold> 45852.68 </threshold>
							<split pos="left">
								<output> 0.22093750536441803 </output>
							</split>
							<split pos="right">
								<output> 0.6050160527229309 </output>
							</split>
						</split>
					</split>
					<split pos="right">
						<output> -0.06749992817640305 </output>
					</split>
				</split>
			</split>
			<split pos="right">
				<output> 0.5136171579360962 </output>
			</split>
		</split>
	</tree>
	<tree id="51" weight="0.13">
		<split>
			<feature> 134 </feature>
			<threshold> 154103.77 </threshold>
			<split pos="left">
				<feature> 134 </feature>
				<threshold> 0.0 </threshold>
				<split pos="left">
					<feature> 127 </feature>
					<threshold> 28.140625 </threshold>
					<split pos="left">
						<output> 0.2542179822921753 </output>
					</split>
					<split pos="right">
						<output> -0.1720004826784134 </output>
					</split>
				</split>
				<split pos="right">
					<feature> 126 </feature>
					<threshold> 1.0 </threshold>
					<split pos="left">
						<feature> 20 </feature>
						<threshold> 7.856457 </threshold>
						<split pos="left">
							<feature> 135 </feature>
							<threshold> 10897.0 </threshold>
							<split pos="left">
								<output> -0.027840742841362953 </output>
							</split>
							<split pos="right">
								<output> 0.48772892355918884 </output>
							</split>
						</split>
						<split pos="right">
							<feature> 130 </feature>
							<threshold> 37673.43 </threshold>
							<split pos="left">
								<output> 0.1743965744972229 </output>
							</split>
							<split pos="right">
								<feature> 76 </feature>
								<threshold> -22.186012 </threshold>
								<split pos="left">
									<output> 1.3490266799926758 </output>
								</split>
								<split pos="right">
									<feature> 84 </feature>
									<threshold> 14.478794 </threshold>
									<split pos="left">
										<output> 0.5245359539985657 </output>
									</split>
									<split pos="right">
										<output> 1.0103679895401 </output>
									</split>
								</split>
							</split>
						</split>
					</split>
					<split pos="right">
						<output> -0.07325559854507446 </output>
					</split>
				</split>
			</split>
			<split pos="right">
				<output> 0.7007349133491516 </output>
			</split>
		</split>
	</tree>
	<tree id="52" weight="0.13">
		<split>
			<feature> 134 </feature>
			<threshold> 154103.77 </threshold>
			<split pos="left">
				<feature> 134 </feature>
				<threshold> 0.0 </threshold>
				<split pos="left">
					<feature> 127 </feature>
					<threshold> 28.140625 </threshold>
					<split pos="left">
						<output> 0.2314499169588089 </output>
					</split>
					<split pos="right">
						<output> -0.1604042947292328 </output>
					</split>
				</split>
				<split pos="right">
					<feature> 127 </feature>
					<threshold> 16.070312 </threshold>
					<split pos="left">
						<feature> 109 </feature>
						<threshold> 16.357464 </threshold>
						<split pos="left">
							<output> 0.19248512387275696 </output>
						</split>
						<split pos="right">
							<output> 0.75433349609375 </output>
						</split>
					</split>
					<split pos="right">
						<feature> 113 </feature>
						<threshold> -48.1333 </threshold>
						<split pos="left">
							<output> 1.1683214902877808 </output>
						</split>
						<split pos="right">
							<feature> 114 </feature>
							<threshold> -18.45425 </threshold>
							<split pos="left">
								<output> 0.35000649094581604 </output>
							</split>
							<split pos="right">
								<feature> 130 </feature>
								<threshold> 355.60156 </threshold>
								<split pos="left">
									<output> -0.6234478950500488 </output>
								</split>
								<split pos="right">
									<feature> 120 </feature>
									<threshold> -9.829432 </threshold>
									<split pos="left">
										<output> 0.14068305492401123 </output>
									</split>
									<split pos="right">
										<output> -0.20371128618717194 </output>
									</split>
								</split>
							</split>
						</split>
					</split>
				</split>
			</split>
			<split pos="right">
				<output> 0.6612376570701599 </output>
			</split>
		</split>
	</tree>
	<tree id="53" weight="0.13">
		<split>
			<feature> 134 </feature>
			<threshold> 51367.92 </threshold>
			<split pos="left">
				<feature> 134 </feature>
				<threshold> 0.0 </threshold>
				<split pos="left">
					<feature> 49 </feature>
					<threshold> 0.14701708 </threshold>
					<split pos="left">
						<feature> 2 </feature>
						<threshold> 5.0 </threshold>
						<split pos="left">
							<output> -0.17185081541538239 </output>
						</split>
						<split pos="right">
							<output> 1.2042169570922852 </output>
						</split>
					</split>
					<split pos="right">
						<output> 0.1395977884531021 </output>
					</split>
				</split>
				<split pos="right">
					<feature> 130 </feature>
					<threshold> 46363.883 </threshold>
					<split pos="left">
						<output> -0.04673955217003822 </output>
					</split>
					<split pos="right">
						<feature> 108 </feature>
						<threshold> 20.485582 </threshold>
						<split pos="left">
							<feature> 54 </feature>
							<threshold> 0.222222 </threshold>
							<split pos="left">
								<feature> 2 </feature>
								<threshold> 5.0 </threshold>
								<split pos="left">
									<feature> 19 </feature>
									<threshold> 13.265476 </threshold>
									<split pos="left">
										<output> -0.25984111428260803 </output>
									</split>
									<split pos="right">
										<output> 0.1841370165348053 </output>
									</split>
								</split>
								<split pos="right">
									<output> 1.1494718790054321 </output>
								</split>
							</split>
							<split pos="right">
								<output> 0.41155117750167847 </output>
							</split>
						</split>
						<split pos="right">
							<output> 0.6162394881248474 </output>
						</split>
					</split>
				</split>
			</split>
			<split pos="right">
				<output> 0.427194207906723 </output>
			</split>
		</split>
	</tree>
	<tree id="54" weight="0.13">
		<split>
			<feature> 135 </feature>
			<threshold> 10897.0 </threshold>
			<split pos="left">
				<feature> 134 </feature>
				<threshold> 0.0 </threshold>
				<split pos="left">
					<feature> 65 </feature>
					<threshold> 0.0062575703 </threshold>
					<split pos="left">
						<output> -0.4305956959724426 </output>
					</split>
					<split pos="right">
						<feature> 14 </feature>
